3.323618
0.815302
-3.107547
4.888607
-3.800928
-3.718833
-2.635731
1.288339
-3.757897
4.486984
-1.491897
-0.265664
0.095676
0.753349
1.781213
0.547349
2.520371
-3.284860
1.161992
2.932676
-0.391705
4.914853
0.142674
-0.712455
-4.034700
2.675405
2.694937
-3.104190
0.889157
-0.507675
3.564714
-1.342967
4.323710
3.832667
2.585070
4.264809
-4.008759
0.041963
4.334086
3.921476
-3.807947
1.899014
1.965239
3.319346
2.307047
-2.962584
-2.063509
1.640522
0.273598
0.276040
-1.256294
-3.818628
3.946501
4.309977
4.174474
0.812555
3.308054
-1.087222
-3.091067
-4.560533
3.839686
4.908444
0.179907
3.554643
-1.238594
4.683523
-4.682608
2.402875
4.939879
2.390362
4.106418
4.712516
4.155553
-2.886593
-1.690878
-2.869503
4.479659
3.477126
-1.942351
-0.136570
-4.496750
-3.037049
-0.528733
-1.647237
-1.869106
-4.710990
1.904813
1.613361
-2.243568
0.500961
2.948546
4.606922
-2.174596
-2.591174
4.541307
-3.290658
1.971648
-1.704917
-1.671957
-3.814051
-2.908567
-1.488540
2.413862
0.190588
0.053255
3.893399
2.046113
-1.047853
2.803583
-3.991058
3.639180
2.514573
4.865719
4.625843
-0.195471
0.563829
-1.300851
-4.561449
4.819941
0.603504
-2.114170
4.650563
-2.576220
2.229530
2.805414
-2.703787
0.875729
4.363079
2.327494
-1.243477
-0.853450
-3.814966
2.064425
-2.439802
2.523728
3.066347
-4.468062
3.438368
-0.216834
1.658834
-4.834590
1.094546
3.338878
2.985473
-2.647023
-2.192907
-2.188025
-0.507370
2.362590
-0.117954
1.031983
1.922819
-1.985992
4.850154
1.322520
-1.378674
-3.024537
3.890957
0.818964
1.024049
3.544572
-1.586200
3.534196
3.790551
0.354167
0.181127
0.930357
3.207343
2.159032
1.857814
1.080203
3.536332
-0.394757
-2.253029
4.450362
-3.443251
1.685690
-1.422010
-4.291055
3.008667
-4.436934
3.717612
-1.264840
-1.863613
-2.739189
2.914060
3.814966
1.055788
-2.347942
-0.731681
3.292489
2.522507
4.948424
3.641926
-4.606006
-4.437849
4.703055
-0.680105
-4.218726
3.287912
4.950255
-0.446944
-0.833308
-3.229621
4.091464
2.306742
3.190252
-2.627186
-3.062990
-1.820276
-0.195776
-4.672842
-2.722404
-4.420454
0.685598
3.888211
-4.723807
3.357189
-3.669088
0.328227
0.922727
-3.466445
-1.451308
3.596759
-3.321482
-1.500137
-1.824549
3.191168
-1.852626
-1.468398
4.558702
4.556871
1.659139
-4.913938
3.427076
-2.881405
-1.530656
-3.537553
0.927610
-3.302866
1.712851
-3.649251
0.816828
3.207953
3.356578
4.215064
0.759758
0.235145
-3.115787
0.078280
-2.515183
-1.365551
1.358837
4.500717
-4.782403
2.866756
3.165227
-0.033723
-3.807642
-2.743767
-4.703360
-1.371349
-0.391705
4.779656
-3.856471
1.505936
3.894925
-2.973876
-3.074892
-3.701743
-1.714377
0.090793
-1.130863
4.781793
-4.779046
-4.736930
-1.460158
2.671743
-3.018738
-2.398602
3.397168
2.450484
-0.044099
-0.040742
-0.867794
-0.174108
-4.343547
-4.360332
3.543352
-4.391461
2.253029
4.109470
1.912748
-2.732170
-2.867672
-3.516495
-1.130558
4.165624
4.759209
-1.290475
-2.639393
-1.653645
0.792413
4.167150
-1.701559
-4.222999
-0.510727
0.491501
1.753746
4.352092
0.317240
2.071139
-4.285867
4.257485
2.351909
-1.781518
0.071261
2.672964
4.382000
-1.332896
1.888638
-0.747551
2.445601
-4.495224
0.476852
-3.712729
2.229835
-2.202063
2.645497
0.404828
3.526566
0.261086
-3.493912
-2.077242
1.953642
-2.851497
4.867550
-4.810785
2.068697
0.141148
3.704489
-3.394116
-2.992492
4.303262
-3.426771
-4.197363
-0.173803
-0.407880
-4.665212
3.096866
-2.606433
0.807672
3.713950
-0.175329
-3.277841
-4.014557
0.055696
-1.898709
2.326884
-1.783654
-2.609180
-3.364208
0.393231
-0.345317
3.657796
3.759423
1.716514
3.239692
-1.912442
-4.506211
-4.670095
-2.439497
-4.217200
-2.903684
-3.341319
-0.252235
-2.391278
1.386914
2.994018
1.173589
-3.860134
4.944761
-4.481796
-1.031983
3.684042
3.900113
0.537889
-1.487320
-2.939085
1.484573
-2.009796
-0.640736
0.383160
0.697195
-1.110416
1.847438
2.244484
-2.522202
-3.700522
-3.445692
1.531877
-1.604205
-0.899228
3.301340
-1.867275
2.495041
3.299203
-4.235511
4.442427
-4.851375
-2.895444
2.569811
-0.058748
0.157628
1.755272
4.138768
0.415204
-4.584948
-0.156407
-2.174291
-0.253456
4.826960
-2.745293
-3.653218
-0.511032
-3.427381
3.911405
-3.556169
-1.591082
-1.578875
-3.099307
3.899808
0.198523
-4.700003
-3.484451
4.121677
4.580370
3.624226
3.390759
4.355144
0.930357
-4.175390
-3.095950
3.930937
2.208472
0.921506
-4.567248
-1.446730
-2.477950
0.024567
-4.743034
-2.474899
-2.146825
2.652516
-1.853542
-3.895535
-1.148869
-4.754021
0.805841
-3.283029
2.514267
4.452803
-4.353923
-3.504898
4.178137
4.191870
-4.723807
-4.107639
1.441542
-0.211341
-4.572436
-4.360942
3.478652
1.553545
-0.666372
-4.569994
1.520890
-4.666738
-2.386395
-3.106632
2.618336
4.480880
-1.732688
2.771233
0.410932
4.223304
-3.234504
-0.220191
1.955168
2.734001
1.927702
0.931578
0.141453
0.803400
-4.565416
0.266884
3.854030
-2.866756
-3.854946
0.197302
-0.802179
-4.088107
-1.535234
4.726554
4.457381
3.603473
4.402142
1.910001
1.665242
-2.656178
3.174383
2.842647
1.539201
2.746818
2.718436
3.195441
3.290048
4.669485
-2.200842
4.150670
-2.437361
1.158025
0.648976
1.987213
2.094028
1.845912
-4.400006
1.668600
-4.386273
4.406720
2.561266
-3.010498
-1.790063
-0.434126
-0.097507
4.960936
-0.118259
-1.325266
-0.144200
4.090243
0.959960
-4.676199
-3.134404
1.922208
4.070406
1.149480
-1.714988
0.123447
4.266335
-2.816095
-2.042756
0.218970
-1.759850
-2.315897
-2.660756
-2.346721
4.149754
2.209693
0.386822
-1.419874
3.515275
1.310312
-0.011444
-3.927885
-2.717826
4.105502
-4.625538
-2.832881
-4.634693
3.312937
4.120151
3.978851
3.962981
0.735038
-0.300760
-2.908261
-0.497604
1.339305
-1.783959
-0.965148
-3.004395
-2.610096
3.550676
3.843043
-2.622608
-2.219764
-3.672750
0.976745
0.347758
-0.513474
-3.422803
-3.742637
-1.755882
-0.612354
3.748131
2.502060
3.658712
2.365337
1.350597
-3.748436
3.124943
1.827906
2.352519
-3.794214
4.023103
2.782830
-3.840602
3.339793
-1.306345
-1.241951
-3.701132
-0.274819
-4.559618
1.301462
0.088351
-1.160161
1.391491
4.460128
-1.808985
-2.990356
-0.516221
4.355144
2.483749
0.053255
-3.669393
-0.227821
2.203894
-0.033723
-3.677023
-4.436628
-2.896054
-1.025575
-4.525132
4.752190
4.031037
1.732078
2.045198
-2.689444
-4.743339
1.666463
0.201880
4.006317
-2.616504
-0.586413
3.017518
4.121372
3.734397
2.551805
-1.160161
0.764336
-0.466170
-1.225166
-0.454573
-3.881191
-1.914884
-3.753014
-3.188726
-4.072237
-2.767876
3.655049
4.241920
3.454848
2.727287
-2.582018
1.376537
-1.068606
-0.332194
-4.960326
-0.858638
4.703055
0.808283
2.570727
1.163213
-3.789331
-3.950774
-4.342936
3.899197
1.898709
1.866970
4.428083
-2.408673
-3.064211
0.290384
-4.804071
-0.719779
3.041017
1.922819
-0.009613
2.536546
-4.456771
0.142979
-1.821802
2.777947
3.615070
-3.185675
-1.126286
0.115818
2.887814
-1.286508
0.324564
2.967467
-2.004608
-3.110294
0.961486
-3.949858
-1.926786
2.059542
2.179785
-1.266366
0.691397
3.932768
-3.457289
4.538255
3.803674
-2.428205
-2.470321
3.127384
-0.302896
3.488418
3.922697
4.576403
2.848750
-0.407880
-4.791864
4.028596
-4.884335
-4.123203
-3.964507
4.837642
0.469527
2.430036
2.244179
-1.154363
2.850276
-2.694021
1.423536
1.862392
-3.719138
2.413251
-1.060366
-3.504898
-2.162389
2.076937
1.769311
4.061861
0.696280
4.014252
1.605121
-0.235755
-3.525956
-4.826350
3.105411
4.725028
3.819544
-0.749382
-4.371014
-0.477462
-3.719138
-1.914274
0.098117
-0.196081
2.186804
4.207434
2.217017
-4.573962
4.172338
2.304605
-1.384472
0.285195
3.411512
1.247749
-2.524949
-1.830653
2.627796
1.551103
-1.380505
1.585284
-4.545579
0.131382
-2.366863
4.420454
-2.848140
2.191687
-3.902554
-3.631550
-4.117100
2.942137
0.088961
1.332286
4.380169
0.355693
-3.534806
-3.012329
0.983764
4.008454
4.542528
0.678884
0.527818
3.023316
4.929197
-2.896664
-4.038362
4.197668
2.093112
0.644398
4.818415
-2.229835
-2.939085
-0.417341
-4.881893
3.843654
-0.880306
-0.254982
-3.150273
3.662069
-1.583758
3.119144
-4.457686
3.380688
-0.621204
0.826899
3.516495
-4.866939
-1.274911
-2.415082
-4.052095
-4.660939
0.196997
-2.329325
-0.035554
2.688528
-1.315195
-0.228736
4.836421
1.765954
3.339488
4.535813
-0.949889
4.084445
-2.961669
0.460677
-0.435347
4.606616
-2.102268
-1.157414
-1.636860
3.692282
-3.847316
4.976501
4.035615
1.377758
4.710685
-4.674673
-1.765343
-3.372448
-0.597095
-1.381115
1.908780
2.738884
-3.726157
3.298288
4.752495
-4.641408
-2.753838
-2.750786
3.777734
-2.630543
-2.690054
-3.809778
-2.636036
3.962065
-0.502792
1.868801
1.433607
-2.980895
0.476547
3.192083
4.558092
-0.807978
-0.111850
-2.809687
-0.926389
-1.993316
1.036561
-0.590991
2.480697
-4.006317
-3.339183
-1.038087
-1.126896
-1.009095
-4.216285
2.834407
-1.169012
-3.992279
4.485153
1.241035
2.822810
-1.230964
-4.410382
-1.362499
-2.272561
-0.530869
0.262001
4.018525
0.651723
3.537248
-2.515793
3.263497
1.237983
-1.837977
-4.920042
-2.864620
-1.215094
-2.024140
0.550401
3.311411
-2.582324
-4.405805
3.882107
-0.861385
1.750999
1.289560
2.166967
0.928831
-2.908567
-4.319742
-3.149052
2.788629
1.744591
-0.704215
-1.289254
-4.875790
-0.798517
1.953948
-1.272469
-0.788446
-0.908078
1.416822
-2.800836
4.340800
0.658132
-3.666036
2.970214
4.227882
3.578753
-0.264138
1.245613
4.055452
4.666128
-4.717093
2.141331
-4.701529
-4.497971
-1.417127
4.526658
4.755242
4.035005
-0.044710
4.275185
4.097262
0.758843
2.822504
-3.358715
3.287301
0.421308
2.123325
1.531877
4.121372
1.186712
-1.958220
-0.790887
-4.466842
-2.337870
-2.371136
-2.579882
2.383953
0.235450
2.676626
-3.267159
2.742546
-2.665334
-1.358226
-4.718925
2.263710
-3.216498
1.893826
-0.877560
-2.550584
-4.045076
-4.459517
3.351085
-4.629505
0.472274
-0.809198
-1.821497
-1.008789
3.089236
2.793512
0.753044
-4.491256
-1.487320
2.192602
2.493515
0.645009
0.141758
2.955260
-2.878353
-4.497055
1.581622
2.987609
-2.626576
-2.376629
3.955351
-4.036531
-1.075625
-1.075320
0.130467
4.390851
-3.061464
-2.361370
0.968810
-0.730155
4.202857
-3.483230
1.782739
4.301431
-1.671041
-4.349345
0.506149
3.749962
-3.125858
2.035127
3.248848
-4.470199
-3.330332
0.944700
0.616932
3.300729
-1.267281
4.454024
0.732597
4.779962
-1.739402
0.745720
-0.719474
0.347148
-3.132878
3.853420
-0.000153
-0.053255
4.060030
-0.635243
1.597797
-3.334605
-4.089022
-4.342631
-4.168676
4.834284
-4.993591
1.633198
3.815577
1.704306
-3.253426
2.844783
-3.176214
-3.584552
-2.784356
-4.733573
-0.605640
-1.821192
-4.285867
-2.687918
-0.768914
0.377972
-2.942137
1.640828
2.046419
0.786004
-4.919736
1.178472
4.158605
4.033784
3.270821
-4.205908
0.439924
4.354839
4.304483
0.259560
1.304514
-1.675314
-2.112339
-2.233802
2.383648
-0.764946
4.539781
3.453932
-0.483566
0.474105
-0.363323
0.159459
1.425367
4.361858
-1.030457
-1.524552
-0.283059
-3.082217
-1.427808
1.292611
-2.360759
-1.893826
-0.605640
1.801355
-2.705008
-4.464705
0.273904
4.115268
4.277627
1.488540
0.439314
-4.903867
2.633290
0.677664
1.417432
-2.151708
1.094546
-2.857601
-4.241615
-3.642842
2.455672
1.396985
-0.009613
0.554369
-2.246315
2.467574
-2.281411
-3.831751
0.898312
2.644887
1.441237
2.446821
0.272988
-4.052705
-3.755760
-1.549577
0.928526
-2.154454
-2.014069
4.757683
-3.925443
3.389843
3.300119
-0.411542
4.143345
-2.684561
-0.945311
1.996979
3.550371
4.140599
3.110904
-4.681387
2.430952
2.688833
-3.737144
-0.141453
1.126591
-2.235939
-0.469222
-0.936155
2.292093
-0.685293
2.705008
-1.111026
1.597797
3.156987
0.105136
-0.366985
-4.985656
-2.612537
-0.994751
-2.434004
1.326792
2.484359
1.582232
2.414777
-2.523728
-4.674978
-4.374981
0.086520
-0.209510
-0.553148
2.032380
-3.957488
-2.800531
2.578661
-2.690664
4.280374
-4.178442
-1.054872
3.563494
-2.640004
-2.075106
3.408155
-2.147130
1.426893
3.321787
-2.207556
0.773492
0.026093
2.047334
0.166173
-1.145512
-1.544389
0.776238
-3.485672
-0.387738
-0.188757
-4.620655
-3.649251
0.115513
-3.888516
-4.372845
2.937864
3.394421
-0.650197
2.616810
0.866878
4.980468
3.293405
1.659749
1.322825
-4.661245
-0.474410
3.999908
3.075503
1.852016
-2.917112
-4.971618
-0.877560
1.379894
-4.824213
2.323527
1.672872
4.974670
4.650563
-3.346202
2.170019
3.138981
4.833369
-0.639515
-0.977966
0.259255
4.394513
2.244484
0.310831
4.533067
0.476852
1.868496
-3.845485
-2.877438
-4.746086
-4.755547
-2.475204
0.378277
0.070956
-0.999634
-0.052950
-3.858913
-4.482711
-4.449141
3.448134
2.192907
-3.682516
3.587909
0.237281
0.994446
-1.277352
-0.690786
2.634205
3.455153
-0.419172
-3.869594
-3.480178
2.340007
2.150487
-3.568682
-0.308084
3.781396
0.163732
4.918516
-0.595569
4.556566
-2.018952
1.727500
3.848537
-4.277932
4.530931
2.270119
-0.876339
-2.795343
0.651418
2.977844
-2.120273
-3.729820
-0.901059
2.427290
-0.683767
-0.459151
0.988342
-1.859340
3.286386
-0.366375
3.789636
0.269021
-2.271645
3.564714
3.482620
-1.063723
-1.979583
2.789850
-0.082553
-4.345378
1.497391
-2.302164
4.841914
4.613025
-0.293741
2.825556
-2.087924
0.025178
2.149876
0.258339
1.750084
2.408979
-1.516617
-1.701865
-4.510788
3.902249
-4.299600
-4.375896
-4.663076
-2.458113
-1.272774
0.139012
-4.014863
-2.697378
1.100650
-4.742424
-2.564623
1.380505
-3.853725
2.688833
-3.847011
-2.034822
-3.003784
4.849239
4.071322
0.434431
-0.281228
-0.147862
-2.002777
-2.016816
4.467452
-0.595874
2.925352
1.738182
3.969695
-0.465255
-0.804010
1.337474
-1.775109
-0.561693
-4.014863
-2.932371
-3.467055
3.840602
2.037263
3.028809
4.881283
-3.109073
-0.323344
-1.270638
3.147221
-0.728935
4.677419
3.019959
-1.310617
-3.597369
2.832575
-1.858730
1.514786
3.995636
4.143040
-2.600330
-4.371319
-4.886471
-3.809778
2.372051
0.096896
2.754143
-4.074679
4.042024
1.907254
2.798700
-4.830012
2.567370
-1.223029
1.457411
1.489151
0.526292
0.167394
-1.534318
-4.820246
-4.232154
-1.554765
4.128086
0.034028
4.642628
2.047334
4.332560
1.850490
-1.450392
0.542161
-1.432081
4.228492
4.004486
2.530747
1.398816
3.362682
1.880398
-4.631642
-4.780877
3.023316
2.038179
-3.786584
3.051393
4.140294
0.591296
-0.196081
2.303385
1.943876
3.221076
0.620289
-3.660848
3.239998
0.568102
-4.825739
-2.987915
4.017304
-0.800043
-2.921384
4.917600
3.501846
-0.439924
-3.438063
1.076235
4.999390
-0.994140
-4.127476
-4.029206
-2.790460
-4.963683
0.075838
4.955443
2.592090
-1.914579
-2.423933
1.321604
-2.581408
-2.669912
-4.772027
-4.610584
1.953032
-0.257729
1.340831
-3.399609
0.072481
-0.968200
0.980102
-1.381420
-3.525651
-4.962462
2.911618
-2.238685
-4.612415
3.204596
-3.238777
-1.472976
2.552416
-3.882107
-4.621876
-0.435957
0.892209
-2.597278
-3.993805
1.621601
3.356883
-2.838679
2.061983
-1.742149
-4.045686
-4.464400
4.556871
-4.023713
-4.637745
-0.623035
-1.839198
-0.526292
1.877346
0.560167
-4.266640
-1.783044
-3.585772
-3.956572
1.905118
1.177557
-4.728385
-2.214576
-2.345805
-4.969787
4.051180
1.410718
-3.982513
0.854976
1.748253
-4.624928
0.360881
0.645009
1.234016
-1.772057
-1.128422
2.950682
1.065249
3.470412
3.578448
4.322489
3.130436
-2.884762
-2.531053
1.668294
4.726554
4.674673
1.852321
-2.007660
4.815058
4.941404
-0.981628
0.782037
-1.711020
-0.304117
3.999908
3.551592
2.406232
1.147343
-3.208869
2.755364
4.721366
-0.812250
4.335307
-0.330058
3.169805
3.029115
-3.209479
2.558519
-0.378277
4.818720
2.818537
-4.610584
0.941038
2.924741
0.761284
-2.807550
2.450789
-3.025758
2.808161
1.526078
-1.989044
0.378887
-1.797388
-3.425550
-1.812037
1.196478
2.910092
0.210425
2.512131
-1.899625
2.420270
-4.853206
-0.639515
1.103397
1.746422
-0.853145
-3.538774
1.876431
4.765007
4.436323
0.052644
-0.681936
3.344981
-3.929106
0.292825
3.975799
4.024323
3.820460
4.109470
-2.426679
1.826075
1.484878
1.819056
-3.019654
4.002045
0.455184
1.690268
-0.569628
-3.660237
1.441237
-2.835322
-1.163518
3.363292
4.346904
-4.426862
-4.551988
0.582141
3.700217
-4.991150
-3.698996
1.152837
-1.791589
-2.694937
0.303201
1.440016
-0.160375
-0.223243
4.647206
4.403363
-0.792413
1.722007
-1.542253
-4.507431
2.303995
-3.502762
-2.901852
3.799402
2.899106
0.952940
-3.800928
1.427503
2.882931
-2.286905
0.060884
-3.593097
-3.402966
2.101047
4.083224
-1.335337
-4.831843
3.087100
4.046907
-0.813166
4.543138
-4.587695
-1.156194
1.189764
1.086001
0.715506
-0.619068
4.252602
4.963683
-1.262093
-4.456465
-0.793023
-2.339702
3.920560
2.305521
3.212836
3.725242
-1.477859
0.719169
3.314463
1.090579
4.123203
3.156377
-1.553850
-1.324046
4.971923
-2.595447
3.596454
2.262795
-0.095370
1.893216
-1.647542
-4.545885
-2.021393
-0.368206
0.204932
-1.593524
0.256508
3.085879
2.586596
-4.914548
-2.910703
-3.104190
3.315683
4.709159
-4.799188
-0.629749
-2.766961
4.335307
-0.207068
0.009613
-3.833583
-0.397809
-1.134831
4.111301
0.511032
4.181799
-0.624561
-3.198187
-2.520066
-3.113346
-3.759728
2.390973
1.525468
3.566546
4.432661
2.868587
-4.454634
-0.765862
-1.442457
4.433882
3.296152
3.117008
-1.682638
-4.917600
2.396466
0.392010
1.364940
-4.133580
1.241646
-2.173681
-4.053621
-2.298502
-3.085879
-1.013062
0.845820
-2.126682
-4.014252
2.924436
3.165227
3.428907
0.864132
-1.309397
-3.616901
3.683126
0.845210
-4.931028
3.822291
3.815882
2.394024
3.666646
-1.561785
-0.321512
0.348369
-1.612445
4.982910
-3.879666
-4.534898
-4.405194
4.264504
4.826350
-1.946013
0.330973
1.217231
-3.024842
-2.175817
0.176855
2.347942
3.756066
2.886288
4.496750
-0.182043
-0.217750
-2.592090
-0.910215
-4.291971
-1.241646
-0.172887
-4.131138
3.667867
3.372448
-3.259529
-1.780602
-0.056917
-4.659413
-2.698294
0.186621
-4.551988
3.765526
-0.024262
1.134526
0.676748
4.342936
0.866573
3.416700
0.262001
-1.347850
-0.614490
-4.242225
-0.334025
0.384075
-1.662496
-3.606830
-2.290567
2.706534
1.225471
0.674306
-1.903287
-0.736869
-4.471725
-3.527787
0.117649
3.114872
-4.849849
-4.942320
-2.824641
3.334300
0.600146
-2.045808
0.285806
-1.547441
-3.731651
2.170019
3.281808
1.287118
-4.050264
3.341929
-3.768578
-1.317331
3.555864
2.331156
3.752709
-1.778466
4.947508
4.514451
-1.316416
4.799188
-1.986602
-3.716697
0.345012
3.884243
4.078951
0.128330
4.028901
3.990143
4.125645
-3.259835
-4.021882
-1.107669
0.712149
2.784356
4.426862
-4.055757
4.474776
-0.686209
-1.700949
-2.217627
-3.847011
-0.107578
1.155583
-3.303171
-0.703299
-0.088961
-4.924314
4.586169
-3.274483
-2.097079
4.105502
4.211402
-0.056307
-0.075228
-3.525651
-2.437971
2.601550
3.822291
-3.267769
-3.504288
4.520554
-2.175512
-1.316111
-2.076022
0.534837
-4.508652
2.616199
-2.439192
-1.638386
4.471114
1.772057
-0.366375
-4.551378
3.805811
0.713370
-3.131962
-1.774804
-1.813868
1.411328
4.439985
-3.804590
-0.519272
-4.304178
-4.826350
3.396252
-0.852840
-4.762566
-4.697562
1.865139
-2.645802
2.165136
4.684744
-1.991485
3.400525
2.900937
-4.424726
-1.744285
2.593921
-0.102084
4.565111
0.780206
-1.887112
3.352611
-2.489547
3.534806
4.688101
4.461653
-3.684347
-4.936827
-3.714866
-3.916898
-4.530625
-4.063692
2.426069
1.808374
-3.252510
-2.936033
-0.472579
3.424024
0.374615
-2.819452
-1.745201
2.060762
-2.699820
2.215491
1.764428
-1.824854
-1.982940
-2.167577
0.329447
-3.759117
0.016633
-2.204505
-2.673269
3.905911
3.644368
-1.761071
2.140110
1.980193
-4.633473
-3.973357
3.790246
2.483749
3.320566
0.608692
1.700949
-3.324229
3.926054
4.987793
-2.323527
-2.793512
2.431867
-4.624928
1.308481
3.372753
3.810389
-2.942442
4.951170
-0.316630
0.025483
1.548967
3.710898
3.232063
-1.341441
-2.867672
-3.464614
0.854976
0.840022
-3.617206
-4.432356
2.122105
-3.089236
4.997864
-3.558916
-1.808985
2.625355
1.082949
4.106418
-3.614765
-2.103793
-1.295663
1.360363
3.463393
4.653615
2.619251
0.285806
1.333506
-4.832148
2.061068
3.051698
-3.297067
1.425367
-0.647755
-2.026276
3.474990
0.676748
3.333384
1.443678
-3.259835
2.472152
0.621509
-3.722800
-0.438093
3.286081
-4.418012
-0.032502
-2.154759
-1.352733
-3.059023
0.216224
0.701468
-1.506546
3.871731
-1.375011
-4.788202
-3.344981
2.773675
3.619648
-3.279366
3.377026
3.610187
-0.020600
-2.541734
0.024262
-0.924253
-1.872768
3.047426
-0.090487
1.400647
-3.251900
-2.379070
4.707633
-4.348735
1.598407
0.100864
-2.098910
-3.301950
-2.998291
-0.913877
1.278878
1.153447
-0.952940
1.351512
-1.129337
1.762902
-3.630329
4.202857
4.571215
-4.739067
-4.874264
0.844295
-2.366558
-0.666372
4.588000
3.690756
-2.228004
-0.111850
3.469802
-4.409162
4.144261
1.731773
4.939879
-0.093539
4.374065
3.566851
-1.114689
-0.384381
0.821406
1.254769
-0.019990
-3.182928
-2.775201
1.368297
-0.333110
4.506211
3.708457
-1.619770
-1.804712
3.390149
3.926054
2.093722
3.968169
-2.559435
0.191198
0.988342
-3.387097
3.964812
-4.039277
-1.371349
3.631855
-2.564623
-4.932249
0.504318
-3.119755
-4.412824
4.485458
-4.972533
1.609088
-2.901547
-3.897977
-1.202277
-4.570605
-4.064302
0.510422
2.700430
-2.739189
3.165227
2.745293
-1.523942
0.936766
-1.378674
-2.604297
3.614460
2.596667
-1.275826
-0.433210
-1.693319
-1.544694
-0.396283
0.679189
-1.891385
-4.761956
3.997772
3.338878
-2.274697
-3.634297
-2.806024
-2.751701
-1.507462
0.823237
-0.201270
-4.644765
-4.767754
0.385296
-1.480911
-1.861476
-0.009613
3.695029
-4.411298
-0.999023
0.005036
-0.863216
0.612049
-4.041108
2.921995
-0.727714
-1.956694
-4.297159
-3.945585
0.961486
3.266854
-0.636769
-2.607959
-0.620289
-3.252510
-2.093722
-1.340220
-3.264412
1.796472
2.009796
3.276925
4.970702
-1.418653
0.601672
0.173498
-4.523301
3.285165
-2.080294
2.543565
1.495865
-0.353252
2.744377
0.430464
-2.064425
1.317942
-1.882839
-3.259224
-1.727500
2.595447
-0.362407
4.089938
-2.773370
-0.259560
0.256813
-0.413068
2.112644
0.701773
-4.765313
-2.329936
3.856471
-4.388104
-2.166051
-0.724662
-3.651997
1.830348
-3.774682
-0.578784
2.214270
4.799799
1.689962
-0.857723
-3.670919
1.164739
-2.404401
-0.466475
1.350597
-4.885861
2.415387
1.694845
-3.373974
-2.623524
3.971221
1.091800
-3.970305
4.302652
-2.280190
-3.977020
0.299844
4.602954
0.710318
-2.596362
-2.341838
3.741722
2.284463
4.680471
1.214789
-0.143895
-1.038697
0.075533
-3.278451
2.454756
-3.748436
-0.317545
-0.653859
3.011414
3.661458
-4.843745
4.632862
-3.171331
0.817743
-2.089145
0.209204
-4.795831
4.494308
-2.429731
2.991577
-2.494430
1.785485
0.018159
-4.280984
1.911527
-2.349162
-1.426283
-0.579394
0.258644
0.259255
0.740226
3.162175
1.711325
-3.911405
3.044069
3.865017
-3.928495
-1.694845
3.135624
-1.893521
-4.737846
-1.888943
2.616504
3.491165
-2.117222
3.519547
3.582720
-3.744469
1.747642
2.045808
0.524461
-3.680990
-4.526048
-4.834590
-4.681387
1.886502
3.075503
0.458235
-0.696890
2.052217
3.997162
-0.232093
2.902463
-4.235511
0.189673
0.011750
-3.082217
3.246101
4.082003
-0.224464
2.255165
-4.388104
-0.520188
-0.252541
-0.692618
0.027924
3.348033
0.395978
-3.106326
2.168493
-3.659932
-3.486282
1.998199
1.131169
-4.115574
3.118534
-3.129826
-4.790643
1.639912
-2.439192
-0.359050
-1.525468
0.447249
4.090854
-1.999115
0.322123
-0.115818
-0.370952
3.061464
-4.327372
-2.348552
0.655080
1.773583
0.003815
-4.838862
-3.681295
-0.102390
-4.536424
-3.371532
0.447249
2.500229
-4.938047
-3.778954
-1.404004
-4.301737
-0.657216
1.409803
2.615589
-3.818934
3.343760
2.052217
-0.688040
-3.528397
-2.402570
-4.975890
0.253151
-2.081210
3.610492
-0.269021
-3.243355
2.913450
-4.854427
1.817225
4.121982
-3.942839
4.851070
-3.189032
-4.810175
2.659841
-2.964415
-4.617908
3.010804
1.772057
1.568804
-1.194342
-0.455489
3.015381
0.871761
3.665731
-4.322489
-4.935911
-1.642659
-2.976318
0.288553
-3.043153
0.684988
2.642445
4.795526
-2.473983
2.280190
-1.153447
1.797998
2.564318
1.592914
-2.744377
-3.953825
4.244972
2.503586
4.794916
3.933683
-0.947447
2.593921
3.848842
4.407025
0.813166
-2.100131
0.134434
-0.183264
2.427290
-4.599902
-0.049898
3.189337
0.278787
3.118534
-3.832362
-3.027284
1.173589
3.167058
-4.500717
4.414045
2.260964
0.103610
-0.530564
4.535813
-2.770928
-4.585253
-3.447523
-3.555559
2.473067
4.093600
-2.190161
-4.880367
1.047243
2.404706
-2.497177
-4.327372
-2.093112
1.759239
4.267861
1.994842
1.625874
0.797906
-3.385876
-2.973266
-1.349986
-4.345988
-0.009003
-0.834223
-1.233100
1.672262
2.134617
2.214576
2.489242
2.096774
3.163091
-0.658437
0.573901
-2.560961
0.857723
-0.640126
-2.843867
-0.519578
2.423627
-4.782098
-3.713645
-0.803400
-3.281198
0.351726
-0.626698
-3.169195
-3.722495
-3.469192
3.401440
-2.034211
4.851680
2.145909
2.070833
-2.994018
1.407361
4.905393
-0.760979
-0.691702
0.080721
-2.701346
-2.228614
0.015107
-1.391186
4.107639
3.681906
-3.503372
-1.389050
0.360881
-0.457930
-0.457625
-3.933988
-4.228187
3.075503
-1.414380
1.826380
2.848750
-3.861354
3.876614
-1.570940
-2.937254
0.133213
3.404492
-0.223853
4.519028
0.124058
1.723838
-3.548235
-3.376720
2.919248
-2.467879
3.226264
2.265236
-0.021210
3.179876
-1.743675
-3.416395
4.366131
-4.042024
-3.965728
3.995941
-2.470321
-1.209906
-1.640522
-1.554155
-3.269906
-1.253243
4.015168
0.629749
-0.873287
-3.336131
1.778466
2.757195
-3.379467
0.247047
-1.201361
3.736229
3.148442
0.331278
-2.344890
-1.098819
-3.609272
0.534227
-0.106967
-4.062471
-2.636952
3.378552
-2.897580
-0.072787
0.686209
-4.077731
-1.935942
3.108463
2.585376
-4.362163
2.303385
2.336955
2.434309
-1.760765
3.424635
-3.189642
-2.302469
2.330241
2.914365
3.448134
0.312662
-4.745476
0.815912
1.714072
0.979492
-4.376812
1.692404
-0.235145
-2.440718
-4.327067
-1.038697
0.620289
2.058931
-3.468886
-3.385266
0.853450
-1.917631
-1.188238
2.764214
4.311502
-2.453841
4.610584
0.740837
3.615986
3.134404
-1.997894
1.964019
-4.001434
-3.033998
4.047823
-3.847926
-2.470626
-4.475082
-1.868191
3.196051
-4.013337
-4.525742
2.920774
1.377758
-4.393292
3.886074
-2.860958
3.479568
0.448775
-4.613941
-0.405133
3.686483
4.308756
2.418744
-0.314798
-0.135350
-1.255684
-2.893918
4.641102
-3.178350
2.893612
-0.350505
-1.331675
1.180609
3.504898
-4.779962
-2.491684
4.552293
0.915403
-4.562059
-0.658132
2.249367
-2.244789
-1.833399
-3.143254
0.912046
-2.666555
-2.265847
1.095462
-1.024049
-0.601062
4.001434
4.927061
3.169805
-4.276711
3.860134
-4.230018
3.429823
-0.648366
1.062502
-1.618854
-3.138981
-1.527909
-2.131870
-2.857906
-3.967864
-4.327067
1.786401
-2.231971
2.748039
-4.368267
-3.306833
0.469832
4.568468
4.654530
-2.455977
0.713981
0.796686
3.982513
1.482437
3.491775
1.299631
4.642628
0.101779
-0.869930
-2.043062
-0.559252
-2.693716
-2.718436
1.533708
-3.144169
-3.435926
3.935820
-2.205420
3.080386
1.887417
-1.167791
-1.479080
-3.579363
-1.990265
-0.699026
0.184790
1.770531
1.214484
-1.369518
-3.700827
-2.186499
2.893918
4.459517
1.895962
1.780602
2.245705
0.178381
0.602588
-0.423750
1.419263
-4.417402
0.106052
-1.822108
2.343974
1.026795
2.003082
1.327097
-0.697806
2.831660
2.961669
-1.445814
-3.030946
4.926145
2.008271
2.860652
0.016022
2.385174
-4.015778
1.850490
-1.286813
-3.892788
-3.701743
2.681204
-4.739067
4.222694
-1.432386
-4.780572
-0.593738
-3.268990
-4.625233
-4.388714
-3.592486
4.393292
4.343242
-4.082308
-0.123753
1.599017
1.533708
-3.042543
1.286508
-1.251106
-0.127415
-0.527818
2.985778
-2.918332
-2.776116
2.864315
-4.532151
4.335307
1.173589
2.587512
3.602863
-0.800958
-1.884060
-3.615986
-2.750175
4.348125
-3.863186
-3.235115
-4.425336
-4.822382
-3.682821
2.468795
0.082247
2.036348
1.677145
4.967345
1.811426
-4.711905
-0.505539
1.511734
3.295236
3.681295
1.528825
-4.080782
1.910916
2.560350
-0.669424
-0.551012
3.502762
0.925779
-0.333415
-4.213233
0.753655
-3.624226
-3.683432
1.811121
2.899106
-0.204932
-4.806207
4.962462
-1.465651
-1.509903
-2.920469
-2.929319
0.889767
2.515488
0.800348
-4.321268
3.604999
2.136143
-2.457198
-2.800836
-3.396252
-0.207068
4.857173
0.258034
1.995148
-0.810419
0.993530
-4.399701
3.923002
-2.325358
-3.179876
1.404614
2.771233
-4.064302
-3.703574
3.558611
2.840205
0.823237
2.023530
1.649373
4.838557
3.833277
-0.991089
-4.787591
-1.293222
-4.716788
0.268410
-4.651479
-0.773492
2.402875
1.366771
3.122501
2.985168
1.771447
0.478072
-2.570421
2.641530
0.608081
-0.511948
2.966552
2.264016
2.443770
3.467666
-4.778741
0.402692
-0.038301
-4.759209
4.682302
1.136052
3.154546
2.248756
3.343455
4.335612
-2.688223
-3.477126
-0.320597
-4.534593
-0.217750
3.280282
-2.714164
-2.723930
2.191076
-3.871120
2.882626
-4.839473
-0.729240
-1.452834
0.131993
-4.375286
-2.505722
2.897885
-2.943663
-4.940794
-1.010926
2.214270
-2.778558
0.099338
3.781091
0.894345
-3.221381
1.846522
-2.997986
-2.041231
3.942534
3.068178
2.371746
3.204596
4.612720
-2.160863
-2.186193
-0.145421
-2.509079
4.273049
-4.616688
0.690481
-3.065126
2.979064
1.257515
-1.254769
-3.553117
3.300424
-1.198920
-3.307443
-0.071871
-1.458022
0.829035
-4.301431
1.860866
0.584277
-2.579272
-2.494430
3.121586
1.995758
0.648976
-1.230964
0.105441
-1.197089
-0.630970
3.003784
-0.572069
-0.335856
0.017853
-0.034028
3.209784
-0.982543
3.614765
-1.552934
-0.682852
3.663594
-1.799524
2.093417
-1.193121
3.272652
2.365032
3.477432
0.659963
-3.978851
-2.251808
0.718863
0.233314
-1.790979
-4.027680
3.660848
1.273385
-1.964324
4.432966
1.402478
-4.071322
-1.674093
4.596545
-1.068300
4.047823
-3.643757
0.157933
-0.358440
0.062410
1.350597
1.373791
2.623524
4.195837
1.830042
-0.642262
-0.243080
-1.381420
1.137272
4.041414
-1.697592
4.629200
1.080203
1.290475
4.479049
-4.931028
3.564714
1.508683
-1.294443
0.019990
1.985382
3.955351
-1.395764
3.237861
-3.923002
2.261879
-3.822291
1.066774
-4.218726
0.824763
-4.863887
3.985870
-4.849239
2.910398
3.842433
1.629841
4.704581
-1.784875
3.997772
-3.496353
1.429334
-2.642140
-0.291299
-3.348033
-0.203101
2.248756
0.304727
-3.210395
1.732688
0.257118
3.218024
3.933988
-0.394452
4.974975
2.944578
0.507981
0.296182
4.060030
2.177038
4.715567
-0.318766
3.608356
-4.559313
0.413068
0.164037
3.847926
2.766350
-3.668172
0.363018
-3.087710
-1.181524
-2.984558
-1.515702
-0.125889
1.200751
1.108280
4.999695
-2.173681
-4.776299
-2.010407
1.439711
-1.641743
-0.013886
1.931059
2.484054
-3.159124
3.065432
2.124241
-4.202246
-4.201941
-2.871639
4.383831
-3.153325
1.614887
2.405927
4.287088
4.186377
-4.222083
-2.824946
3.298288
-0.476852
-0.481124
-0.248878
3.500626
-2.116916
1.805017
-4.537645
3.329112
-1.117435
-3.322092
1.487625
-4.246498
2.099826
-1.244697
1.549272
0.591601
4.147008
-3.676412
1.431166
-1.151616
1.127201
1.158635
1.260262
3.963591
3.725242
0.376141
3.543962
4.772332
4.786065
-2.725455
0.825373
-2.282327
2.243873
1.053041
-1.087222
-4.134800
-3.744469
2.240516
-3.886380
-3.789331
-2.173376
-3.352000
-1.952727
2.451399
3.918119
-1.296274
4.192480
0.012360
2.397076
-0.511643
-2.474593
-1.056398
-0.731071
-3.299814
0.854366
4.356059
-4.399091
0.086825
-2.655873
-2.097995
2.712638
-1.940519
-2.428205
-0.182653
-4.380779
3.203986
4.663686
4.776910
3.925748
2.038179
0.701773
-2.069002
0.741142
3.584857
1.301462
-4.696646
1.189764
-3.764611
-3.607746
3.732261
-2.234413
-0.749992
-4.158300
3.146611
-0.668813
-1.159246
2.509690
3.961150
-3.801538
1.597491
1.537065
4.159215
0.783563
0.591906
3.809168
-1.886502
4.982299
-4.204382
3.946196
3.315378
-1.825465
3.648640
-0.945616
4.855342
4.679861
-3.646199
0.094760
3.256172
-1.872158
3.521073
0.408795
0.972777
0.952940
-0.113376
4.057283
3.174993
-0.955077
3.586688
0.923032
-4.225440
0.021210
2.686392
4.789422
-2.582629
-3.300119
-0.962401
-4.825129
-3.133793
4.133580
0.927000
2.410504
1.479080
-3.447829
-2.040010
4.542833
-1.066774
-0.148167
-3.020875
2.705313
2.195044
-1.308786
-2.224342
-0.609607
3.875393
3.582720
3.025758
0.281533
1.558123
0.355083
2.161779
4.788812
2.180700
1.886807
3.398999
1.418043
1.181524
-0.008698
-0.015412
-2.242042
-1.891079
-4.656667
-4.158605
-3.963897
0.719474
4.349040
0.427717
2.369304
0.758538
-1.184881
-0.980102
4.461348
1.601459
-0.273293
-4.376812
-2.978759
4.500412
4.288308
-1.312449
-2.711722
3.574480
-3.104801
4.248939
1.908780
-3.536637
1.547441
-2.647023
-1.097903
-1.993927
0.794549
-0.224158
-2.045808
-3.573565
0.023041
3.539079
1.085391
-2.033601
0.859249
-2.959838
0.706351
-1.873074
1.191290
-0.669729
-3.470107
-0.767083
0.319376
1.830653
-3.909879
-3.739280
-4.988098
-2.028718
0.262307
3.265023
2.535325
-0.773186
-3.802149
-4.150060
-3.408155
1.014283
0.063326
3.063295
-2.660451
2.528916
1.574602
-4.041719
4.633473
0.454573
-0.390484
-0.463424
4.489120
2.494125
4.930113
-0.496994
-3.882717
-2.542344
-2.908567
-2.351299
4.437544
-3.559832
-0.157323
1.337168
0.534532
0.809809
4.609058
-2.154149
-0.496078
-3.555254
-3.763695
0.349895
-2.335429
-4.485763
-4.678640
2.515488
-4.046907
3.644978
-3.882412
1.367992
4.188208
-0.421918
-1.930754
3.741111
3.730735
3.292489
-3.539079
-1.393933
-2.374798
-1.676229
-4.905698
-4.388409
2.416303
2.180700
-1.208686
-3.963591
-4.816279
-4.012116
-4.818720
0.943480
-3.171941
-2.900327
1.136662
3.468581
-2.951903
0.004425
4.099704
-3.307138
-3.010193
-2.196875
-3.726157
-4.179968
1.572161
-2.695853
1.028016
2.115085
-3.746605
0.923032
4.122593
-4.659413
2.705313
2.291787
-4.054842
-1.934721
-2.045198
1.904508
-3.951689
-1.200751
2.756584
-0.543992
-1.522721
0.208289
1.319468
-4.545885
-2.853633
-0.650502
-0.759758
-1.912137
4.887997
-4.171117
-4.239784
-2.205725
4.711600
-0.385907
3.504898
-4.738151
-4.742119
-3.143864
2.086398
0.489975
3.409680
-4.064302
-0.404218
-1.530656
4.900815
-4.436934
0.323954
-2.665944
-0.675527
-2.947020
0.896176
-1.452528
2.230140
1.286813
0.491501
2.552110
-3.014771
-0.796991
3.898892
0.758843
-0.341044
-1.649678
0.393841
-3.844264
-4.064302
4.632252
3.241218
-0.050813
-4.218726
-3.072756
4.284036
-2.034822
4.679861
3.579363
-3.251289
-3.186590
4.063082
-3.977935
0.833003
-3.337657
-2.258827
-2.636036
-1.331065
1.208686
-2.711417
-2.090670
-1.477554
-3.287301
-0.063326
-2.125462
2.314982
2.942442
-1.387829
2.244789
1.470840
-2.992492
-2.507553
3.942228
-4.363689
3.456374
1.424451
0.912656
-4.813227
-1.827296
-2.519150
2.849055
4.218726
3.384350
0.180822
4.659413
4.268777
-2.843562
-2.358928
1.406751
-0.233924
-2.353130
-2.452925
1.399731
0.793939
-1.635029
4.069491
1.732688
2.406842
3.975799
-3.762169
-2.444075
-0.377056
-4.475997
-2.032991
0.913572
-1.401257
-2.136753
3.325144
2.703177
2.487411
0.806452
-1.261483
2.470626
-0.528733
1.160772
4.451277
-4.819330
-4.089022
1.163518
-2.180395
-4.626148
4.755852
-3.079470
-1.528520
-4.157994
4.979858
2.885067
-1.918546
2.279885
2.472152
-0.606861
-0.997497
0.541856
-3.534501
-0.335856
-1.936857
1.024049
0.919980
2.928098
-3.775292
1.406446
1.134220
0.450301
0.364238
0.012360
2.081820
-0.605640
-4.468673
3.486892
0.429243
-4.617908
-1.661580
-3.971831
2.727287
-1.851100
0.976745
1.858730
4.107944
1.847743
2.227393
3.451796
-1.904202
0.262307
-4.115268
3.736229
1.828211
-3.003174
-3.778649
-2.271950
2.177343
2.339396
2.572863
-2.207251
1.375622
0.113071
-2.280496
0.019684
3.787500
-0.220191
-4.269997
-4.701529
0.847652
-4.139683
0.888852
-3.200934
2.847530
-1.646626
-2.941527
-1.409803
-2.520981
2.158116
-4.981994
4.128086
-0.840022
1.876736
-4.918821
0.237892
4.423811
-3.220161
-4.984130
3.025758
1.745201
2.275307
3.129215
-0.142064
-1.477248
-1.409803
1.948759
-0.500046
-2.915891
-1.519059
2.456893
2.643361
2.125767
2.564318
-4.178137
-2.144078
0.215918
3.561052
-1.834315
-0.331278
-3.315378
4.784539
-0.180212
2.532273
3.774377
-2.477340
-4.543443
-0.172887
1.985992
-2.218238
-3.127079
-0.427412
2.128513
-3.051088
3.023621
1.165044
-1.375317
-3.859523
4.048433
-1.472060
-2.025056
-0.213477
4.169286
3.945585
3.059633
-0.591296
0.293435
-0.357524
-0.880001
4.378643
-1.747642
-1.301157
4.266030
2.090670
-2.207556
3.158513
4.958190
-2.362590
-0.887631
-3.565325
4.463485
-3.933378
4.060335
1.540422
-2.037568
0.234840
-4.919126
-2.219764
4.580981
-3.010804
-3.477126
4.160436
-2.521287
-2.856075
-0.339518
-4.718925
-1.398816
2.869198
4.271523
-0.648366
-1.259346
0.239113
-3.287912
2.559740
3.485366
1.235542
-1.238594
-4.146702
-1.355785
4.289224
1.652730
-0.354778
-0.291299
-2.181310
-1.738487
-3.318125
-1.444594
2.674184
4.421064
-2.500229
3.932768
0.257118
0.559557
-1.019166
1.965545
4.668264
3.785058
1.619770
-2.174902
2.059847
-4.085055
-3.851588
-2.206946
-2.560961
3.719443
-3.945891
-3.734397
-4.968261
-2.366558
2.276528
1.749474
-2.756890
1.861476
2.907956
4.967650
4.820246
-0.331584
4.137852
1.999115
0.876034
-2.338176
0.979492
-1.239204
-0.375530
2.439192
0.883663
-2.132481
-2.368389
0.823237
-2.759026
-4.881588
0.519883
3.658101
-1.476943
-0.475326
-3.750877
-4.629200
0.744499
-4.981384
-2.893612
-4.956969
4.007233
-3.865627
-0.993835
0.593738
3.986480
3.717002
0.707266
-4.733268
1.646626
-0.932493
4.796442
-4.281899
4.678030
2.056795
4.545579
-2.481918
-0.587634
-4.959410
2.247536
-1.186712
1.045412
-3.398389
-4.683523
-0.231483
0.804010
2.565538
-1.590777
4.625843
1.974395
3.658101
3.783532
-2.846919
-1.535844
4.833064
-1.448866
2.051302
4.826350
3.135014
4.315775
0.419477
-1.548967
0.569323
-3.258003
-1.024354
4.107028
-1.838282
2.061373
0.237281
1.227607
-4.480575
4.404279
-3.804895
0.954466
-1.974090
2.366253
-3.834803
0.706961
-0.816828
1.835536
-4.451277
-3.605304
-1.312449
-4.921873
-0.793329
-3.551286
-2.432783
-2.713248
-4.886776
0.958129
-1.255379
1.613666
-2.340007
-1.701254
-1.335948
1.819361
0.197913
-0.938597
1.228217
-3.081912
-2.283242
-2.790155
-4.623402
0.246742
-1.520280
-0.056001
0.021516
1.724448
2.416913
2.974487
-1.105228
4.311808
3.977020
3.009888
-3.057497
-2.132786
-1.335032
1.844386
3.801233
-2.847530
-3.715781
-1.435438
-4.157384
0.845515
1.305734
4.911496
-4.545885
3.364208
-1.873684
-4.879452
1.976226
3.688314
0.204932
4.541002
-0.221412
-4.666738
-1.801050
-4.544969
1.873074
-3.701743
-0.185705
-4.529710
-2.647328
4.171117
4.345378
-3.762474
-1.329844
3.355663
4.942930
2.759636
-1.425977
-0.192724
1.342662
0.475936
-4.754936
3.180792
1.256600
-4.052095
4.698782
-4.126560
-1.523637
2.750481
3.056887
-2.842036
-3.777123
-2.293619
1.375927
4.830012
-0.748466
2.807245
-1.942045
-2.692801
-1.627705
-0.796075
-1.767174
-2.619251
-0.395367
-0.702689
-1.975311
-3.559832
-3.497574
-3.179876
-2.803583
-1.472976
-1.490677
1.874905
-4.393292
-3.064821
-3.516495
-3.454848
0.381939
2.044588
-4.573962
2.563097
-2.033601
-0.815607
4.321574
0.928526
-2.590564
-4.483322
-1.426588
-4.397259
3.403272
-4.954222
4.771111
-1.928922
1.472976
3.805811
4.634388
1.733299
-2.278359
-4.435408
4.228797
2.863704
1.591388
4.869686
1.558123
3.339183
0.642567
-0.611133
-1.804102
1.208380
-4.629505
-0.290689
4.348125
-0.790277
-4.335612
-4.719535
4.888302
0.602283
-4.060335
-4.195227
3.199408
-1.929228
4.024934
-1.083560
-4.853206
3.062380
-1.002991
2.152928
-1.717734
-1.210211
-4.676809
4.418928
-0.828425
-2.614978
0.221107
-2.879269
-0.674612
2.302469
-1.966460
3.279672
1.074099
0.413068
3.796655
4.103977
2.426069
-3.601032
-1.198614
-0.905026
-1.095767
4.964599
2.809992
-3.050172
0.560778
-2.102268
1.681417
1.863002
2.454756
1.436048
4.295938
1.297800
-3.127384
2.940611
-3.743858
2.154759
2.942137
3.409986
-4.500107
-4.885556
-1.531571
-0.131382
-0.857418
-2.303079
-2.777947
4.826655
-0.037385
-4.642628
3.935820
-1.818751
-2.176733
-2.715690
-4.754631
0.380718
-1.411634
1.210517
-0.117649
-2.970519
-2.202979
-4.947813
-3.250984
4.206214
-2.056185
0.435347
0.028230
1.430555
-2.123325
0.572069
1.425367
3.058718
-2.172460
-0.594348
-1.943571
-2.519761
-1.929533
-4.898068
4.491256
-1.467788
-1.224250
3.680990
2.385174
4.480575
-1.109195
-2.166967
0.243080
0.804010
3.506729
-3.020264
-3.902249
-4.048128
-4.493393
4.433576
0.322428
-3.465835
3.757591
-2.600635
-2.588427
1.972259
2.163305
-4.159520
3.434400
0.091708
-4.373455
4.190344
3.939787
-1.940519
3.857997
-0.993530
-3.057497
1.666158
0.640126
-4.150975
-0.936460
-4.688406
-2.094638
0.970641
-4.196142
4.629505
-0.040132
-0.011139
-0.823542
-4.331034
0.496994
4.728996
3.202460
-0.084384
-1.087832
-4.576708
1.436048
-2.891476
-3.834803
-3.460036
-1.552629
0.012360
-3.387402
-2.409589
2.954649
-3.418531
-2.417219
4.088412
0.286416
4.100925
-0.463118
-1.581317
-1.568499
3.908048
3.471633
-4.005402
-2.609790
-0.945006
-1.026185
0.234230
-3.505203
2.973571
4.696646
4.614246
0.156713
-4.496139
-3.869289
-2.224647
-1.370434
-1.306650
-1.951201
0.938292
-3.149358
2.250893
1.380505
3.406934
2.859432
4.166234
1.758019
3.003784
-3.659627
-3.676412
3.884243
-3.726768
3.032777
2.742241
0.409711
-1.446425
-2.441023
1.418043
-4.183020
4.749443
4.296243
1.963713
-3.413343
-2.089145
-4.631336
-3.793298
3.528397
-2.346721
-4.745476
1.943266
4.244972
0.981933
3.384655
0.930357
1.983856
-2.082430
2.908567
-4.359722
-2.393414
1.012757
0.891903
0.751823
3.183538
-4.584948
-2.321085
-4.968871
1.213874
-1.124760
1.599933
1.125370
2.809687
2.697073
-4.685354
0.130161
-4.874874
1.082034
1.729637
-4.804376
-4.322794
-1.959136
2.771844
3.120060
-3.984954
2.195959
-0.596179
1.785791
-3.107547
-4.316080
3.023316
3.409680
-0.998108
-1.959136
-0.752129
0.161901
3.022095
4.763176
1.070742
0.207678
-0.938902
-3.977630
-4.843745
3.779260
-0.308084
-2.469710
-0.995666
0.366070
-4.264199
-0.156713
-3.426466
-1.682943
2.783746
4.683218
2.968993
-3.102054
-2.215796
-2.362590
3.178961
2.936949
3.122501
-4.811090
-0.413373
0.872982
-3.175909
2.081515
-1.713767
3.483840
2.158727
0.139622
-4.450362
2.148961
-0.630665
3.677023
-2.576525
-4.095431
0.706961
-0.155187
-2.328104
3.932157
-1.394238
-1.575213
4.681387
1.004517
-2.580798
2.656178
-3.785974
3.881802
-1.380200
-1.161687
2.604602
0.848567
4.798883
-2.910092
-0.650807
1.009095
-1.812647
-0.254677
2.022614
4.947203
-3.746910
-0.898618
-3.702658
2.132786
2.100436
0.193335
-3.297067
-2.005219
4.352397
2.975097
-0.670644
-2.050996
4.028596
1.366161
-4.125645
-0.395062
2.450179
-0.747246
3.465835
-0.362712
-3.392895
1.060976
-4.959716
1.455580
-0.344096
1.272469
4.740593
3.800928
-4.363994
3.679769
1.555071
-0.422834
2.666555
2.929930
0.851924
-4.177526
0.005341
-4.709464
0.107578
3.677328
-2.025971
-1.162297
-2.737358
-0.652638
-1.774499
0.840327
2.614978
4.760430
1.849269
-2.948241
0.150914
2.515488
-2.175207
-0.845515
-2.365032
0.048372
-2.358623
-0.608386
0.309915
-1.940214
4.741508
-2.788934
-0.533311
3.074587
-0.000763
-4.849544
-3.479568
4.092685
-0.919370
2.248756
0.316019
-0.264138
2.471541
-2.939085
-1.064333
2.183752
-2.481002
-1.349071
2.154149
2.804193
3.775292
3.285470
-4.642323
-3.285470
-0.886105
-2.209998
3.807642
1.479080
-0.160070
-4.585864
-1.733604
-4.891964
-1.407056
-2.054048
3.397778
1.771142
2.604907
4.988098
4.295022
3.505509
-2.824030
-1.144292
-0.533311
4.492782
-0.810724
-0.720695
2.315897
0.040132
4.196142
0.774407
0.152135
3.941923
3.489334
-4.375896
-1.391491
-0.646535
0.576952
-3.254646
-2.559435
2.083651
1.737877
-1.339610
-3.430128
0.474715
0.470748
1.665548
4.999084
4.396344
0.346232
-1.611225
2.335429
-3.061464
-0.285806
-1.645100
-2.031770
-0.489669
4.331034
-3.316599
3.146916
-1.345714
2.736442
-3.908048
3.423719
-0.247963
-2.373882
-2.148045
3.245491
-4.110080
2.045808
-1.763207
3.093814
3.912320
4.419538
-3.430433
4.506211
-2.597278
0.957823
-0.967589
-4.717399
-1.637471
-1.192816
-2.281411
-0.055696
-2.882321
4.555345
-3.785669
0.519272
2.490768
-3.720359
0.998718
-3.935514
-4.223609
0.838496
-2.933592
1.160466
-1.904508
3.526566
-4.948424
4.364910
4.495224
-2.709891
-2.780694
-3.435621
-1.942656
0.032807
4.159215
3.226264
-0.191504
3.163091
3.760643
-1.759545
2.691885
-4.231544
-2.458419
-1.509903
1.096072
0.357219
-0.426496
-2.218238
-0.178076
-2.130955
-4.328288
3.970916
1.069216
0.624866
0.623951
1.660054
2.158116
3.287301
-0.746941
-0.453963
-1.454360
4.225440
-1.519059
-2.928098
-3.312937
4.656362
-4.336222
-2.269814
1.271249
2.935118
-4.084140
-2.698599
3.391980
-4.492172
3.478042
3.543046
3.258919
-0.876339
-2.467269
2.734916
0.857418
3.467971
0.290384
-4.571215
-4.902036
2.166051
-1.924039
-4.891659
1.075930
-3.890652
4.074068
2.414777
-4.335917
-1.049989
4.258095
-1.975311
1.204413
-4.386883
1.889859
-4.331034
-0.340739
2.088229
2.456587
-3.617817
1.325266
0.738090
-1.815088
-2.007050
0.129551
-4.080172
0.853755
-0.276345
3.189337
-4.859615
-3.823511
4.377728
-4.840693
-1.944487
-0.218360
3.487808
-3.355358
-3.484146
4.720756
2.067171
0.470443
-1.257820
-0.905942
-0.731986
2.020173
4.841304
3.873867
-4.138768
-0.127415
-0.440535
-1.697592
-3.085269
-1.110416
0.721305
2.948546
1.367992
2.603992
-0.890988
2.823725
-3.648946
2.502060
-3.176214
1.729637
1.555376
-3.316599
3.730430
-2.448042
-0.029145
1.408887
3.433485
-1.868801
-4.810480
-4.801325
-3.861965
3.356883
-2.833491
2.400128
1.603595
3.787500
1.605121
2.038484
-0.677969
4.659413
-2.805719
-2.712333
-3.296762
-3.594928
4.388714
-2.058016
3.473159
-0.883053
-1.061892
3.397778
-1.163823
-3.684347
-0.862606
-3.091372
-1.823328
1.845607
1.686911
-0.151219
4.776910
-4.201025
2.009491
-0.305948
-0.403912
-3.633686
2.161473
4.069185
2.819452
1.485488
1.359142
-3.718528
3.197577
-1.696677
2.124546
-0.072481
4.500107
0.602283
1.660360
1.580401
-4.692068
-2.499619
2.865841
-2.777032
-1.989349
2.300333
1.829737
0.901364
-0.038911
4.708243
-0.830561
-2.082125
-2.559435
1.211432
-0.412458
-1.424451
-1.231880
-4.600818
-2.009186
-2.397382
-1.333201
-3.571734
0.034333
-0.313272
-1.754051
0.388348
-2.226478
3.059023
-3.794824
-0.478378
-2.740104
-1.986297
0.285501
-2.701041
3.122501
-4.344768
0.487533
-3.290963
1.771752
2.156590
4.916379
-2.554552
2.700125
1.336558
-4.372234
-0.936766
-4.322794
1.957915
-3.739280
-2.976928
3.902554
-0.065462
3.960234
2.984252
4.600208
4.398175
3.223823
3.048647
-4.486068
4.245582
-1.282846
0.209815
-3.123417
3.630329
3.401746
-4.226051
-0.677053
-4.949644
-0.782342
3.628803
4.438154
-3.795129
1.478469
1.642048
4.632862
1.911527
-2.905820
3.736229
0.219886
0.404523
4.235511
-3.911100
-2.997070
3.663594
3.269601
-3.662374
4.484542
4.638356
3.006836
-2.186193
0.119480
2.072970
-1.292001
1.543474
-3.323008
-3.424329
-4.953612
-0.307474
-3.331553
1.608173
0.061495
-0.722831
2.438887
-2.477645
0.002289
1.745811
3.600116
-1.689352
3.684347
2.478866
-3.830836
-1.600238
0.841243
-4.317301
-3.761864
1.004822
-1.739402
1.305734
-4.681082
3.174383
1.011536
-4.360027
1.007874
3.434095
4.038057
1.027100
-0.117344
-0.147862
2.874691
-2.135838
-3.707236
1.200140
2.539293
-2.122105
0.231483
2.145909
-1.513260
3.875698
2.244789
3.922697
-1.076235
-1.501968
-1.271554
-3.572344
4.221473
-3.558000
-4.655141
4.379559
-0.472579
-0.500961
-4.656972
0.505234
2.829218
-4.740593
1.357921
2.567064
2.219764
3.052004
-4.389935
-0.257424
2.190161
4.150975
-2.041536
0.223243
-3.811914
2.748955
3.929106
-2.324442
0.681936
-4.407941
-3.078555
4.207129
-3.004395
-4.472030
3.117924
-4.199499
0.088656
3.396863
1.910001
-1.158330
-1.295053
4.216285
4.002350
0.168920
0.222633
-2.978149
-1.931974
4.573351
4.230323
1.314280
0.028840
1.566362
0.686819
2.090365
-3.979156
4.315470
-3.313852
-2.916501
2.430647
0.789056
3.249763
0.088351
-4.945677
1.679586
-3.448439
-1.022217
0.994751
-0.499130
3.497879
-0.038301
-3.121281
-0.094150
2.734611
-4.560839
4.893796
0.358440
0.163121
3.926664
4.158910
-2.609790
2.646413
-2.609180
3.625752
-2.632679
-2.532579
3.306833
-4.814753
-2.185583
-2.449568
-2.331767
0.729545
-1.246834
-4.954222
1.933805
3.346202
2.585376
-3.368480
4.387188
-0.085299
-3.602863
-3.044069
1.191900
-4.057283
-3.902554
2.099521
3.243355
3.705405
1.471450
2.319559
3.443251
3.433485
-2.740715
1.887722
1.136052
1.414991
4.096042
0.482650
-2.074190
-4.035005
-4.184545
0.072481
4.302957
-3.646504
0.348979
4.314859
-0.992920
3.668172
-4.175695
1.218451
3.896756
3.729514
4.731742
0.155492
0.383770
0.196997
3.083438
-0.355693
2.556688
3.713034
1.845912
4.798273
-3.816797
2.564623
-1.963103
-3.672140
-4.068880
-1.163823
-2.276223
2.366863
-3.366039
1.634419
-3.904996
-1.118351
2.596362
-2.186499
3.158208
1.989959
-4.339885
-4.435713
1.402783
1.465041
4.486984
-1.290475
2.923521
-4.320658
2.793817
-1.248665
-0.298318
2.995849
-0.625782
2.480087
0.011750
-0.678579
-4.999084
-3.691671
1.102786
-4.330729
-0.281838
1.754051
3.353221
-2.016205
0.424360
1.229743
2.828913
-0.844600
3.022706
-0.886410
-3.409986
4.804682
-4.235817
-1.526994
-0.352031
-1.853236
-0.913572
0.852535
-3.022706
4.483016
0.521409
2.088229
2.933287
0.491195
-2.842036
3.953520
3.789636
-1.598407
-1.035951
2.251808
-0.917539
-4.559008
-1.328318
2.718436
4.776299
4.363689
1.114994
1.778771
4.189428
3.666952
-4.216895
-4.250465
-0.509507
3.629414
0.746941
4.790643
1.398511
0.426496
-1.030457
-3.723716
3.424024
4.649648
-1.647542
0.709708
1.921293
0.607166
-2.409589
1.541032
2.660756
2.832881
-4.973144
-1.402478
-1.635029
-3.454848
-3.332774
0.461592
-1.514786
2.912534
3.232063
2.847224
-4.626453
-0.048982
1.077151
3.827784
-1.705527
4.718925
-3.821986
1.428114
-4.497971
-3.362377
2.122715
-2.555162
-1.603900
3.613239
-0.408795
-0.019684
2.603992
-0.899838
1.235542
-4.751885
-0.412763
-2.486190
-1.585589
-3.474380
-4.107639
-0.707877
3.531449
-4.122288
2.218543
-0.867794
2.022004
0.240028
3.527482
3.234199
-1.370128
-4.417402
1.685385
-3.476821
-3.998077
1.652120
-0.929441
-4.494919
-0.290384
-2.742546
-3.844569
0.743583
1.355785
-2.393109
4.877621
-3.285470
4.874874
-0.697195
-2.281106
-4.631336
-3.455763
0.440840
0.164953
-2.640919
3.211615
3.868679
-3.673360
3.994720
1.053652
2.699820
-4.783013
1.808374
1.282846
-3.318735
-2.554552
-0.546739
-1.415601
3.538469
-3.669393
-0.731071
3.723716
-2.065645
1.519974
2.511216
2.780084
4.829402
-3.755455
4.560533
1.709799
-3.276315
1.470840
-1.713462
0.929441
-0.289468
1.795557
2.840815
-1.927396
1.794946
1.880093
2.797479
0.276040
0.313272
-1.387829
-3.269906
-2.672658
-2.461165
0.355693
-3.754845
-0.426191
3.563494
-0.832392
-2.990967
-0.739311
-1.058840
-3.411817
3.549455
-0.178381
-2.415082
4.421979
-0.055086
-3.122501
4.406110
-0.297403
0.599841
-0.791498
3.724326
4.379864
3.543657
2.313761
2.001251
0.767693
-1.050905
-2.366863
0.923032
3.184454
-3.679769
-3.578448
2.729118
-2.673879
-3.166448
-4.481185
1.526078
-4.253517
2.877132
3.490860
-3.691671
-0.847041
-1.966460
4.394818
1.499222
-4.384136
4.203772
-4.049043
-4.172033
4.201941
1.425062
-0.644398
-3.325755
-3.383129
-3.052614
2.779473
1.467483
0.912656
-4.528184
-4.793085
0.566576
4.677114
-3.445387
-4.306619
-3.753319
1.684469
-1.490982
4.486373
-1.677450
4.765007
-2.323222
-2.835017
4.933775
-2.027802
-1.233711
-3.162786
-1.479385
-0.493637
1.253853
-0.716727
4.765923
-3.336131
-1.881314
-4.726249
4.023103
1.072268
-3.134098
4.309671
-0.839106
1.563311
4.500107
-1.956694
-0.822932
0.881832
3.073061
-3.963897
4.368877
2.318339
-3.725547
1.772362
-4.273354
-1.955779
0.336772
-0.932188
2.839290
1.110721
4.588916
-2.962279
1.969512
3.978240
4.336833
-1.980193
4.839167
-1.443983
-3.427076
2.665029
-1.722617
4.733268
-1.292611
0.390484
2.659536
-0.966063
-4.599597
-2.668996
-3.092898
-2.999207
-1.847743
-4.757378
-0.241249
-0.307779
1.453139
-4.838252
4.807733
2.193213
-1.830348
-2.799921
1.195563
-2.395856
3.922391
-1.745201
-2.566759
0.583972
-3.739891
-2.195959
3.237556
0.005646
-3.867458
1.167180
-1.979888
3.271126
1.414075
-3.195441
0.238502
2.706229
1.370128
-3.135624
-3.761254
-1.682638
0.862300
4.093905
2.251808
1.695456
-0.696890
3.094729
-4.039583
-0.565050
-1.104312
1.308481
-2.570116
-0.038606
-3.680074
4.791559
-4.795526
-0.439924
-3.715476
3.207648
1.364940
-4.632557
0.407880
2.294534
-2.114475
0.765862
-4.139378
2.766655
-1.618244
-0.621815
-2.868892
1.115604
-3.907743
4.964293
-2.442244
-0.411542
-4.443342
-2.658620
-4.467452
-3.962065
-3.572039
4.336528
-0.345317
-3.547929
1.849879
4.815668
-4.200415
2.133396
-1.331065
-3.877224
1.009095
-2.875607
4.140904
4.439070
2.397076
-3.887295
1.140324
3.642232
-0.293435
2.567980
1.154363
0.733207
-4.718314
-3.645589
0.072481
3.136845
1.111637
-2.654653
-1.527604
-4.844050
-1.338084
3.180486
3.886990
-1.222419
4.360332
3.582415
0.645314
-2.704093
-0.635243
2.614978
-1.530351
1.436964
-3.997772
3.978851
-1.918851
3.930631
3.597369
-4.384136
-4.418622
2.053743
-4.298379
-4.219337
3.362072
-4.818110
-4.838862
-3.618427
-4.491256
1.995453
-3.377026
-4.427168
3.786584
1.142766
-4.432051
-3.399609
4.811396
-1.361278
2.809687
-3.104495
-3.515275
-3.667867
1.325571
3.059633
0.320597
1.389050
2.283853
-0.928831
3.670309
-4.693899
-4.312418
-1.602985
3.264107
-0.865047
3.747520
-4.631031
-2.746818
0.833613
-3.729514
2.233497
-4.252907
0.553453
-1.495254
-4.771416
-0.465865
3.006531
1.576128
1.210211
-0.662404
4.297769
2.244789
0.461287
0.112461
3.518937
0.830561
-3.011719
4.318216
-0.414289
-0.892209
4.873959
0.935240
-4.020356
0.869015
-0.803705
4.132054
2.264321
-2.676016
-1.946928
2.816706
3.230232
0.916929
4.912717
0.409406
-2.362896
1.060976
4.687796
-2.327189
3.028199
1.695761
-1.061281
2.257302
1.229438
-4.397870
-0.599841
4.375896
2.968078
-3.943144
-2.752922
0.301675
-2.621387
-3.248543
-1.440626
1.992706
-2.984558
0.135655
-4.566942
-1.411634
-3.109989
-4.233070
-2.065035
0.745720
4.084445
-0.638295
0.311441
-4.001740
-3.637959
-0.269936
3.670614
4.480270
-2.395245
0.448164
-3.546709
-2.353740
-1.898099
4.662160
3.218329
-1.049379
2.835322
-1.631062
-4.890439
0.621509
-4.783319
1.962493
0.505844
-3.035829
-4.175085
2.460860
1.326487
2.727287
0.380413
-2.043672
-4.584948
3.378246
-4.586779
2.392499
0.481124
-3.216193
-0.308695
-1.320688
-3.487197
3.792383
-2.827692
-2.682424
-4.610584
4.493698
2.259133
-1.158940
3.500015
0.230567
-1.661580
-3.154546
1.066469
2.214270
-1.816614
2.467269
0.069124
-1.306345
-2.142552
-3.457289
-2.806940
-2.770928
-4.112217
-1.837977
0.531785
3.960845
-3.078860
1.493728
-0.480514
4.326456
-3.380383
-4.969176
1.710105
0.816218
3.079775
2.859432
-1.138493
-2.634510
-0.457320
-0.684683
-3.940397
2.072665
-0.064547
2.865841
-3.536027
1.158330
3.160344
-2.608875
-4.265419
-1.399731
-0.413373
-4.975280
3.702658
1.142460
3.573260
-3.201544
4.325846
-4.334391
-3.191473
-1.375622
1.637165
3.099612
-4.829402
-2.151402
-4.191870
-4.275796
0.156407
3.548845
4.220557
4.410688
2.835017
-2.083346
4.492477
-4.966124
-3.465224
-1.390881
1.924039
-1.828211
-3.771020
4.211402
-0.556810
-1.015198
-0.003510
-2.991577
-2.863704
0.024567
1.569414
1.342662
-2.609485
2.220679
2.593616
2.127598
-2.830439
-1.239509
1.251106
0.002899
-1.309702
2.064119
4.260231
-4.241920
-0.639210
-2.915891
3.801233
-2.269204
2.027192
4.037751
1.354564
3.934294
-1.813868
2.876522
-3.124943
0.283364
-4.422895
-1.797388
-3.413648
4.600818
-4.147618
-3.651997
-1.617634
-1.761986
3.980377
-3.129521
0.133518
0.919370
4.832759
-1.378368
-4.296854
4.274880
-3.872646
-0.939207
2.457808
-4.173864
-0.075838
-3.689230
-3.243965
1.060060
4.137547
-4.197668
0.110019
0.806146
-1.351207
2.144993
3.360851
-1.652425
-3.838771
-3.711203
1.520280
1.852626
-0.105441
2.201453
-3.584552
-1.167791
2.198706
-3.706931
-0.979186
3.372448
0.665761
1.093631
-2.507859
-2.306131
-0.879086
2.114780
0.418256
-3.312021
-1.956389
2.711417
3.814356
-1.888028
1.229438
1.704611
2.244484
-2.983337
-0.482345
2.533494
2.863399
-3.660848
3.007447
4.690237
1.444899
-4.546190
-0.715201
2.845393
-0.358135
3.707541
-4.851070
1.294443
-0.660573
2.225867
1.044191
-3.748741
-3.270821
-2.864010
4.541612
-0.107578
0.933714
-4.168981
3.562273
-2.904904
3.061159
3.727073
-2.316507
-0.634632
-0.884579
3.353832
-4.516892
0.420698
4.458296
3.415479
2.914365
4.327067
-1.517838
3.042238
2.872555
-4.886166
4.079562
-1.199530
2.763604
-0.624561
-1.090579
1.961882
-0.192724
1.129643
-2.015290
3.910184
3.699606
-2.815790
-2.505722
1.866970
-4.385662
1.165349
1.180609
-2.083956
-0.667592
-2.589038
3.086795
4.848018
4.007843
-4.432661
-2.990967
1.895352
1.257515
-1.711020
-2.572558
-4.740898
4.449446
-0.622730
4.281289
4.943236
1.951811
-1.779992
4.515976
-1.090274
-3.339488
-2.606738
-1.886807
3.979766
1.050600
0.605335
-1.405835
4.153417
3.282418
3.388318
-4.887997
1.383862
-4.337138
-1.360973
-2.110508
0.789666
4.757683
3.714560
-4.642323
1.741234
-3.443861
-2.493820
3.837855
1.592914
4.872433
1.521805
-1.471145
2.466353
1.085696
-2.325053
4.320048
-3.736839
-2.254860
1.102786
2.397076
-1.049379
-1.631062
-0.095981
-3.828089
0.329447
-3.620563
-4.475387
3.541520
-0.041658
-4.397259
2.594836
2.015595
2.947325
-2.341533
0.569323
2.038484
-0.447249
2.364422
-2.249062
-3.373974
4.669485
-1.748253
4.974059
-3.726157
1.887722
4.851070
4.480575
2.749260
-2.240822
0.690176
4.353618
4.392987
-1.122318
2.212439
1.871548
-1.521805
-2.694021
3.938261
0.579699
-2.189245
2.952513
3.406629
-1.412549
0.378277
-3.644978
3.610797
-2.377544
-0.860164
1.915799
2.846004
-1.570635
2.840205
-0.973998
2.069002
2.389142
-0.439924
4.757378
-1.759239
4.022797
4.825739
-3.204596
2.938475
0.301065
3.961760
1.925260
-4.652089
-4.482406
0.304422
3.494217
1.241646
-3.127995
-3.146611
-1.226386
-1.788537
-1.462294
-4.363384
-3.918729
-1.804102
-0.658132
-4.420454
-4.650868
-2.547838
2.982116
3.732871
1.990875
4.465621
1.676534
-3.040407
1.849879
0.307474
1.743065
-4.147008
0.390179
4.937742
3.088931
-1.013062
4.689627
4.959105
1.884976
-3.203986
-4.865719
3.158208
-3.017823
0.914487
1.992096
4.118931
-1.909085
-1.944792
-0.667287
-2.143162
4.211707
1.910611
3.053224
-3.564409
2.038484
-0.957213
-4.268471
-2.865535
4.745170
-0.975524
-0.326701
2.390973
4.723197
-4.142430
-2.513657
0.001679
-3.394116
0.291604
1.003906
-2.514267
2.356182
2.355876
-0.918149
-1.986908
1.728721
1.258431
3.466445
1.284677
-1.067995
-4.861446
-3.776818
-3.564714
0.498520
4.213538
-4.687490
-2.050691
-2.924436
3.969085
3.435316
4.288614
-1.705832
-2.568285
2.348247
3.503677
-0.324259
-3.583026
1.239204
0.418256
-3.891263
-1.833399
3.405103
3.245491
3.606525
1.966765
4.222388
1.359142
-2.536546
0.515000
0.312052
-1.344493
1.405530
3.252510
-3.645894
-2.391888
3.415479
-4.206519
2.852718
1.622517
0.234535
-0.035249
-2.608264
-0.662099
1.744285
4.697562
4.464705
4.248939
4.584643
4.689016
4.713126
-4.051485
-1.079897
-2.825251
-0.329447
-2.299112
2.795343
-0.138707
-0.641346
-4.645070
4.199194
-0.229957
2.823725
1.679281
4.155858
3.852809
0.345317
0.343791
4.959410
2.827387
-2.014374
-0.916623
-4.990539
1.522111
-4.325541
-1.852626
2.898190
4.642018
-4.750359
3.445387
-1.815088
4.774773
1.390271
2.686392
0.585192
1.146123
-0.003510
-1.964019
-1.113468
-3.602557
-1.223029
2.556688
1.556902
0.193945
-4.326456
-3.171026
4.558092
-3.709067
-4.039583
3.857997
3.212836
-0.493942
-4.916990
1.595660
-2.710501
-0.183264
4.885250
0.709098
3.600116
-0.703604
2.994324
4.751579
1.565752
0.000153
4.743034
-1.571551
4.473861
2.408673
-4.012116
-2.991272
0.914792
4.548936
3.083743
-0.031281
-3.478347
2.708670
-0.700552
-3.524125
-1.596881
3.828089
-3.764000
-2.709891
-3.985565
-2.267373
-2.916196
2.229835
-4.988098
-4.908444
-4.843135
3.194830
0.895260
4.928282
-3.032167
-4.275796
1.143986
-2.157506
-0.777154
4.501328
-2.417829
-2.493515
-1.161382
-4.902646
1.826991
3.990753
-1.216926
0.658742
2.361980
-1.072878
-3.934294
-2.965636
4.550462
-0.797296
-2.826472
-2.137974
0.869015
1.275216
4.953917
4.706717
-1.147038
-1.067385
4.644765
0.627918
2.395856
2.124241
3.344371
-2.907346
2.566759
0.311441
-1.216620
-1.878567
-1.179693
2.347026
3.741722
3.446303
0.319071
2.021088
2.569201
2.403180
-0.346538
3.934599
4.203162
4.085971
-3.916593
-3.119449
3.420667
-3.568682
3.303476
-1.156499
1.843165
-4.502853
-0.012360
4.382000
-2.825556
-1.460463
0.799432
3.200323
-3.586688
0.291604
4.342326
4.376812
-2.718131
0.948363
4.596240
1.476943
-4.666128
2.216407
-1.434217
0.853755
-2.413556
4.109775
4.095737
1.738182
-2.534715
1.422010
1.503800
4.436323
-1.553850
1.320078
-2.432783
-1.385998
0.610218
-1.121708
4.498276
-4.526658
-0.385907
2.531358
-0.867489
-1.591693
-2.336344
2.121799
-2.969298
4.759209
1.226997
-3.662069
3.491775
-0.843074
1.922514
2.535325
-1.510514
-2.067171
-1.110416
-3.025452
2.893612
-4.634999
2.627186
1.105533
-2.434004
2.841121
1.318857
-0.848567
4.669179
4.176000
-0.256508
1.653035
2.757805
-3.016907
-1.820276
-0.246132
-3.774682
-2.320780
-2.608875
3.601032
4.058199
3.713340
-0.272988
-4.219642
-1.943876
4.942930
-0.932188
-0.496384
-2.840815
3.299509
-1.498306
0.775933
-3.201239
1.751915
4.365825
0.977660
1.732688
0.020905
2.253639
-0.065157
4.763787
-4.866634
-0.399945
3.785058
3.652608
3.324534
-2.969298
-0.833613
-2.220985
-1.863002
-0.731376
2.512436
3.661458
3.402051
-4.515976
0.532090
-3.542436
4.788812
-4.020661
-4.468978
-1.722312
1.387524
-4.070101
3.789941
3.330638
-4.039277
4.451582
-0.625477
-4.130222
2.803888
3.115177
0.102390
-0.592212
2.820368
2.477035
0.131687
0.080111
-3.530839
3.028199
-4.679861
4.669485
-0.013581
-0.848262
1.128422
0.320597
-2.762993
1.722312
-3.079165
2.399823
0.889157
-2.410199
-3.513749
2.495041
-3.402051
-2.029328
-2.288430
-4.454024
-3.707846
3.285165
-2.074496
-4.369182
-4.656056
1.085086
-3.326670
1.086612
1.709494
-4.575793
-2.407758
-0.649892
-2.225562
-4.754326
-4.548021
1.512650
-4.230628
4.766533
4.483016
0.367595
-2.069308
3.501846
-3.034303
0.802484
-1.736656
1.602374
-0.057833
3.919340
4.161962
-4.443953
-3.451491
-3.593097
-2.246010
-2.187109
3.452712
-0.865352
0.445418
3.395947
4.776299
-3.366039
4.660634
0.685904
-0.687124
2.058931
-3.230537
4.753410
4.221168
3.164006
-3.369701
0.890378
-0.479598
-1.902982
-2.015290
1.169927
1.777245
1.383251
2.135838
3.798486
-1.115909
-3.209784
-1.704611
-4.853206
4.569689
-3.888516
-3.798791
0.154271
3.966643
1.785791
1.322825
2.835627
2.775811
-2.652821
4.990844
-2.341227
-3.918424
2.407147
3.071841
-0.310831
-1.329539
2.584460
3.891263
-4.916379
2.639393
-1.160772
0.899838
-4.771722
-1.633808
-1.343272
-4.275185
0.723136
0.748466
-3.961150
-0.662404
-4.913327
-2.589953
1.007874
0.951415
2.517014
-2.570421
3.016907
-1.590167
2.769097
4.871822
2.942747
-1.756493
4.617603
-1.745811
3.956877
2.995849
-2.791070
-3.034303
2.690664
-3.641011
-0.792108
-0.512253
2.767876
-2.451704
0.216224
3.026368
3.629109
4.910886
4.167760
-0.084078
0.259255
-3.763085
-4.938658
2.888424
4.523301
-1.760765
-3.221992
-1.123234
0.872677
-3.673666
2.416913
1.527299
-1.822413
-0.794549
-4.784234
1.835841
1.823328
3.390759
3.511917
-2.068392
-1.616413
4.067354
-4.527879
4.421064
1.393323
0.414899
-0.584582
-3.051088
0.842158
-2.446821
-4.247719
-4.469283
4.446089
1.303293
0.309915
-0.247047
-1.226691
-3.368786
-0.870540
4.279458
-3.806421
-4.270608
-1.133000
-3.280587
-4.595325
-3.448744
-4.345073
-0.589770
-4.715873
4.235511
2.356182
3.854335
-0.986511
-2.689138
3.937956
0.028840
-4.319742
-3.800317
-3.720969
-0.862911
3.464309
-4.762566
1.464125
4.627064
-4.934385
1.738182
-0.499741
-2.802057
0.178381
-3.720664
-4.702750
-3.080996
-1.711325
3.961760
-3.306223
0.827204
3.957793
2.462386
3.530839
-3.413038
0.801263
-4.196753
0.056307
-1.415906
-3.535417
-1.142460
0.116733
-1.430860
1.821497
-2.013459
4.383831
-3.069094
-0.362712
-4.373150
1.174200
-4.383221
-4.392682
1.550493
-0.790277
2.205420
0.053865
-3.547319
-1.668905
1.726279
0.970641
-1.613361
-2.112644
-3.777734
4.103061
-0.224464
-3.960540
2.716605
-2.882931
4.769585
0.479598
-4.517197
1.802881
-2.302164
-2.995849
-1.647237
-2.816706
-0.560472
0.605335
-3.009278
1.479080
-0.802789
4.184545
-4.480270
1.243171
-0.824152
-0.574816
-4.892575
-0.246742
-3.190558
-3.778344
-0.705435
-1.675008
-3.904386
-4.938047
0.816218
1.741234
-4.430525
-4.148839
3.673666
-2.173681
-0.769219
-2.030854
-1.562090
4.607532
-0.093539
2.230140
-4.919736
0.007172
4.319742
-2.368389
4.130528
-4.655446
-4.072542
1.341136
-1.884671
0.341350
-0.500656
2.350688
2.535630
-2.108982
2.864925
-2.546007
-0.899228
-0.310221
-0.317240
2.039705
-3.401440
1.830958
-4.706717
-3.155156
-4.176305
-4.106113
-3.025758
-1.300241
3.339488
1.562700
-2.315287
0.867183
3.700522
3.599506
-0.815912
1.379284
3.744774
-4.779046
-0.576037
-4.741813
-3.888516
2.538377
4.841304
1.216620
-2.878658
4.712821
-0.093844
-2.846919
-1.789148
0.587024
1.624653
4.030427
-0.663015
2.181921
0.236061
-4.349040
0.353862
-4.941404
3.983123
-4.422895
-0.834529
2.161168
-4.065828
-3.725242
4.234596
4.128391
-3.565935
-4.706412
-1.104617
-1.723838
-3.750267
4.023408
3.076724
4.538560
-2.681509
4.318522
0.525987
2.977844
4.265114
-3.108768
-1.231880
3.225654
-1.460158
-0.540330
1.644490
-4.883114
4.142735
2.584155
1.541032
-0.954161
4.333171
2.979064
-2.889950
-1.106143
-1.305124
1.278268
-1.151921
1.103397
0.095370
-0.367901
0.461592
-3.073366
-2.319254
-1.563616
4.464095
3.619037
2.889950
-3.466140
-4.106418
-3.818934
-4.256569
3.876003
-4.872738
0.704520
4.153722
-3.769494
2.509079
-1.440321
-4.686880
-4.794305
-1.766259
-2.258217
-2.105930
-1.245308
2.059847
1.302988
-4.057283
-2.155980
4.060945
-4.369793
-2.017121
-4.826655
3.015687
4.545885
2.564928
2.241432
-3.201544
-2.853633
-4.136631
0.482040
-3.430433
-3.448134
-3.869289
1.356700
-2.331767
-0.134434
-3.580279
-2.441328
0.178381
-0.352336
-1.010315
-4.359722
-4.378948
1.935026
-1.279489
-1.917020
-2.810907
-3.224738
1.481216
3.038575
-3.241523
3.940703
-2.911313
3.105411
-4.585559
4.283731
2.546922
3.518021
-2.487716
-0.721610
2.791070
-3.596454
4.589831
3.851894
-3.594928
2.928404
1.923429
-0.919370
4.984436
1.738182
3.437147
-3.568987
1.792810
3.560137
-0.289773
-4.082308
3.309275
-0.352641
3.186590
-3.337046
1.042360
-2.788324
2.274697
3.356273
-2.911008
-4.379864
-3.816797
-1.581317
-2.388531
0.168004
0.435652
-4.957274
-4.108249
0.511948
-3.609272
-3.997772
-4.098483
0.952330
2.921995
-4.613330
4.722587
-1.270028
0.711539
4.193701
2.394940
-4.752190
1.637776
2.928404
1.365856
1.888943
-3.666952
2.513962
1.969207
0.835139
-4.091464
4.873043
-2.891781
2.947630
-2.263100
-1.851100
-0.672170
3.897366
1.255379
3.980377
-0.594043
2.822199
-2.584765
-3.403577
1.965239
-4.470504
-1.367077
1.384167
-0.390790
-4.143956
-0.444807
-0.160985
-0.653249
-4.105502
-1.624958
3.680685
3.051088
-0.735954
0.198828
1.335948
-3.990448
-2.739799
-2.195654
-2.877743
-0.347758
0.870540
-0.262307
-2.512436
-1.707053
-3.219550
-4.404584
-1.996673
4.222999
-0.537278
3.937040
-3.123112
2.287515
0.740226
-2.709586
0.366985
-0.686209
-1.235542
1.397595
0.290689
-0.236366
-1.851100
1.597797
-0.258644
-2.211524
-4.688406
0.091708
-1.681417
-1.151616
1.214789
4.497055
-3.004089
0.121616
0.944700
4.913327
-1.154668
4.566942
-4.371319
-0.544298
-0.632496
-2.007660
-3.653829
-0.457320
-3.882717
-3.181707
-4.664296
-1.617634
-3.628193
1.147343
-2.949767
4.934996
4.491867
2.628407
-3.877834
0.352947
0.169836
3.757897
3.398083
-4.413739
4.511399
1.909085
-4.170507
1.412244
-2.401959
-3.400220
2.203284
-3.872341
1.157720
3.027284
0.614490
-1.785791
1.979278
-4.552293
3.934904
-2.086093
4.151891
-3.652303
-2.505722
-1.671041
2.998901
2.651906
1.557817
4.396649
-0.979186
0.819880
-1.733299
-1.970428
-3.376110
-4.985351
-1.243782
-3.156377
4.346904
1.205634
1.576128
-0.846126
4.595325
4.249245
2.819452
-0.907468
-0.565355
1.996063
2.581103
3.152104
3.802454
-2.089450
-2.614368
4.376507
0.526597
3.248238
-4.159215
-3.993194
-1.974395
-2.280496
3.301035
-2.245705
2.949767
-4.432661
-4.114353
-3.745384
1.025880
-2.262185
-2.977538
-2.012543
1.227912
-3.101444
-0.544603
0.081027
-2.098605
-4.939268
4.486679
-0.436872
-3.285775
-3.030641
-3.066652
0.890378
4.899594
1.601764
1.754051
-4.983215
-0.113071
0.804315
3.061769
0.705435
1.898099
-0.389569
-3.149358
4.828791
2.716300
2.619556
-3.175298
-4.138157
-2.666860
-1.846217
2.901547
1.920377
2.588733
-0.085604
-0.527207
-2.598804
0.014496
4.948424
-2.556383
4.580981
4.405499
-2.143773
-1.465957
-4.537645
0.669424
0.162206
3.464309
1.951506
3.527482
-2.885678
0.117649
4.245277
-0.076449
3.807031
-1.388440
3.990448
2.535936
0.551012
-3.789331
2.031465
-2.677236
3.295236
-2.361675
0.685598
-1.057009
-3.592181
-0.234535
1.680807
1.994842
1.499222
3.564409
-1.122623
1.776940
2.602161
-2.661672
0.365764
-4.303262
1.646931
3.056276
-3.250984
-1.592608
-3.967559
-1.434828
0.037080
2.783746
0.878780
-1.629231
-3.262886
-1.129032
-0.737785
3.590655
1.664632
-0.328837
1.554155
-4.983520
2.266152
-1.317942
3.717307
-2.130039
-0.408490
4.156774
-1.530656
4.212317
4.711905
-1.668294
-1.572771
3.516495
-3.492996
-3.013855
-1.344798
-2.079073
-4.577013
-2.530137
-4.284951
0.589160
-2.094333
3.560442
3.773156
0.331889
-4.913938
-4.452498
2.993408
-1.795251
3.192999
4.665822
-0.294656
3.266549
0.909909
2.022309
0.158544
3.854335
4.664602
0.034944
-2.070833
-1.752220
-0.734123
1.139409
-0.197913
4.259621
-1.312754
-0.620594
1.136967
4.431745
3.684042
4.172033
-2.866756
4.664907
-3.232673
0.749992
3.186895
-3.958098
4.692068
2.356792
-0.336772
1.688742
-2.660146
-2.383648
1.709189
4.863582
-2.753533
0.941343
3.652913
-3.344981
3.337046
4.294107
1.803491
2.894528
-2.318339
-4.187597
-3.495132
2.849361
-1.192816
0.477767
4.853206
-4.594409
-0.139927
-3.886685
1.223945
-0.210425
-4.189123
2.192907
-2.441023
2.617115
2.394024
4.726554
-0.538194
4.048433
1.340831
4.055147
3.645894
-3.510392
-0.047151
-0.693533
-3.370617
3.413038
-4.961241
-4.948729
-0.866268
3.479568
-1.690268
1.402478
4.295938
-1.379589
2.829218
1.714682
2.987915
-3.318735
-2.298196
0.847346
-4.460738
-2.553636
-3.967864
-1.997894
1.689657
-3.408155
1.129948
-2.858211
2.705924
1.224860
1.817225
1.471450
4.558092
-3.495743
-1.718650
1.526078
3.836634
0.145726
-0.695364
-1.308176
-1.076235
-3.057802
1.095462
-4.150060
2.181005
0.500656
-4.089938
0.367595
0.009919
1.082339
0.999023
4.865719
2.253334
-1.108890
2.750786
-0.909604
-2.011628
-2.352519
2.188330
-4.832148
1.228217
-4.517502
1.445814
-2.915891
-4.258400
-1.971038
2.189245
-0.209815
1.801050
4.065828
0.414594
-3.903775
-0.498825
-4.797967
0.399945
-2.334513
2.115390
-0.063021
4.077731
0.089267
3.762474
0.995972
-1.654256
-4.687490
3.085879
-0.945616
-3.421888
4.974364
-2.413862
3.530229
-2.982116
-2.181616
0.330973
-3.084048
-2.084872
1.234016
-2.950377
-3.708762
3.502457
1.428419
-2.472762
-0.155187
-0.427412
0.152135
0.629139
1.423536
2.616504
3.178045
-3.341014
2.855159
0.798517
-1.372570
1.925565
3.722190
4.080477
2.482833
1.744285
-4.288308
-0.254067
2.278054
3.656880
2.436140
1.982635
2.767876
0.569018
2.562181
-1.781518
1.093020
-2.469405
-3.776818
2.331156
-2.893307
0.726188
-3.618122
-1.448866
2.110202
-3.906827
1.400037
-0.674306
3.207343
-0.167394
-2.150792
-2.372051
1.718039
-2.958312
0.975219
-2.995544
4.177221
-2.062899
2.922910
-3.910794
2.662282
-0.708487
1.513565
-1.703391
2.455672
2.151402
-0.282144
3.167669
0.580615
2.538682
-0.745720
-4.863277
-1.625568
-0.116733
-1.581317
4.767754
-2.117832
-1.090884
-2.345805
-1.627400
4.998474
-0.919980
1.653340
-4.368572
-0.574206
-0.423750
2.625965
-4.352092
2.850581
-2.564013
1.964019
0.051424
-2.699820
-4.909360
-2.895749
-2.150182
0.197913
-1.518448
2.947935
2.510605
-4.471419
1.788537
-0.892819
1.546220
-2.664418
1.260567
-3.303781
1.806238
0.037080
-0.352031
-2.398602
3.366344
1.209601
4.013031
0.889157
3.717307
2.161779
2.835932
3.207038
1.335032
-1.478774
1.114689
3.108768
4.050264
-3.816492
-4.790948
-4.804987
-2.016511
-0.739921
3.745384
1.464736
-2.217933
-1.524857
4.829096
1.205329
0.275124
3.091372
-3.318430
4.965819
-4.789117
-4.510178
-3.901944
2.802362
-1.660970
0.452742
3.519242
3.420972
4.706717
0.681936
-4.780267
3.497879
-4.519944
-4.559618
-3.361461
1.632282
4.264199
-4.824519
0.489975
0.857723
-0.772271
-4.365215
-2.179479
-3.888821
-0.478378
0.568102
1.140324
2.950377
4.318827
-3.610797
2.371441
-2.723014
0.175329
4.112217
4.511704
2.850887
-1.850490
-0.368511
2.516404
-4.695730
0.357524
-0.277261
-3.655965
1.281625
-3.888516
4.527879
-4.429914
1.765038
-3.573565
1.480605
1.908170
4.299905
2.183447
-0.935240
4.805597
4.841914
1.827601
4.822382
-0.186316
0.218055
-3.883328
1.787622
-0.031892
4.035005
4.746391
-2.025361
2.812128
4.894406
3.065737
-1.799219
4.651479
1.031373
0.416425
-4.716788
3.366649
4.686575
3.950163
4.387494
0.410932
-4.216590
4.130222
3.438673
-0.005646
2.993103
1.268197
-2.050081
3.545793
-1.363414
-4.842524
1.665548
2.909177
2.736747
1.131474
0.007172
-4.537645
-0.912351
-0.576037
-4.328898
-0.047151
-1.509903
4.677725
3.257393
-0.951109
-1.337779
0.795160
0.649892
4.659719
-2.884152
0.788141
2.831050
4.606922
2.558824
-3.251900
-1.324351
-1.284982
0.815912
2.574999
2.920469
1.601764
-1.629841
-3.457900
-1.751610
-1.119877
-3.789026
4.393902
-4.666128
0.934629
2.173986
-3.132878
3.837245
2.073580
1.008789
1.101260
-4.110080
4.569994
-0.829340
1.266366
3.398389
2.657094
-4.443037
0.331889
2.340312
-1.982025
4.118320
0.331278
-0.254982
-1.239509
0.090182
3.196966
3.928800
3.252510
-4.737236
-1.052736
-0.357219
4.307535
-3.037355
0.498520
-4.718314
-2.566454
0.954161
-3.799707
-0.341655
2.380902
-2.465743
-3.312326
-0.092624
-1.636860
-2.520981
-0.436872
2.522813
3.308664
-1.019471
-3.582110
-3.770104
-0.466475
-2.119358
3.658101
-2.697073
0.698416
-0.387127
-0.758538
-2.893918
-3.769799
4.786065
-2.000641
-4.322489
-3.302866
-0.222938
1.894131
-0.687124
1.469619
2.829829
1.167486
1.052736
4.495529
-1.177862
-4.652394
4.896847
2.726066
4.654836
1.325571
4.147008
-2.991882
4.785455
2.765435
-1.405530
2.989746
-1.534013
-1.420789
1.329234
3.783837
1.408582
-3.041017
1.603290
2.266762
-0.778069
-2.496261
0.293435
-0.712149
1.284982
1.030152
4.204688
-4.588610
-2.025361
-2.491073
-3.226264
-4.699393
-2.388531
1.986297
-0.920896
1.695456
-0.504318
2.361980
-2.490463
4.024018
4.208045
0.957518
-3.402661
-1.304209
-3.726768
4.295022
0.673696
-2.640919
-0.690786
-1.648762
-2.083041
0.023652
1.490982
2.734611
-0.804621
-1.437574
-3.211310
0.521714
2.952818
0.419782
-1.720786
-2.236549
2.114475
2.020478
-3.639485
1.868191
0.935850
-4.021577
2.975097
1.173894
-1.150090
-2.640309
4.437239
2.324137
2.208167
-1.669210
-4.463179
1.025269
-3.982208
-0.932188
-2.441633
-3.399609
-3.090152
1.704917
3.446303
2.064119
2.989746
-4.195227
4.436934
4.773858
0.849788
2.011628
2.972350
-1.928007
3.284249
-3.838771
-2.794427
1.779992
4.681387
-0.180822
-2.177343
2.791681
3.570513
0.064852
-4.972228
3.894925
4.658193
3.796045
-1.756493
-4.978942
-3.207648
-1.966765
-3.059328
-0.148167
3.137455
-0.392621
0.374310
-3.194830
1.289254
3.431654
0.353862
2.006745
2.210608
-4.953612
-1.053041
-1.184271
-2.234413
-0.174108
-4.179968
-3.747215
4.687490
1.176641
3.397778
4.810785
0.023347
-2.055574
3.965423
-1.633808
-3.091067
-2.019257
-1.208380
3.601947
-1.116214
-2.835322
4.383831
-1.541948
2.806330
-1.638386
2.693106
1.221809
-4.568773
-2.833796
-4.392376
-1.490066
-3.099002
-2.491684
1.013977
0.544298
1.628315
0.072176
2.868587
3.813440
0.733207
2.793817
-2.780084
-0.829646
-1.967376
4.309061
-3.287301
2.236854
-0.248878
4.756157
-4.206214
0.470138
4.830012
2.452315
2.606738
-3.942534
-1.027406
2.056490
0.857112
0.913266
-1.061586
-4.330729
4.518113
-1.378979
3.650777
1.579180
-3.692892
-3.978240
-2.381512
-4.071322
-2.882321
0.094760
-1.793115
-0.512558
2.240516
2.983337
-0.796991
1.959136
-1.162908
0.735954
-0.321207
0.943785
-2.690359
-4.493088
1.392407
1.196173
-2.786493
-0.371258
-1.713157
1.847743
3.531755
-1.835841
-4.691458
-0.264748
0.803400
-0.676443
-0.927915
-0.251320
4.768975
-1.972564
2.438276
0.381329
1.959136
1.927702
-1.464431
4.273049
4.881588
1.863918
-1.187933
-4.454329
-4.182409
-2.044282
4.206214
2.067782
0.588549
2.526170
-2.680898
2.786798
4.549547
-3.141728
-1.594134
-3.367870
0.434736
4.202857
4.956053
-3.995941
-0.588855
0.662404
-1.394543
-2.297281
3.343455
0.824458
2.252113
1.297494
0.906858
-2.556688
4.663076
3.165838
4.531236
2.507553
-2.191382
-1.371654
-2.898495
4.137852
1.057619
-2.599719
-3.891568
0.178381
4.400616
0.343791
0.307779
0.075228
-4.308451
-0.888241
-4.772637
-3.201849
-0.741447
-4.721671
-4.459212
-1.548662
4.165014
1.074404
-2.285379
1.176946
-3.888821
1.136357
-1.010926
3.373669
0.623951
0.966063
0.416120
1.153447
4.560533
-0.641041
4.550462
-4.048128
-0.030061
-1.036561
-4.965514
0.294046
-3.582720
0.973388
-2.300943
-2.954344
4.840388
2.211524
-0.425886
2.768487
-0.726188
-1.910916
4.657277
0.778985
3.912015
4.414960
4.956969
-1.506546
2.858516
-2.910398
-0.035249
2.039399
2.943968
-2.412641
2.347636
4.062166
2.980895
-4.293802
-0.937376
-1.371654
3.477126
3.119144
4.276101
0.153356
4.750053
1.617939
-4.022797
1.456191
4.714652
-3.629109
0.563219
0.345622
-1.548357
-4.598987
-2.247536
-1.340220
-2.149571
-1.823023
3.247017
-4.878842
4.568468
2.722404
2.040315
3.243660
0.705130
1.293832
2.600635
2.910398
2.726981
-3.678854
3.131657
-2.921690
-0.163121
-4.681692
-2.791986
3.890957
1.915189
-2.204810
0.764336
4.827265
0.805231
-2.599719
-3.833277
0.607471
4.842219
3.811304
-3.598895
-1.657918
3.807947
1.137577
1.281930
4.065828
-3.475906
3.288827
-4.916074
1.907254
-3.700827
3.489944
0.902585
0.857112
3.212226
2.089145
3.629414
-4.256264
4.922178
4.968566
4.071932
4.231239
0.948973
3.256478
-1.028321
-2.443159
-0.203101
0.243995
-4.470199
-3.492691
4.407941
-1.957915
2.559130
-0.017243
-4.692373
-4.686880
-0.161901
-1.918851
1.664022
-4.958800
-4.867244
-1.262703
-3.137761
1.772362
1.864223
2.010102
-3.872646
-3.930326
0.622730
-2.170019
-2.666555
3.987396
3.473159
1.169012
-2.921079
1.608478
-4.891354
-4.510788
4.985961
0.818659
-0.197302
1.571245
4.485458
3.185369
-4.534898
-3.380993
-2.769402
-3.624836
-3.622089
4.366131
-2.552721
-3.187506
-1.775719
4.212012
1.399121
2.338176
0.202490
-2.000641
-2.568896
-2.391278
-4.302347
-3.652303
3.238777
-0.812250
-3.632771
-1.526383
-3.319651
-4.830317
4.716483
4.225135
-0.778069
3.400220
1.864834
1.476333
-0.641346
0.027314
0.217750
4.059725
-2.900327
-0.541856
4.384136
-4.311808
-0.101779
-4.682913
-2.987609
-4.632252
0.613880
-4.678335
-0.196387
4.392071
1.461989
3.915677
2.001251
-3.371532
0.858028
1.670431
2.975097
-2.202368
-0.642567
2.202673
-1.841029
-1.889859
-4.606616
-0.386517
3.060854
0.901975
-0.682241
1.117435
3.725547
-2.385784
-2.510605
-3.656575
4.375896
-2.602161
0.741142
2.603687
-2.620472
-2.265847
-0.988342
-1.268502
-2.332987
-4.067354
3.401440
-1.729942
-0.494858
-4.976196
1.280709
-0.436872
-3.209174
-4.188818
2.467574
0.484481
2.860042
-4.975280
3.687704
-1.398511
4.694205
3.134709
-1.201666
4.926450
1.033509
-0.918149
2.023530
4.309366
-4.093600
4.597156
-0.510117
3.783837
1.619770
4.690847
3.727683
4.949339
1.299020
1.655477
0.655995
-4.350261
2.989135
-3.890652
-4.175085
-2.812738
3.010804
2.772454
-2.898495
3.422498
-4.605396
-0.223243
1.988433
4.414655
-0.082247
3.485672
4.160131
-2.232582
0.812860
-2.095859
1.847438
0.397809
1.204718
-4.042329
-0.515000
-1.839503
-0.141148
4.042940
-4.064913
-0.877255
2.538987
-0.861385
-1.073183
3.302866
4.652699
-3.344371
-1.125980
4.953307
-0.567186
0.089572
1.103397
1.627400
4.687185
3.725852
-0.851314
-0.226295
3.872646
-3.844874
2.560961
1.238899
3.298288
3.073061
-4.929807
3.975188
-4.309671
-2.855159
2.557299
4.701834
-4.852901
4.450972
3.674581
2.432783
4.512925
1.963408
2.696463
-3.044984
2.007660
4.813227
2.883236
-2.573168
3.420057
-0.788141
0.189367
3.860744
2.020783
3.261361
-0.243385
-2.256386
-2.024445
3.519852
2.571947
-0.953551
-1.972564
3.247932
-3.143864
-4.818415
1.985076
0.644398
-3.978240
-4.800714
-2.652516
-4.289224
1.466872
3.532060
-1.837672
3.243660
-4.883419
1.308786
2.128819
1.410108
2.658620
4.060640
4.879757
-1.588946
-0.712455
-1.152226
-1.630146
0.195166
-1.007874
2.936644
-2.034822
-4.451888
4.064913
2.893307
2.149266
2.235939
-4.955443
-1.117130
4.200415
-0.720084
-3.225043
2.566149
-1.241951
-3.541826
-1.118046
1.274911
-4.316996
1.604205
0.923948
-3.481704
-0.193640
2.942442
-0.426191
4.220252
1.289865
1.683859
1.580401
4.705191
-3.896451
0.147557
2.055269
-1.281625
-0.091403
2.712333
-1.086917
0.498520
-3.770104
3.192083
0.489059
1.535844
4.528489
0.545213
-2.322306
2.036958
-4.357891
4.702139
4.881588
-0.074618
4.890133
1.575518
-3.645894
-2.763604
1.880093
-1.159551
-2.788324
1.588641
1.991791
-1.909391
-0.860164
4.423811
-3.627888
0.860775
-2.528916
-0.479598
-2.336344
0.288553
4.129612
4.938353
-1.911832
-3.600421
-2.141942
-4.555956
1.434217
4.684133
2.580493
1.555681
-0.892819
1.611530
-3.948943
-3.675192
-3.897977
-2.679067
4.295938
-4.303873
4.526658
-0.718253
4.421674
-4.040803
-1.012452
-2.345500
-3.692892
3.393506
2.320170
1.896878
2.028413
3.501846
-0.468612
-3.445082
-0.684072
-3.791772
2.147740
1.549272
2.974181
-1.639607
2.444380
2.979980
1.176336
-4.974364
-1.237678
4.212317
2.395245
2.524949
2.317728
1.469008
4.027070
-2.705924
3.408765
4.207739
-0.946532
-0.981017
2.025056
2.928709
-2.310099
1.845607
-1.097598
4.731742
-4.199499
-0.020905
-0.079501
2.766045
-4.988098
-4.057588
3.992279
-3.922391
4.018525
0.605945
4.161351
1.089053
-4.074679
3.302866
-3.608356
3.407239
-0.471053
4.554430
0.373089
-3.356273
-1.362804
0.354778
3.655965
-0.876034
1.492813
-4.627979
-0.060884
4.195837
-4.491562
0.090182
-1.215400
-4.027985
-1.378674
-0.620899
-4.274575
-0.753960
2.069918
-3.961150
-2.456587
-3.198798
3.712729
4.148228
-0.519883
-3.122806
0.047151
0.239418
2.751396
2.522813
-3.896146
-1.700339
2.603381
-0.640431
2.465438
-1.223640
-4.053011
0.558031
-0.615711
-2.317423
1.184881
0.511032
-0.622120
-2.421796
1.071352
-3.982208
2.485885
3.337352
-0.689871
2.650075
2.903989
4.887997
0.634022
0.733818
-3.969085
-2.448042
0.204932
-4.574572
-0.267800
-3.421888
-3.434706
-0.493942
-1.089358
-4.759514
-1.685690
-0.685904
-2.432783
-3.965728
1.375317
-0.880001
0.555589
4.575182
-0.983154
0.827815
-4.326762
3.161565
-2.922300
-2.480392
-1.076235
-0.313578
1.436964
-4.485153
0.241249
3.296457
3.722800
-0.050813
1.893521
4.714652
-1.075930
3.246712
-4.225745
2.207862
-1.187628
3.172857
1.539506
-1.682943
1.066774
4.196142
3.243660
3.784448
-1.979278
1.464431
0.467391
2.235023
-0.615711
-2.504196
-0.226905
-1.111332
2.058321
0.539415
4.575182
-0.063936
4.130833
-3.917814
4.567553
-0.341350
-2.056185
-2.470931
-4.020966
-1.013367
-4.490951
-2.720573
-0.090182
-4.252602
2.358013
4.684439
0.635243
4.189428
3.232368
0.922727
-0.110324
1.626484
-0.275124
-0.065157
-1.226386
0.873287
1.624348
-2.382733
0.450301
-4.284646
4.158910
-2.485580
4.885556
-4.631947
3.798791
-3.598590
-3.457595
-1.093631
2.803583
1.170537
-0.486618
-4.000824
-2.105930
-0.385907
-2.588733
4.263894
2.600024
-2.190466
2.101657
-1.931974
4.153722
-2.708365
-4.229408
0.491806
-1.720786
-0.535447
-1.284982
-3.064821
0.247658
4.757378
-2.056490
2.275307
-3.606525
-1.406140
2.658620
1.132084
-4.465621
3.761864
2.707450
-3.455458
4.032258
2.274392
0.683462
-3.308664
-4.484542
-0.667592
-2.256386
-4.218726
4.741508
4.182104
-3.099918
-2.877132
0.270852
-0.761284
0.968200
1.488845
4.185156
-0.086215
0.587329
-2.184362
1.785180
1.498306
2.654958
0.171056
-0.205542
-3.111515
-1.469008
1.532792
3.226264
-2.019562
2.598804
3.383129
4.860836
2.983337
-4.476608
-0.663320
-3.556169
-3.761559
-3.830531
-2.438887
-4.961852
-3.921171
3.980682
-4.765313
-4.010285
-3.502762
2.133091
-1.797998
-0.061495
-0.468001
-2.913450
0.721915
0.596789
-3.556169
3.839686
-0.888241
3.273263
3.858608
-3.209174
0.488144
3.104495
-4.176000
1.174810
-2.813349
-0.399945
2.369610
-0.098727
0.709708
-0.497299
3.088321
4.525742
4.730522
-0.308390
-0.300455
3.029420
4.472030
4.351787
3.939482
-3.800012
-0.188757
-3.544877
0.033113
1.854457
-3.325144
-0.612049
-4.717399
-1.900845
-4.436018
4.654225
-4.785760
-4.989624
1.377148
-3.646809
-2.009796
0.644704
-1.978668
1.135441
-0.397809
0.077059
-2.688833
-0.922727
0.986816
-4.866939
-2.567064
-2.138279
2.158727
4.103671
4.740898
1.189459
-3.691061
-1.272774
-1.589862
0.087130
3.216193
-0.780206
2.333903
2.991272
0.822626
2.076632
4.509873
-1.616413
3.354442
4.971007
0.307169
-2.454146
-4.098178
-1.176946
0.147252
2.878964
-2.068392
-2.151402
-2.704398
1.051210
0.296487
1.050905
-4.577013
1.922819
4.431135
-0.505844
3.583941
-0.561693
-2.829829
-1.931669
3.043764
4.538255
0.012665
-3.408155
-4.042024
-0.197302
3.503372
2.485275
-4.743339
2.499924
1.024354
4.884030
1.219062
4.610889
-3.268990
3.431043
-3.422193
0.004425
1.284371
1.691794
1.453139
2.490768
-3.633992
1.009705
3.183844
0.471053
-3.828089
3.453932
-2.752312
-0.443587
0.542161
4.969787
4.422895
1.503494
-3.823511
-4.528794
4.462264
0.349895
4.965209
3.332469
-4.442427
-2.992798
3.652608
4.221168
-0.458235
-3.885769
-0.469832
1.703085
-4.008759
4.757988
0.284280
3.941008
2.166356
-4.243446
2.018952
-4.679861
-4.268777
4.526353
-2.219764
0.461592
-1.077456
-3.507645
-0.759148
-0.921506
-0.355083
-0.715812
-3.004700
-4.985046
-0.040132
-0.618763
-2.756890
0.252541
-1.924955
-1.227607
-3.906827
2.667776
1.151311
-2.401654
-3.946501
0.637379
4.441206
0.278176
-0.939207
-0.828425
-3.899503
3.012635
1.648152
-2.174902
-0.088351
-1.991180
2.560045
-2.719962
-1.598712
-2.776727
0.739006
2.602466
0.742668
-3.479873
-2.864010
0.488449
0.673086
4.078646
-0.499130
-0.287942
0.306558
-3.582110
-4.971923
0.542772
3.758812
-1.831874
-3.496353
-0.829340
4.784539
2.106845
-2.676016
2.967162
-2.271035
-3.905301
3.221992
-0.224464
4.566027
-4.526048
4.156468
4.653005
1.188543
-1.928312
-3.616901
1.827906
4.332255
-4.647511
-1.892300
0.651112
4.627369
-1.912748
-0.781426
-2.636952
-4.963073
-0.018159
4.241310
3.804285
-2.164830
1.683554
2.228004
-3.131046
3.486282
4.563585
-3.318430
4.187597
0.305338
4.901120
4.046602
-2.667470
2.237465
-2.942137
-3.493606
0.709708
-2.220985
-0.724357
4.669485
1.770226
-2.614673
3.272042
4.476913
-4.652394
4.568773
4.040803
-1.226691
-4.050874
-0.229347
1.340831
3.655660
-1.023133
3.009888
4.129002
-2.935423
-0.133213
2.777337
-1.044801
-2.675405
-1.194037
-3.653218
0.699942
2.427900
0.957213
-1.766869
-2.270425
-1.117435
-3.431654
3.805506
0.101474
2.453841
-3.630940
-1.577349
-0.843074
0.559252
-1.690573
-0.021516
4.520249
-3.859523
-0.324259
0.019074
4.827570
0.087130
-0.724662
-0.260781
-4.784845
1.562700
4.269692
3.040407
0.451521
4.620960
0.982543
3.645894
-4.645680
3.170415
1.413160
-3.500931
-2.715690
2.243873
2.339091
-1.089969
-0.199744
0.896786
0.614795
-3.608356
0.349284
-2.964110
-2.966247
-3.714560
-4.911496
-2.935423
-3.699606
1.948149
2.829218
-0.918760
1.566668
-2.057711
-4.242531
3.353526
-3.655354
-0.296793
-2.846919
-1.884976
1.201666
-4.866634
3.479263
-2.419965
-2.559740
-2.356487
2.518540
0.611133
-1.259346
-0.755486
4.324625
-1.913663
-4.724113
-4.575488
-3.661153
-1.992096
3.406323
-4.230323
-3.876614
3.965423
-1.778161
0.104221
-4.744255
2.609485
-3.336741
-3.559526
3.297067
-1.725974
-2.540208
-3.022706
4.181188
-0.431379
-3.506729
0.698721
-3.739891
3.102664
2.779778
4.501938
-4.787896
-4.768975
-3.127384
1.870022
3.215583
-2.988220
4.114658
-3.290963
2.330241
-4.319742
-3.866848
-3.756676
1.071352
3.235725
-0.520188
3.918424
1.111332
-0.151219
3.772240
-2.764214
-0.317240
4.958800
-3.822901
1.411023
4.478439
-4.071627
-1.687216
0.887326
3.016907
-1.254158
0.603198
-4.208655
-3.020875
3.961760
1.846522
-0.330973
-0.332804
1.916410
1.504715
0.461287
4.403974
-3.769799
0.949583
0.864742
2.761773
-3.774987
1.411939
3.196661
-4.646901
0.225074
-2.412336
3.324534
-1.186712
0.544298
-0.038606
0.329142
-4.625233
4.147008
4.984741
-1.269417
-2.911924
-2.377544
-0.099948
1.274300
-0.170141
3.626667
-1.950896
4.111606
3.878750
-4.083834
-2.662587
1.088137
-0.041047
3.583636
1.943876
0.225684
-1.692404
4.205603
-3.134709
3.291879
3.107852
3.594928
1.978973
-0.422529
3.447523
2.579882
1.177862
-1.405530
1.203803
0.407270
2.737358
-2.538987
-4.324015
1.279794
4.374371
-3.228706
-4.217200
2.957396
-0.168004
-3.193609
-3.889126
1.833094
4.474471
-2.472457
4.044160
4.649037
3.864406
-4.067049
4.311197
4.970397
-4.881283
-0.454268
3.937040
4.591357
2.680898
3.695639
-1.234626
-1.029847
-4.196142
4.484237
-3.359020
-3.460036
3.935514
4.550768
3.354747
1.122623
2.355266
1.708884
-4.157689
-2.353740
3.532060
0.431379
1.269417
2.266152
-3.140202
-2.791681
-3.934904
-0.221717
-3.873867
-0.544603
4.701224
-0.375225
-3.412732
3.356273
-0.866878
-4.731742
-4.921567
-4.686880
-2.967162
3.524125
1.199530
-4.821162
1.297494
-1.304514
0.319681
1.913053
2.241737
4.315165
1.905118
-4.420759
-2.011017
4.859920
4.702445
-4.139378
0.876034
-2.978759
3.075503
-4.762871
4.016083
-4.855037
4.425642
1.305734
-2.448347
-1.256905
0.560778
0.446028
-1.390881
1.465041
-3.949553
-1.412549
4.596240
1.611835
-0.686819
-3.454237
1.716819
-4.704276
3.056581
-3.117924
-2.410810
4.026154
-2.799921
-3.940703
-4.875790
-3.980377
-4.346904
-1.854762
-1.411634
2.439802
2.799615
2.233497
2.199927
-0.199133
2.015900
-1.650594
-0.323344
2.339091
-1.799829
-4.896847
-3.391369
1.717429
-1.331675
2.923215
-1.039613
-2.896970
1.240730
-3.161870
1.151921
-2.678762
3.810083
2.244179
-0.429548
-4.349345
-1.691488
-2.289041
-1.030152
-2.084567
2.163305
3.677633
3.737754
-0.229652
0.633717
1.014893
4.745476
-1.957915
-3.244881
-2.701346
3.570208
-0.308390
-0.966979
-3.375195
1.877041
-2.399213
-1.415296
4.276101
0.178381
2.325968
0.008698
-2.415693
1.345103
1.328928
-0.811945
4.392987
0.149388
1.353954
4.522385
-3.789636
1.790368
-3.502457
-3.627583
4.475387
-0.490280
-1.284677
-4.735099
1.092410
3.897977
3.215888
3.437757
2.168493
3.190558
-1.800745
1.657918
1.496475
-3.799707
-3.008972
0.478988
1.148564
3.123417
0.963927
1.605426
-3.043458
2.244789
-2.493515
-1.693319
2.089450
3.941923
1.156804
2.742851
-3.618427
-3.579363
2.372967
0.316630
3.480178
1.003906
-0.429548
-1.707968
-3.193915
-4.725333
0.541551
3.307138
3.941008
2.538987
-4.293191
-3.651082
1.401868
0.381939
-0.441450
-3.272652
-3.959319
3.780480
-0.585803
-3.947111
0.026093
-1.147954
0.739006
1.463820
1.432691
3.821070
3.835108
2.883847
4.563585
3.547014
-0.104526
2.871334
-4.146397
1.985382
-4.573962
-3.132267
-3.395947
4.819330
0.492111
-0.738090
-0.236976
-0.364849
3.646809
-4.797967
4.187597
1.110111
4.102756
0.717032
-0.554064
-1.186712
0.642567
-3.439589
4.063692
0.768303
-1.925565
4.955443
2.291177
0.525681
-3.556780
4.032258
0.172887
-2.672048
1.946928
3.250069
2.996155
3.554338
-4.692068
0.680715
2.450179
-0.451216
-3.143559
-3.981903
0.574206
-1.180609
-0.814997
-2.717521
-3.045289
-3.590655
-0.395978
4.230323
3.090152
-4.813227
-0.950194
-1.308176
4.124729
-1.387219
-3.190558
4.524827
2.157201
4.978942
0.740532
0.787835
-3.916288
-2.762383
3.205206
-0.713370
2.426069
1.070132
-0.124973
1.253548
1.692404
1.786096
-1.200446
-2.598804
4.861141
2.194433
1.908475
3.984039
2.110508
-2.022004
-0.873592
-0.064241
0.226905
-2.618336
4.031648
-0.563524
0.231178
-1.068606
2.528916
-2.267678
-4.278848
3.695334
-2.896359
1.283151
-3.926969
-3.542741
-2.701956
0.375225
2.608570
4.338664
-4.255654
-1.494644
3.706626
-3.469192
-1.781213
-0.521714
-2.364116
4.759209
0.755181
-0.012360
0.870846
4.035615
-3.237556
-2.966857
2.373577
-0.816828
-4.970092
4.797662
1.654866
4.201331
-1.024049
-1.813562
-0.244606
-4.575488
-0.907163
3.312632
2.105014
1.305734
-3.836940
-3.410901
-1.666158
-1.188849
-1.128422
2.303079
-0.234840
-3.366344
3.711203
4.529405
-4.122898
0.103000
-1.556902
-3.263497
2.657399
1.238594
-1.782434
4.620655
-2.866451
0.640126
-2.533189
-4.537034
0.371563
-0.437483
2.854244
-4.164708
-3.667867
-2.874081
-0.627613
-2.783441
1.448256
-2.970519
-1.854152
-3.045595
3.075808
3.725242
0.918760
-1.183355
-2.898190
-3.730125
-3.979461
3.058412
3.450575
3.409680
-1.650288
-2.648244
-2.600635
-2.115696
4.942930
-4.782708
4.508652
2.134007
-2.161168
1.187933
-2.824641
-2.213355
0.975524
3.953520
-1.918241
3.069094
-4.277932
4.705802
1.719871
0.615711
-2.359844
0.485092
2.288736
1.961577
-1.330149
-0.791803
-2.768487
2.538377
2.929319
1.901761
3.959624
4.266335
2.212134
-4.529405
3.629109
3.333689
4.358196
1.644490
1.319773
-2.431257
1.910306
-0.702994
-3.305612
-4.196753
3.427076
-1.287729
-4.517808
-3.083743
-0.592517
-2.294534
-0.274819
3.574786
1.793420
0.529038
-2.282327
3.254036
1.920682
-0.026093
-2.144688
-1.866359
3.460952
3.092898
-0.877560
-4.537950
-1.077151
-0.988037
-2.705008
-3.509171
4.216895
2.758415
-0.366375
4.904172
4.773858
-3.876919
4.096652
-1.243477
-4.240394
-4.393902
-2.360149
0.310831
4.586169
4.397565
0.675527
-2.642140
0.559252
-0.327006
3.996551
4.233985
3.506119
-2.910092
1.930754
-3.434706
0.225990
-4.035920
4.511704
0.745415
4.899594
-4.872433
-2.144383
3.081301
-1.682943
-2.428205
-0.591906
-2.965026
-4.239784
3.232368
-2.521897
2.581103
-2.872555
3.348643
0.345622
-2.638478
-2.595752
-2.157506
1.228828
-3.459120
-2.963805
-0.590381
-3.421278
-1.071352
3.025147
-2.884762
-2.257302
-0.220496
3.632160
-1.621906
4.412214
1.530351
1.276131
2.615589
-4.555956
-1.622517
4.350261
-0.558947
3.868374
2.132481
-2.636341
-1.669515
4.164403
-3.825648
2.534715
-4.283120
3.440809
0.447859
4.791253
-0.472274
-1.292611
-4.157079
-1.570940
2.604297
2.353740
-2.954649
-2.707450
1.801050
2.289956
0.582751
-4.525132
-2.927488
-0.105136
4.414655
-3.483840
4.301737
0.381634
2.600635
-0.432295
4.154027
4.355144
-4.002350
2.580187
4.822993
-2.047945
4.605701
-0.518052
-1.339915
2.153233
-0.342570
2.546312
4.848018
3.764611
-0.052950
-3.978545
-2.771538
-2.001251
-1.018555
-1.034425
1.700644
-3.685263
-4.548326
3.443861
4.512619
4.517808
3.850063
2.342448
-0.145726
-1.848048
3.617512
-1.570330
-3.371227
2.347026
4.386273
0.487533
-1.844081
-2.977538
1.071963
-0.757622
-2.876217
4.776299
-2.731559
0.531175
4.805597
-2.619861
3.940397
2.327494
2.112033
-1.656392
1.214484
1.301767
-1.946928
-1.763207
1.002686
-3.513749
4.492172
0.860775
-4.192785
-1.053346
-3.345592
2.561571
2.655873
3.781091
-0.328227
0.645924
1.154057
4.294412
-0.285806
-4.870602
1.877651
0.017853
-2.589343
-3.576922
-2.256996
3.299509
-2.813044
2.837458
1.362194
1.886196
2.313456
0.509507
4.653615
4.769890
2.837153
-1.335948
-0.634022
2.554857
-2.212745
-3.489029
0.591601
4.950865
-0.094760
4.643239
-3.081912
-0.656606
4.707938
2.844783
-1.033509
2.755669
2.102268
2.620167
-1.784570
1.336863
-4.274575
-3.500320
1.434523
0.997497
0.505539
4.450056
-3.763085
2.872250
0.344707
2.409589
4.922788
2.634510
-4.936216
-0.318155
1.895962
2.751091
0.262612
0.296793
4.837031
0.703604
3.307443
-2.273782
-3.868068
-2.306131
4.795831
-3.875088
-3.757286
4.125645
-4.724723
0.129246
-2.434004
-2.867977
4.349956
0.145421
-3.300729
1.525163
0.994751
1.239204
4.877316
-0.700247
2.495346
-2.407453
1.945097
4.402753
-4.531541
2.210303
-0.433210
-4.172643
4.125034
3.596759
3.943449
3.583636
-3.096255
1.255684
-0.641346
-2.247841
-1.362194
4.420148
3.544877
-0.326090
-3.188421
-3.234809
-3.008057
3.348338
-1.170232
-2.876522
2.807550
-3.426771
3.639180
-4.671316
0.379192
4.287698
-2.885067
2.116916
-0.340129
1.121403
-3.699301
3.224128
-3.062990
-0.486007
-3.127079
-4.278848
1.370434
2.273171
-3.186895
1.249275
1.897488
4.936216
0.144200
4.397565
-1.362499
-0.524155
3.861660
-4.328288
-3.232063
1.858425
-1.624042
4.704276
-1.386303
3.773766
-3.149663
3.604389
2.983032
-0.980407
3.651387
-1.642354
-2.367779
4.617603
0.100253
2.453841
-4.895016
1.147954
1.437574
4.155858
-4.308145
-4.901120
1.289560
0.413984
-4.627674
-1.797388
-3.886074
4.517502
4.256264
3.302866
3.576312
-4.653310
4.099704
4.036836
2.666250
3.916593
2.748039
4.383221
-4.499496
-0.700247
1.635334
-2.127293
0.945006
-4.110385
-0.568102
-1.920072
-2.903378
-2.775506
-2.911008
-2.489853
3.902554
2.832881
1.207160
2.924741
1.316721
-0.939207
-1.252327
-0.740226
3.837245
2.566454
0.098727
-3.886380
4.537645
1.147038
2.042756
-1.647237
3.148137
0.433515
2.515183
4.088107
-1.652425
1.955473
4.146092
0.131687
-3.207038
-1.861171
1.485488
2.177038
-1.828516
-4.233680
-4.308451
-4.084750
-1.969207
2.399823
-4.861141
-1.475417
-3.172552
-4.204382
-3.467971
1.868191
4.042940
-3.380993
-3.225654
2.141636
1.379589
3.226264
-0.035859
-1.801660
-3.831446
-0.721305
-3.724937
-3.934599
-1.414686
1.728721
-1.549272
-3.349254
2.223426
-0.291910
3.392895
-0.522935
-1.146428
2.404706
3.308054
4.442732
-1.902676
0.497604
-2.906125
4.967956
3.193304
3.078555
4.162267
-4.868465
0.377361
2.727287
-3.375805
-0.505539
-2.227699
-0.872066
1.104617
3.778649
-1.708884
1.635945
3.459120
-2.177953
-3.681600
3.961455
-2.342143
-2.791070
3.219550
0.609912
-0.151524
-2.643666
1.899319
2.401044
2.751091
-0.256203
-3.721885
1.850490
3.203070
3.701132
-2.284768
-3.132572
0.363628
-2.281106
-1.517228
3.623310
2.117832
1.167486
-0.377667
2.162389
-0.256203
-3.835108
-4.869076
4.856258
-3.342540
-2.824946
2.844783
-4.373150
2.695853
3.304392
-4.173254
-2.294229
-2.635731
0.611133
2.519456
3.173162
4.981689
-1.956694
0.999329
4.229713
1.566973
1.265145
-0.073702
0.415815
2.885372
-2.075106
-0.710623
1.264840
4.324015
0.468307
4.355144
0.240028
4.784845
3.487503
-0.301065
1.236152
-0.999634
-1.451308
-4.938353
-2.681204
0.016327
2.246010
-2.448958
4.640187
-2.681509
2.137364
-2.307962
-1.430555
-0.486618
-3.060244
-1.712241
2.221290
2.814264
-3.199408
-2.788324
0.985595
1.268807
1.266976
1.607257
-2.241737
-2.838069
4.048433
0.520493
2.383648
4.206519
1.896268
1.716514
-0.041047
-2.438581
4.410382
-2.628101
-1.993011
-2.687918
1.585589
3.258309
-1.798608
4.985351
0.523240
-2.447432
-1.063417
-2.770623
3.961150
-0.436872
0.341655
2.303385
0.135960
4.578539
3.455153
-3.039491
-2.962584
-0.009003
3.847011
-3.895230
0.032502
3.447218
-4.525742
1.480605
1.618244
1.064638
2.593005
-0.026704
-4.670705
-0.656911
-4.333171
3.207648
3.827479
0.713065
0.760674
2.466048
-2.742851
-3.672140
-3.703879
2.018647
-4.580981
-3.849147
-4.458907
-2.674184
-4.892270
-0.663625
-4.254128
-2.023225
-2.612842
0.481735
-2.565538
-0.432905
-1.597186
-2.266457
-2.873470
0.722221
0.936155
0.639821
3.915677
3.116398
3.385876
-4.543138
-1.665853
0.968505
-2.597888
-1.537675
-2.652821
4.768670
-4.487594
0.755791
3.977630
-4.074374
0.207373
1.101260
4.214759
3.233589
1.457411
-3.082217
-4.719535
-3.839991
0.165868
-1.675008
-0.030366
-0.139622
4.422590
3.070925
3.814661
3.138066
-1.067690
2.664418
-0.511338
-0.302286
-3.097781
0.079196
-3.359020
0.225684
-4.473861
3.713950
0.843379
-4.363994
-2.071139
0.562914
-4.555956
0.829646
1.041444
1.235237
-3.192083
3.112125
4.876400
-2.818537
-2.419965
-2.730644
4.082919
3.411512
-0.040437
-4.059420
-1.118351
-1.643269
-3.567766
4.671926
-3.471328
3.323313
4.383526
-0.273598
-0.312662
-3.311716
4.473861
-4.079867
3.332774
-0.805231
-2.880184
0.315714
-1.891690
-3.059328
3.416089
-1.951811
-3.883023
3.820765
0.510117
2.240516
-3.124943
3.986480
4.518113
4.124119
1.114383
1.015809
-4.982299
-1.951506
-3.168889
2.658315
-3.840907
-4.299905
4.849849
0.953246
-2.358318
2.285379
-3.877224
-3.157598
-1.689657
-1.609699
1.623737
1.168096
4.770501
-4.928892
0.204321
2.951292
-1.191595
-2.878353
3.431654
1.818140
-3.003174
-0.953856
-4.183935
-3.621784
2.440107
-4.163182
0.815302
4.770806
3.077334
4.053621
0.533311
3.180792
-2.275613
1.667074
-0.793634
0.406049
0.543382
4.672536
-2.298196
-0.170751
1.865139
-3.166448
0.062105
-0.428632
4.154332
2.415387
-3.347728
4.245582
-0.678274
0.287332
-1.877651
0.659352
-2.932676
-3.179571
2.448347
0.352336
-1.975005
-0.507981
1.358531
3.611408
-3.701132
4.431440
-3.589740
1.209601
-1.723533
-3.122501
3.344981
-0.179907
4.338969
-4.502548
1.588336
0.141148
-1.984161
2.456282
-4.486679
-4.568773
4.553209
-3.603473
-0.876034
-0.833613
-0.898007
2.373882
-2.961974
-3.524125
4.436628
4.366131
3.253121
0.673086
4.114658
2.667470
3.906217
-0.717032
4.430830
-4.647206
-4.041414
1.917020
2.879879
-4.719840
1.934721
-0.687735
2.271645
0.822626
-0.471969
1.397595
3.916898
4.974670
-3.027589
4.596545
2.793207
4.365215
2.268288
1.410718
4.941099
-0.246437
3.802759
1.368908
-0.986511
4.946593
0.176855
0.139012
2.036348
-2.741325
-2.933897
1.202277
1.492203
-3.638569
0.932493
4.154332
1.278573
-3.981903
0.524461
2.360454
0.387738
2.263100
0.742363
-1.485183
-2.211219
-4.695730
3.789636
-4.377422
-1.592914
4.050569
-3.735618
-2.070223
-4.916990
-2.163915
3.909574
-3.106021
-4.008454
-1.283456
0.442976
-4.311808
2.538987
1.275826
4.587695
-4.382000
2.165746
-4.638661
-0.043184
1.272774
-3.240913
2.963805
-0.958434
-2.195959
1.035340
2.825556
-2.070223
2.592700
-4.886166
0.133213
2.229530
-4.617908
-4.823603
-3.348338
0.634938
-4.010285
1.985992
3.229926
-2.701041
-4.694815
-2.256691
2.411115
1.454665
4.663686
-0.418867
-2.561266
-3.414258
-1.439100
-2.698294
4.121372
-4.318216
1.178472
-0.298013
2.992187
-0.105441
2.781304
2.285684
4.166540
-4.085665
-0.415510
-4.643239
3.118534
-0.918455
-1.989349
4.782708
-2.513352
2.306436
-3.021790
-3.129826
3.140507
4.660939
3.327280
-4.192480
0.134434
1.504410
-3.238472
3.806726
-0.936155
-1.125065
4.307535
0.338298
-3.354442
-4.840083
0.515915
0.119785
0.776849
0.403607
2.606433
-4.285562
-1.591388
3.660848
-1.462294
3.558916
2.422102
3.677938
1.421400
-1.840724
-2.677541
2.361980
4.429304
-3.780786
2.314676
-1.700949
-1.621296
-4.037141
-4.896542
1.067385
0.569933
-1.768700
4.031037
1.014893
-1.811426
-2.093112
4.098788
2.330241
-4.729301
2.139500
-3.980987
-3.701743
-2.735527
1.569109
0.863826
0.268715
2.327799
-3.157598
1.430860
4.124424
-2.432478
-2.509079
1.923429
0.962096
2.751701
3.657796
-1.205329
0.434431
0.312967
2.579272
-1.692404
-1.915494
-1.587725
3.494217
-0.941343
-4.047212
-0.389264
-2.769707
2.429426
-3.569903
-1.537370
-2.273476
-1.362499
0.644093
3.286996
3.094729
-3.795740
4.405194
0.585498
0.434736
1.075625
-4.490036
-2.592700
-1.645711
-3.641011
-1.112857
-0.707266
3.991058
-1.322520
-1.505020
2.219764
-2.904904
2.180700
-3.530534
0.890988
-2.055269
-1.488235
1.249886
4.277932
-4.440596
1.827601
-0.024567
-1.652730
-1.429029
4.316996
2.865230
2.529221
2.421491
-1.393933
-0.993835
2.059236
3.782617
1.665548
-0.554979
4.109165
-1.046937
-4.912717
-0.890378
-4.595630
