4.940184
3.809778
-0.261696
-0.302591
0.898923
-4.671621
2.322001
-1.028321
-3.404492
0.963012
-4.138462
2.685476
-1.861782
3.263802
-2.007965
-1.333201
-4.017304
-0.864132
2.555162
-0.346538
1.829432
-2.214270
-0.236976
2.198096
-1.093020
-2.109897
-0.777764
-4.095737
-0.820795
-4.700919
-4.250771
1.094852
3.750572
-4.066134
0.418256
3.757286
-4.594409
4.975890
4.854427
-2.358318
-0.669118
3.571734
2.811823
0.132603
4.368877
1.883755
1.021302
-1.911222
1.569109
4.053621
-2.105625
0.546739
-2.462996
2.138585
1.781518
0.717338
-4.600208
0.911740
-1.546831
-3.358715
-4.250160
4.539781
2.091281
-2.881710
0.323649
-0.801874
1.732383
4.150975
-3.240913
-2.715690
-3.840907
-2.283242
1.789148
-0.056612
2.430036
-3.732566
0.011139
-1.748253
1.516617
0.147252
-2.144078
0.327616
2.123020
2.497177
2.750481
2.364727
-4.313944
-3.012329
4.958190
-4.358196
0.797296
-1.997589
-0.377972
-0.873592
-3.868068
-0.052950
-2.927793
-4.654225
0.135044
-2.337565
-3.146611
-1.713462
1.674398
4.049043
-1.368603
0.664235
-0.269631
-1.709494
-1.054567
-2.951903
3.070925
-3.328196
4.260842
-1.664327
-3.119755
1.588031
-3.622394
3.988922
-4.281899
-0.249794
-1.620685
-1.062807
-1.790674
4.869076
4.207434
4.743950
4.511704
2.061373
-0.873898
-4.090854
4.415876
2.735221
-0.361187
0.472579
-1.915494
-0.573290
4.240089
3.162481
-0.424665
3.392590
1.819666
-2.793207
2.741935
-1.273385
1.491287
-0.204016
-4.669485
-1.370434
-4.428388
3.339183
-3.384960
1.878262
0.836360
-1.970733
3.618427
4.761345
-3.532365
-0.975524
-4.661855
4.412214
3.576617
-1.357921
3.373363
-2.401959
-1.891079
4.223304
-0.188452
-3.413953
1.718650
2.055879
-0.856197
0.340739
1.777245
-3.355968
4.375896
-4.346599
3.255867
3.092898
4.048738
4.280374
-0.569628
-4.978027
0.345317
-0.968810
0.649586
-2.800531
-3.145390
-4.977721
-1.998505
-1.030457
-0.844600
-0.716117
-0.164647
2.039705
-2.553941
-1.463210
-3.589129
2.043367
-0.357219
-1.264229
-3.765221
-2.535325
3.660848
-3.815882
-2.294229
-1.581317
-1.659749
0.153356
-2.572253
-0.222938
0.101779
-1.089358
-3.786279
1.492508
-3.979461
2.383038
3.328196
-0.197607
3.089846
2.932371
-4.992676
-3.430738
2.881100
-1.128117
4.507736
0.598621
1.580706
1.934416
-3.672445
4.363689
-2.090976
-0.217444
-0.236976
0.156713
1.388134
4.098483
-1.041749
-1.717124
3.324839
3.430738
-0.232704
-1.209296
4.251381
1.005737
3.818628
0.421918
-4.931333
1.217536
0.706961
-1.263924
-0.221412
1.668294
0.402387
-4.187292
3.619343
-0.643483
-0.946226
-0.967895
3.392590
-4.793695
0.549486
3.080691
-4.616993
-2.204505
-2.904904
3.842738
-2.875301
0.832087
-1.697592
0.958434
-3.737754
-2.681814
3.503677
-4.877010
-1.850185
2.102268
3.439283
3.491470
3.858303
-0.721000
4.920957
-4.110691
-2.703177
0.585803
2.344584
1.254769
-1.189154
1.990570
-1.607257
-4.760125
1.385998
2.915891
-1.855983
-0.325480
3.200018
-2.632984
-4.544664
-2.681814
4.148839
0.840938
2.339396
3.442946
2.107150
-4.534593
4.729911
4.550462
-3.847621
0.822932
3.022401
-1.341746
1.935026
2.742546
0.365459
1.549883
2.123325
-3.147526
-1.302377
2.216102
1.527909
-2.268288
-0.138096
2.676321
2.068697
-4.283425
3.162786
-0.161596
-2.658620
-4.666433
-3.466140
-4.703665
-2.231361
-2.487411
3.872646
-4.013947
-3.857082
3.471633
1.321604
0.464949
-0.901059
3.301035
-1.619160
-0.521714
-0.215918
-4.788507
0.125889
0.751213
3.904080
-3.099002
3.401440
-3.976714
-1.110111
-0.028535
-2.385784
-3.051698
-2.122105
-0.589160
-4.374981
-2.549669
-2.814264
-4.298074
1.096072
-3.959929
-2.405316
-2.826167
1.389966
-1.264840
3.426466
-0.231178
3.614460
0.299234
-0.647450
-2.220679
0.944700
-3.229011
3.213446
-4.086276
-0.856807
-1.017945
-4.135411
-3.255257
-2.618336
-0.496078
4.513535
-3.856777
-1.639607
-4.455855
4.919736
2.921079
-4.840693
-1.384167
-4.258095
-0.547044
0.869320
4.784234
1.101566
0.865352
-3.414563
4.377728
2.642140
-4.757378
-0.283670
3.588824
-3.664205
-0.427717
-4.594409
-4.418928
-0.985900
-2.925962
1.737266
-0.221717
-2.647023
-1.500137
1.550188
2.567370
-4.728385
-1.488845
-0.983764
3.788110
-2.073275
-3.890347
4.495224
0.182958
4.163182
4.145787
-4.979553
3.653829
4.523301
2.322306
3.571123
-3.911405
4.875790
-3.150273
0.261086
-2.717826
-1.123539
2.011322
-2.692801
2.181005
0.197302
-3.924223
0.889462
3.903775
1.269417
2.126377
-3.387097
-2.243873
-0.254067
-3.957488
-1.093326
-3.705405
4.689627
-4.205603
2.021699
-4.180578
2.014374
1.618244
-1.210517
-3.388623
1.684774
-1.454360
-2.958007
1.974090
-4.025239
0.566271
3.563494
0.930357
1.484573
1.383251
0.955382
0.466170
-0.941343
1.364330
-3.924833
-4.463179
-1.929838
0.768609
-4.674978
2.471847
-1.800745
-0.381634
-0.820185
-2.050386
-0.241249
-0.008698
3.538469
-0.841243
0.106357
-4.712210
3.247627
-3.904386
2.434614
3.108158
-3.442335
4.315470
0.301981
-2.280190
-4.780572
-4.305399
2.244179
-3.820460
-1.710715
-2.896970
2.458724
-1.957610
-0.090487
-3.114566
3.153630
3.085574
-0.681326
3.699606
1.418348
2.998596
-3.626972
-0.442671
2.650685
-0.869320
4.886471
-0.402081
2.515793
4.355449
-0.719779
3.427686
-2.986389
0.834834
1.538285
2.343669
-3.363598
3.210700
-0.755791
1.930143
-2.156896
3.231452
0.725578
3.577532
0.582751
0.241554
-3.298898
-2.825861
3.242439
0.732597
-4.084445
-3.638874
-2.013153
3.831446
-4.873653
0.910215
3.928800
-4.701834
-2.150792
-3.902554
-2.302469
2.821284
0.980407
-0.755486
-1.198920
1.884976
3.859828
3.853114
-1.861782
2.491989
4.104892
1.102176
-1.326182
-3.519852
4.831843
-1.227302
4.283731
2.850581
0.919980
3.438978
-4.031953
-3.731346
-1.156194
4.269692
2.037568
-3.998688
-3.064516
4.616382
0.623341
4.793390
-0.945006
1.827906
2.623524
-0.637989
4.316080
3.514969
-3.601947
-2.046113
0.893429
-1.240730
-2.987609
-2.619556
3.850673
-3.004089
3.776818
-4.182714
-2.647023
-1.863613
-1.637471
2.929319
-1.250496
-0.992004
-0.992309
0.227821
1.965850
1.276131
-4.430525
1.304819
-2.270119
1.992706
2.468184
-1.065554
1.017335
0.706656
2.763298
-0.493332
-1.807459
-4.602344
-4.457991
-4.161351
-3.709067
-2.585070
-1.409192
-4.538865
2.917417
3.083743
3.748741
1.084780
0.482040
-2.319864
-0.279702
0.242470
4.106723
0.620594
-4.222388
-4.437544
-3.482009
3.788110
0.669118
-1.165044
-2.129124
-3.416089
0.671255
-3.053224
-4.402142
-4.070406
0.623341
4.335307
-3.238777
-3.438063
-4.810175
1.348766
-4.667043
-1.151616
-0.802789
-0.532090
-2.592395
-4.738151
-0.694449
-0.681631
-1.009400
3.887295
4.938047
-0.455184
-1.082034
0.413984
0.812860
2.174596
3.146916
-2.822199
-0.919980
4.477523
3.701132
-4.356975
-3.335520
-3.679464
3.037965
0.946532
-2.676321
3.667562
-0.258339
-0.014191
-2.261879
-2.943358
2.266152
0.973083
4.135716
3.777429
2.064119
2.966247
3.975188
-0.471664
4.218421
2.961974
2.714164
4.937437
0.183569
-0.429548
-4.839473
-1.166875
-3.360240
2.684256
-3.209174
-4.238563
-2.772454
-4.646290
-1.285287
-1.153447
3.435316
-4.960631
-1.644490
4.448836
-4.505600
3.748436
-2.414777
1.286813
-4.602039
-4.779656
-2.057711
-0.702689
2.817011
-4.657582
4.083529
3.265633
0.806452
-0.771966
0.059664
0.028535
-1.786706
4.078341
3.984344
2.204810
3.305918
2.046113
-0.335551
-3.001953
3.173467
-1.450087
-2.921384
4.917295
0.158544
1.394543
2.312540
0.867183
2.584460
-3.375500
-0.690176
-2.520371
2.054964
-1.104312
-4.700613
1.224250
3.960234
1.379894
-0.604114
-1.779992
-4.526048
1.562700
1.414075
-1.305734
-0.364849
-2.711112
-0.803705
2.605518
-2.487716
-3.668477
-2.693411
-0.130161
-0.030976
2.788018
-4.910276
4.873653
-4.874264
-3.818934
2.233497
-1.295358
-0.861690
-2.905820
0.517136
1.934721
-2.533799
-4.401532
-2.047334
-0.257118
-0.931883
1.706442
0.737785
2.420881
1.534928
-3.725242
3.543352
-3.330332
-4.018525
-0.511643
4.373760
-4.512619
2.047639
4.977111
-0.841243
-4.902951
-3.167058
2.121799
0.712149
0.593432
2.003693
1.450087
-2.091586
-1.532487
4.691458
-1.306650
-0.041353
-4.000519
-2.539903
0.909299
-0.843379
-1.640828
0.515000
1.382031
-0.092929
1.600848
2.061068
-0.305033
3.186285
2.119968
1.920072
-3.542741
0.952025
-0.140843
-3.646199
4.369793
-2.610401
-3.244575
3.534196
-0.069735
3.480789
-2.352824
2.919553
-2.389447
3.102969
4.584643
3.683126
-4.872433
-4.822687
-3.986480
-2.241432
-2.971435
4.495224
1.647542
-4.129917
-0.409711
2.211524
-0.447554
-4.812311
1.486404
-4.163793
-0.796686
-2.961669
4.618824
-4.905698
1.596271
2.894833
-4.555040
4.906308
1.963408
-4.246803
1.049074
3.923002
-4.565722
-2.439802
-3.309275
3.995941
0.789972
-2.890866
3.114261
0.127110
-1.802271
-3.654134
-0.360576
-0.169530
-1.025575
-2.857601
-0.482650
4.064608
2.895444
-2.688223
3.527787
-4.419233
2.845393
1.018250
-3.232368
-1.427198
4.269997
-3.138676
-2.354045
4.361248
-2.802667
2.133091
-4.997864
-2.764214
0.401776
-1.364635
-1.951201
-4.951476
-4.578539
3.168279
4.060640
-3.337046
-0.460067
-0.894650
3.171636
-0.280007
2.855464
-1.169622
-0.813166
-3.773461
1.342967
4.930418
-4.483627
0.182653
-2.273171
4.882504
-4.143040
-1.912748
1.814173
-2.051912
-3.900723
-1.219672
4.855037
4.396344
-3.254036
-2.238685
-1.436354
-4.368572
-2.017426
0.219275
1.285287
-4.273354
-1.031068
-2.874996
2.658620
0.115513
3.457595
3.449660
-2.593310
2.843867
4.024934
2.662587
0.480209
2.235633
3.311411
-1.741539
4.397259
3.325144
4.652699
-2.499313
2.237159
3.702048
2.443464
4.212317
-2.940001
2.025971
3.122196
1.371044
4.610279
-3.908353
4.833369
3.503067
-4.078341
3.462172
1.143376
2.263405
4.030732
-2.282937
-3.799402
1.411328
1.834010
0.319681
-3.905606
2.299112
2.076327
0.095370
-1.362194
-3.880581
-1.620075
-3.940092
3.963286
1.914274
4.501938
-3.135929
4.110996
-1.100650
4.958495
1.875515
0.384381
4.282815
-0.930357
-1.596576
-3.910794
4.077120
-0.489975
1.147649
4.700613
-0.821406
-3.041627
2.199927
4.786676
0.656911
4.033174
-4.776605
-1.329234
0.826289
-2.381512
-4.515061
-1.840724
-4.389325
4.712821
1.092715
0.775323
-0.009613
1.284677
-0.472884
-4.230323
0.869625
-3.652913
4.437849
-1.260262
3.092593
3.091067
-4.915159
-1.929228
-4.647511
-0.037690
4.622791
-4.657582
3.058107
-1.482742
2.331767
2.962584
-0.910520
-4.191870
1.262398
0.887936
-4.130833
4.721366
-2.086703
2.706534
0.913572
4.934996
1.211737
-2.819452
3.648335
-2.282022
-3.675497
2.172460
-4.914853
-3.866848
-3.333079
3.381603
-3.089236
4.050264
-0.513474
4.149754
1.655477
3.351085
0.314188
1.443678
3.238777
-0.765557
1.591082
-0.900143
1.817530
-1.266976
-4.520249
1.146123
-2.673879
4.928892
-1.451613
-4.694510
-3.965728
1.823634
4.728690
-0.932188
2.173681
-4.344462
0.303812
-3.030030
3.766442
-4.598987
4.312723
3.037049
1.833705
-3.527787
-3.602252
-2.721183
0.028230
-2.618641
-2.326884
-1.506851
-4.445479
-0.853755
-2.410199
-4.065828
3.012329
-4.061861
2.117832
3.478347
1.469314
3.580279
1.949370
-3.110599
2.028718
-0.267495
-4.499802
-1.049074
-3.358104
-3.366955
-3.668172
3.975494
3.987701
-4.051790
0.870235
0.950194
-1.455275
-0.864437
-1.440931
1.617939
-0.471358
-2.017121
-1.273690
0.620594
-2.755058
3.582110
3.264412
2.309793
-0.029756
0.730155
3.500320
-0.381634
4.537950
-2.616504
4.982299
3.959929
-1.169927
-0.312662
-2.390362
1.260872
-1.721091
0.789361
-3.852504
2.454756
-1.146733
0.396588
4.251991
-0.486312
-1.808069
4.241615
-3.040407
2.717521
3.132572
4.572436
-4.286172
-4.418928
2.633290
-2.806330
-2.798395
4.274575
2.938169
-3.130436
1.295663
2.972655
-3.553728
-3.046510
-3.849757
0.384381
3.445997
4.723807
1.977752
-1.395154
-4.334086
4.565722
-1.039918
1.973479
-2.152318
-4.593799
0.605029
1.642048
1.298715
3.850978
-4.684439
1.844081
3.564104
-3.344371
0.317850
-3.075808
2.335734
-4.215369
0.746025
-1.924955
-4.897763
0.896176
0.718253
3.064516
-0.502487
2.105625
0.066683
3.896451
-2.555467
-4.739677
-0.852840
-0.267800
4.336528
3.441115
2.656178
-1.835231
3.878445
-2.986084
1.215094
-0.716117
0.582751
-0.113681
2.723624
-2.507859
3.633992
-2.170934
2.149571
-0.379192
-4.190344
-4.719840
3.888821
2.789239
1.083560
-0.148167
-0.632801
2.251198
4.168065
-3.788720
2.746208
-4.921873
-0.855281
-2.796869
-0.310831
-3.519852
-4.232154
-2.372356
-1.246529
-1.284982
-4.162877
0.294046
1.790674
2.029023
-1.308176
-0.875423
-2.979064
-2.530442
-1.020081
2.853023
-3.561663
4.120151
-4.419843
1.673482
-4.050874
-4.600818
-1.915494
-1.572466
4.343852
-2.956175
0.547655
3.115177
-3.590045
-0.423139
1.551103
-1.982025
2.555773
4.126255
4.271523
-0.053560
4.671010
3.353526
3.534806
-3.919034
-3.373363
3.842738
-4.660939
-2.791070
2.097690
-4.886166
-0.801263
1.431471
0.480514
-2.629017
-3.061464
-4.765313
0.810419
-4.898984
0.621204
0.598621
3.083743
-1.415601
-2.937559
1.081118
4.500717
2.723014
4.953001
0.020295
-3.377331
4.422895
3.951079
4.903867
1.635029
-3.979766
4.753410
1.631062
-3.933683
-2.836238
-2.531663
-1.971038
0.584887
-2.221900
2.384869
3.180792
-3.724326
0.546129
0.373089
-4.459517
-3.184759
-4.011811
-2.818842
2.677847
3.053835
-0.518052
3.645894
-3.264107
-3.570208
4.621265
-2.587512
3.651997
-1.681112
2.924131
-1.698813
0.113987
4.594409
3.688925
1.097598
-1.881619
4.251076
2.685476
4.647816
1.494339
4.499802
1.806848
0.358440
0.780816
0.154576
-1.692099
-4.049654
-4.496139
-0.738395
3.111820
-0.561388
0.448775
1.249886
-0.869625
-3.571734
-3.435621
-3.944060
0.220801
2.142552
-3.547624
-0.269936
-2.056185
-2.757500
3.924833
0.616932
-2.271035
-4.267861
1.519364
-1.840114
1.248970
-1.286813
1.369213
1.431776
-2.805414
-1.945097
-3.950163
-1.069521
0.689871
-2.542650
-0.931272
-4.078951
-0.157018
-2.238990
0.793023
-0.642872
-3.512528
1.138798
0.469222
-3.020569
-2.859127
4.909360
-3.349864
-3.445082
0.107578
3.123112
2.362590
-3.844874
-0.495773
-1.908170
1.613056
-0.861385
0.746941
-1.860256
-4.729911
-0.470138
-3.978240
0.786615
0.547655
-4.222999
1.353038
4.569079
-1.915494
-2.821284
-4.651173
-4.409772
0.009919
1.773888
-1.408582
3.584857
2.722404
1.581927
1.383557
-3.276009
0.485702
4.123814
-1.717124
-3.474990
4.853816
-1.388440
2.479171
2.512131
-4.505600
1.671957
0.605029
-3.895230
-1.236152
-3.875088
1.369823
4.760125
-2.779778
-0.394452
-0.596179
0.931272
-4.600513
-3.542131
4.124729
1.811731
-2.907651
3.602863
0.978881
2.934812
-0.347453
3.420362
1.061892
-0.218665
-4.842524
-2.696158
-2.777947
1.004212
3.235725
-0.004730
-3.901639
3.540605
-0.143895
-0.854671
-2.955260
-4.310587
-2.975402
-2.369610
-3.552812
-0.115207
3.063906
-1.743065
1.221198
1.718039
-4.996643
-4.479049
-3.537553
-2.294229
4.597156
1.940214
1.645100
4.911496
-4.747612
0.403302
-1.159551
-0.590991
3.789941
1.026490
-0.846736
0.352336
0.292215
4.509873
3.182928
4.292276
4.022492
-2.424238
-1.153142
0.139927
-2.453841
-4.332865
2.663808
-2.953124
0.029450
1.674703
-4.021271
1.983245
-4.324931
3.766137
4.921567
-2.302469
1.106143
-4.301737
-3.651082
-0.226295
-0.193640
-2.508774
1.599933
1.680807
-2.314371
1.162603
-1.747948
2.200842
0.197607
-4.197668
2.134922
1.258736
1.290475
4.583117
2.467269
2.641224
1.574602
1.065249
-2.199011
-2.830744
1.663411
2.363506
4.274880
-0.481124
-1.910916
-1.249886
3.091678
-2.052522
-2.299417
-0.015717
0.138401
-4.114658
-0.462508
4.887387
-0.628529
-3.809778
-1.788232
-2.579577
-4.231239
1.125980
-3.438368
3.135319
-0.666066
-2.480392
1.019166
3.276620
2.899106
-2.304910
1.841334
2.179785
3.447218
-2.520676
3.196661
0.219275
-4.677725
0.538804
-3.188421
0.977660
2.253029
-3.171941
-4.742729
-4.498581
-1.505936
1.700339
-0.792413
-4.779962
-3.872036
-1.931364
4.544664
-4.641713
4.335612
-3.827479
1.292917
1.241035
-1.112552
-3.570208
1.986908
-2.251808
3.357799
-2.676626
4.633168
1.078982
-3.625446
4.671316
3.719749
2.357097
-1.683248
-0.940123
1.220588
0.960875
-1.100040
-0.140233
3.993500
2.105319
1.164739
1.457411
-4.656667
-4.600208
-1.953337
-1.795557
0.619373
3.017518
2.961974
2.760857
-3.104495
2.933897
-2.583239
-2.836238
-1.473281
-0.308390
-4.283120
-1.535844
0.763115
1.437880
-2.428205
-0.253151
3.195746
1.293527
-4.604785
2.137974
-2.094638
1.107059
0.194250
-1.543779
4.628285
4.465621
1.263619
-0.900449
1.622822
1.989349
-4.497055
2.879879
-3.810083
3.936735
-4.092380
4.309977
-3.912626
3.425550
4.964599
-0.000153
4.036531
-1.570940
-2.737663
3.345286
4.366436
1.399426
3.644978
2.323222
2.087619
2.390667
-3.675497
3.709372
-2.494736
-3.278756
1.739708
-2.588427
-2.812433
-1.980804
-2.614978
4.853206
-2.690054
-3.164617
4.447615
0.361187
-0.463729
-3.793603
-1.743065
0.366375
2.903684
-0.461592
-1.851100
4.628590
3.732566
-4.204077
3.077639
2.038484
-4.397259
1.138493
3.737449
1.991791
4.977721
-0.603198
-0.801874
3.860134
1.696371
-2.816706
4.815973
3.433485
2.431562
-2.099216
0.927915
-4.397870
-1.711325
0.264748
3.071841
-1.308176
0.250404
-3.071841
4.649342
2.474899
3.828394
-0.045320
0.089572
-4.396039
-1.558428
2.853938
-2.007660
3.461562
0.222327
3.719138
1.281014
-4.569079
-0.634938
4.649037
1.581011
4.452193
-2.724845
4.825739
-0.224464
-1.857509
-2.271035
-2.802973
-1.411023
-4.457381
-3.332163
1.789758
0.901059
-4.206519
0.123142
2.276528
-0.740837
2.695853
1.234931
-0.719169
-4.137242
1.805017
3.115482
-2.073580
-0.718863
0.501572
0.038301
1.492813
-4.249855
-0.840327
-0.948363
1.078677
-3.226264
-4.124424
1.665548
1.765343
-3.534806
1.857509
-0.201270
0.828730
-2.317423
-3.037965
-4.657277
-3.388318
2.296060
3.303476
-3.821375
2.170324
-0.334025
0.622425
4.802850
-2.337565
1.768395
-2.757195
-3.742943
-2.322001
3.108463
-1.849269
-4.317606
3.843959
-1.058535
-2.734001
3.220771
-2.766961
0.630055
-3.917508
-0.010224
4.415571
-3.298288
3.219245
-3.735313
-3.779870
-1.244392
-3.704794
-0.716422
1.472671
2.561571
3.508866
-2.223426
-3.539384
2.644581
-3.245186
0.996582
0.895566
0.719474
-1.370128
2.388531
1.064333
0.316630
2.790765
-0.809809
1.016724
-2.225867
4.358501
1.624958
-1.906949
-1.555071
-4.966430
-1.866665
-2.140110
4.163182
4.236427
4.703665
4.723502
-2.788324
0.221412
-4.188818
4.614856
2.161779
-4.003876
0.314188
3.105716
-1.876736
-1.864528
2.643361
3.439283
-4.884335
4.790338
2.454451
-3.148442
-0.253151
-4.176916
-2.024445
-3.680990
-0.827815
-0.343486
3.905911
1.384167
-4.617603
2.559740
-4.700919
-3.751183
-1.124149
-2.866451
3.367565
-2.275918
1.432691
-0.363933
-1.182440
-3.277230
1.891995
1.858730
2.318644
-2.733085
1.541643
-4.042329
1.460463
0.715812
-3.154241
4.473556
1.107059
-2.821284
0.934629
-1.123844
-2.507553
0.013581
-0.858028
1.421705
3.586383
-4.857479
0.437178
-3.380383
-4.331645
-0.449385
-4.912412
-3.998383
1.483963
0.886715
-1.835841
4.079562
-0.589770
1.424757
-1.592303
4.636525
-4.015168
-0.408490
-3.884548
-2.171545
0.465255
-3.565325
4.807123
-3.995941
2.137059
3.853114
4.680776
-2.469100
-0.855892
3.630329
2.668996
-3.706015
4.818415
-0.753960
0.047761
-3.348949
1.536760
1.817225
0.374920
3.247932
3.836940
-1.746422
-2.241737
-3.720664
-4.434187
4.686880
2.724540
-0.944395
0.778985
3.147832
0.688345
4.679861
-1.199530
-0.360881
3.777734
0.314493
-3.695334
-3.035829
2.126988
-2.604602
3.817103
0.646229
3.308054
-1.946928
-2.982727
1.097903
2.316202
2.890866
2.987304
4.232459
1.581317
4.626148
3.356273
0.008087
3.059633
0.323344
2.091586
3.194525
-3.130436
-3.621174
-0.207373
-1.431471
-3.015381
3.366955
3.391369
-4.063997
-1.987213
-2.297281
-1.181219
2.208167
-3.219550
-1.403699
0.232093
-1.095462
-2.883541
-1.309702
0.766778
-2.964721
-1.284066
-1.303293
-1.524552
-2.164830
2.200842
-1.689962
-3.173162
4.961547
1.240425
-2.633595
-2.749565
3.884548
-2.224036
-3.167974
1.752831
0.101169
3.165532
-3.366344
0.395062
-1.376843
-3.120365
-2.996460
-3.187506
1.886502
0.308084
3.398083
-2.665334
1.880703
-0.566271
-1.190374
3.965423
-3.381298
3.346202
-4.246193
-4.362774
3.559832
1.297800
-4.148839
1.365551
3.424024
4.815973
-2.616504
4.773247
-2.422712
-0.437178
-0.811640
0.082247
4.214759
2.228614
-1.101566
-2.590869
-1.110111
4.457381
-4.213233
-1.381420
2.003998
4.224830
-2.862789
-0.339518
-2.215796
-4.907834
3.309580
-2.901242
3.443861
-1.976836
4.491867
-0.355693
1.371349
-4.185766
2.190771
1.856594
-4.869686
-3.682211
-4.071932
4.085055
-2.556383
-4.833064
-4.465926
-2.720878
0.920896
-1.326792
-4.810480
-3.315073
-3.396863
-0.931578
4.250771
-1.825465
0.993225
0.064852
-0.061190
2.077548
-4.689932
3.649556
-0.070956
0.803400
4.041414
-4.437849
-4.674673
-2.133396
3.729209
4.002350
-3.730125
-2.299722
2.278359
-1.530961
-0.163121
-2.202673
4.251381
-4.973754
2.415387
2.946715
0.702994
2.491379
-3.947417
3.988922
-3.651692
-1.107974
-1.859035
2.849971
-2.968688
-0.661489
2.072054
-3.219550
-4.038362
-4.567248
-1.041444
-2.885372
1.872768
-3.663594
-4.566942
-3.177129
-3.247932
0.303812
-4.098178
2.558824
-4.370098
3.268990
-3.175298
-4.751274
3.894620
2.228004
2.329020
3.908963
1.930754
-0.956908
4.279458
4.035005
2.506027
-1.668600
2.295450
4.754631
-1.894131
4.731437
-0.386517
1.568194
-3.167364
2.484359
-4.009369
2.882321
-2.662587
1.984161
-4.296548
2.964110
1.170232
-4.802850
1.170232
2.116306
-1.787622
2.777642
-4.894406
-2.042451
2.766655
2.282022
-1.035035
-2.735832
1.337779
4.328288
3.612323
3.994720
-0.095370
-4.460433
-0.080721
-4.834590
-4.272744
2.586596
-1.696371
1.498917
-3.244881
-2.336344
2.072970
-4.635914
1.415906
2.459639
0.227515
1.217536
-4.154942
1.748253
4.689016
-1.681417
-4.657888
0.038606
2.537461
-1.385998
-1.961577
0.533311
-4.816889
1.429029
4.769890
-3.989227
0.630360
-1.672567
3.271737
4.198279
2.006134
-4.462874
1.765954
0.902585
-2.263100
4.994201
4.003571
-4.850154
-4.767449
3.593097
4.514145
-0.447859
-0.491806
1.748863
0.301981
-1.242561
-0.843074
3.765221
-1.466567
4.404279
1.450087
2.650685
-2.095553
-3.442946
-1.727195
0.993835
3.325755
-4.378643
0.587329
3.415174
4.465621
0.019379
1.273385
2.895749
1.527299
4.126865
3.819849
3.412427
-4.173559
2.087313
2.432783
-3.133183
3.109684
0.082247
-0.649281
0.547960
3.245491
-2.680593
-1.127201
2.168493
0.115818
3.882412
3.681600
2.261269
3.228706
-4.415571
0.635243
-2.156896
-3.919340
2.091281
2.784967
-1.879482
2.770928
2.864620
0.794244
-1.599628
-4.995727
-0.272988
0.845210
3.688925
-4.814447
-3.558611
-2.663808
1.997284
-3.995025
-0.157628
0.146947
1.830042
3.774682
-2.881405
-2.100742
2.827692
3.629414
-2.499008
-3.975799
-1.967986
-3.465529
1.942961
-4.069796
-2.475509
3.435621
1.457717
-2.099521
-0.058443
-3.369701
1.739097
-0.641346
-1.785791
2.903684
-4.989319
4.998779
1.002380
4.023103
2.803278
-4.411908
4.996948
-0.380718
1.195868
1.802881
1.207160
4.026765
-4.646290
-1.858425
-1.320688
-4.868770
4.106418
2.322611
-1.784875
-2.491073
-4.688406
4.332560
-0.819880
3.429823
-0.843684
-0.453352
2.955870
-0.718558
1.700949
-3.575396
-2.974181
4.347209
1.914274
-4.069491
1.024049
2.871944
3.322398
-0.844600
-0.762200
1.094852
4.996033
-3.073061
1.218451
3.950774
-2.201758
-2.752312
-0.941038
1.965239
-1.629841
-1.823023
3.946196
-4.721061
2.608264
3.221381
-1.895657
-2.291177
-2.419355
-3.745384
-0.096896
4.832148
-3.848842
-0.220801
-2.126682
-1.017029
-2.806940
-0.373699
3.232063
2.843562
0.745109
1.529435
1.014283
2.347026
-0.398724
-2.861568
-2.594531
-4.155858
-4.224525
0.395978
-3.800317
2.445296
1.971038
1.671957
1.343883
-2.142857
-3.854030
0.391705
3.373669
-2.482833
1.422926
-4.438154
-3.170415
0.556810
-4.982910
3.792688
1.441847
-0.103610
0.652028
0.889462
-1.443373
3.298898
0.872982
0.086825
-2.999512
1.345408
-2.312540
-0.705435
4.829707
-4.024018
-1.907865
2.378765
-0.119175
-0.186316
-1.764733
3.094424
4.176305
2.069918
-1.464736
0.357830
1.777245
-3.688925
1.207465
-1.511124
-1.814173
-1.333201
-4.811396
-2.682424
3.088015
0.689261
3.467055
2.463607
0.233924
0.739921
-1.608173
4.021882
-0.605945
1.740928
-3.072451
1.784570
-2.872250
3.200934
0.141758
-1.429334
3.391369
-3.627277
-2.644887
-1.258736
-4.512009
0.695059
-1.660054
3.645894
-4.230628
4.207129
2.883541
2.652516
-4.320963
3.421583
-4.403974
0.851619
4.377117
-1.041749
-3.746605
1.549883
-1.865139
3.631855
-3.261055
3.278756
1.587420
1.457717
2.445296
0.809198
4.483627
1.450392
2.131565
4.233680
1.037477
1.060976
3.970000
-0.631581
-2.109287
-0.662404
-4.437239
-3.245796
3.374584
3.628498
4.939879
1.915189
2.629322
2.515488
-2.115390
-3.779565
2.171545
4.489731
-1.015503
4.455245
4.293497
2.078463
-2.363506
1.907559
1.966460
2.130345
-1.507462
0.737175
1.302377
2.529832
0.212256
0.673696
4.161962
0.378887
4.608753
-0.706656
-3.411512
4.985961
-0.207068
-3.482925
-4.725333
4.295022
-2.306131
-2.100436
1.152532
-1.086917
1.158940
-3.192083
-0.514695
3.346202
4.714957
3.295236
-4.221473
-2.575915
-3.967254
-0.306864
3.290048
-4.996948
4.863277
-1.944792
-0.030366
2.813044
1.659444
3.640400
-4.202551
-4.878842
1.516617
-2.497787
-3.730125
4.159215
3.454237
1.091494
-1.991791
3.722495
0.436567
4.255959
3.979766
-3.426771
4.326762
2.536241
-2.192297
-0.416730
-0.514389
-0.470138
4.454024
1.503494
-2.346416
1.122929
4.197058
-3.896756
0.445723
0.040742
-1.836451
2.085482
-0.670339
1.389355
0.296182
-1.373180
1.750084
-0.981933
-3.266549
4.306925
-0.431684
-0.073092
0.840327
2.057405
0.797296
-0.486312
1.087527
1.457717
-1.084780
0.221412
3.308359
2.422102
-3.552812
-2.297891
1.109500
-0.876339
-4.612110
0.677969
2.918943
-2.784661
2.780084
-0.358135
-1.891079
1.942961
1.471145
-4.084750
4.688406
3.594317
4.093905
-1.591082
-4.847102
-0.241249
-0.673391
4.712821
2.432783
-4.960021
-3.823206
-4.801630
-2.230140
-3.544877
-1.773888
4.693899
-2.139500
-0.314493
3.956572
4.074374
-1.401868
-0.705435
0.605640
-3.037049
3.332774
4.340190
2.001556
1.994232
0.349895
0.771661
2.388836
-0.537584
-3.781396
-1.241340
4.204993
-0.802179
-2.477950
3.304697
4.954833
2.947935
-0.174718
0.710929
3.834498
-2.760552
0.475021
2.304910
-1.998505
-2.395245
0.985290
-3.323618
-0.576952
4.463485
2.395856
-1.396069
-3.732566
3.709067
2.064119
-4.129002
2.581103
-4.937132
0.481429
-1.096683
-0.302286
-0.651418
4.245888
-4.402753
3.471023
1.797998
-4.165319
-2.896054
1.185492
-3.602557
-2.795953
4.431440
3.848842
0.376141
3.606830
-1.659749
-4.928892
2.635426
-4.863277
-3.598285
-2.515488
-4.648427
0.938902
4.139073
-2.622913
1.339000
3.686789
4.641713
-4.456160
-4.396954
3.996857
1.881314
-4.654836
-1.994537
-2.597888
3.252815
4.894406
-1.128422
-0.546129
1.288034
-3.552202
2.938475
-1.628315
-0.039827
4.703360
3.391064
1.166265
-0.980712
-4.004486
3.662984
3.412122
-1.772668
2.668691
3.961150
-0.956603
1.690268
4.531846
3.859523
-4.248634
-2.724235
-1.856288
4.203772
-0.076449
2.956481
0.947447
1.149480
1.771752
1.777856
-1.328013
2.432783
-3.564409
-1.650594
3.082217
-4.439375
-3.754540
-4.907529
-3.332469
3.591266
1.005737
-1.507157
1.808985
1.877651
-0.578784
-4.762566
-4.794610
-1.375011
0.749077
-0.054170
-1.747032
2.762078
-0.549486
-4.008454
-2.382733
3.831446
-1.602680
2.619251
-4.238258
2.490463
4.641102
3.708457
-2.245705
-2.786187
-2.601550
3.369396
4.569689
4.156163
-1.369823
0.526292
-0.995972
1.003906
1.469619
2.332072
2.885983
1.345408
4.781487
-2.965636
-3.547624
-4.526963
1.955779
-4.909665
0.776849
-2.397992
0.212867
-4.368572
-3.418531
-2.461470
-1.026490
-4.160131
-1.168096
4.410993
3.012329
-2.269814
1.775719
4.095126
-1.571551
0.484176
-0.272683
-1.344188
2.049471
-2.173681
-4.365215
-2.378460
-1.138493
3.628803
2.021088
-2.652211
3.747520
4.669790
-2.933592
0.001679
0.155187
-0.161901
0.464644
3.844874
-2.272256
3.328196
1.377758
-1.812647
1.156499
4.408246
0.569933
-1.397290
4.616382
-0.199744
3.383129
0.850398
2.518845
-3.263497
-4.576098
-3.341624
-1.262703
3.145390
3.807947
2.110202
-1.855068
2.903684
0.412458
4.777520
1.751915
-4.143040
2.497177
1.448256
2.867672
3.919340
0.789666
0.548265
-3.099918
0.912046
1.367992
-1.331675
0.294351
-3.357799
4.604175
-3.787500
1.115299
4.257790
3.827784
-1.387219
-0.491501
3.473769
1.648152
2.480697
-4.548021
-1.508988
-4.827876
3.806116
-3.468886
2.321696
2.356792
-4.720145
2.473678
1.319468
-1.127201
-3.681295
-4.056063
-0.194555
4.051485
2.916807
2.435530
-4.506821
2.140416
-2.688223
-1.997894
3.285165
-4.750664
1.236763
-0.620594
0.376751
0.037385
2.122410
2.381207
-3.666646
-4.745781
-3.600116
2.703177
-4.758599
2.354656
2.496261
1.319163
-3.811609
-0.506760
-2.163610
4.708548
-1.573382
1.217231
-4.989929
3.755455
1.522721
-2.284463
0.967589
1.556291
-4.289224
-2.832575
-2.885983
-3.634297
-4.750053
-0.158238
3.159734
-0.290994
-4.507126
-2.799005
3.603473
-0.628529
3.443556
1.721702
-2.869198
-3.255867
4.131748
-2.555162
-3.612018
-1.508988
-0.981933
3.630024
-3.687094
-1.308481
-1.343272
-2.693411
4.447615
4.218116
-1.474502
-1.463820
2.899106
-4.722282
-3.175298
-0.961486
-0.606250
-3.067568
4.046602
4.502548
-3.657796
1.114994
0.419172
-0.813166
-0.184790
4.830012
-4.706412
-3.989837
-0.929441
2.696158
2.009186
-0.197913
2.396466
0.672475
4.739982
4.688101
-2.458113
-1.610309
3.593402
-0.638600
3.673666
-1.707968
-2.458113
3.606830
2.643971
1.732688
-0.163427
-2.553941
2.644276
2.242347
3.393506
-1.866665
-3.307443
4.768059
1.753441
2.094943
-4.576403
-3.817713
4.601428
-2.228309
-2.556078
-0.691397
0.489975
-3.368175
4.898984
-4.263588
4.169286
1.376537
3.283944
-0.817438
-0.142064
0.026704
4.126560
-0.006561
-2.688223
-0.955382
3.869900
2.787103
-1.902371
-4.862362
-0.127415
0.412152
3.069399
2.957091
-2.733390
-0.476852
3.793909
2.722098
2.001251
-3.831751
-3.638569
4.562670
-2.117222
3.352306
-3.648030
-1.474502
1.851711
-2.618946
2.921384
-1.587115
2.950072
-2.322611
4.050569
2.766655
1.869411
-0.776238
-3.112735
3.068789
1.546525
-1.520585
1.919156
-3.897366
2.392499
-2.450789
-0.187536
1.844691
-1.675008
-0.957518
-0.544603
-4.303568
-0.231788
-2.050691
-1.753746
3.444166
1.113163
-0.144200
2.888424
0.528733
-1.961577
2.980590
0.899228
-1.739708
0.140843
2.986084
0.582141
-0.241249
2.812738
0.328837
0.667592
4.986572
-2.214881
1.637165
-4.163793
-1.956389
-2.997681
4.927671
-1.467483
-1.169622
-2.699515
-1.429945
1.982330
-4.776910
4.358806
3.178045
4.877316
-1.554155
0.310831
-3.698080
-0.911435
-0.114292
-3.609882
-2.689138
2.115696
1.601459
-0.988952
0.426801
-0.913877
-3.021180
4.906919
1.951506
1.517228
-2.122715
4.749443
1.491592
-1.290170
2.090365
3.090152
-2.950377
0.037385
-3.328806
4.953612
2.058016
-3.678549
-3.883328
-0.487533
0.950499
-0.584582
-0.084078
2.320475
2.202063
3.563494
0.604114
-2.139805
-3.694418
2.372356
3.353832
2.984252
-2.252724
-1.459853
2.379070
-4.769585
1.820276
-2.598498
3.631855
-2.317423
4.167455
-3.579058
0.001373
-3.975188
3.651997
-0.513779
-1.183050
0.241554
-0.771661
-1.853236
4.372234
1.815699
4.309671
3.539689
4.582507
-0.858333
-4.600513
-2.278359
0.585498
0.719169
-1.601154
3.832667
3.294321
2.002472
-4.186682
-1.024049
3.349254
2.289346
-4.138768
-4.953001
3.462477
-0.021821
1.840724
-0.280618
-3.745994
-2.551195
0.770440
3.869289
-3.475906
3.388012
-4.637135
4.946287
-4.710685
1.275521
0.998108
-4.947813
-4.402753
3.817103
1.090579
-1.788232
0.781732
3.950774
-1.583758
0.650807
-2.070223
1.117740
3.792993
-1.184271
1.712241
0.670644
3.263497
-3.480483
0.420087
-1.815394
1.277047
-4.877316
0.545518
-0.153050
-3.700827
0.177770
-0.536668
-1.421705
2.182226
-0.026399
4.515061
4.472945
-4.308145
3.450270
0.045930
4.833369
-1.311228
-0.597400
-1.092410
-0.212256
1.730552
-3.906522
-1.113468
0.226295
4.680166
-1.763817
0.411847
-3.694723
3.382824
-4.848018
-4.238868
-2.715690
-0.055696
-0.906552
2.760552
-3.001038
2.943052
-0.798212
-2.709281
4.226661
0.045015
0.234840
4.745170
-2.269204
-1.463820
-2.303690
0.719169
2.688833
0.602588
-3.432875
2.119358
1.108280
-4.045686
-0.713065
-2.728202
4.302957
-4.474776
0.083163
0.893429
-3.700827
-2.738273
-2.640614
1.998505
3.727683
0.858028
-0.462203
-0.845820
-1.768700
-2.029939
2.797784
-4.609058
-3.470107
0.337077
0.853450
-4.776910
3.662679
-4.528794
1.872158
1.303903
0.901364
1.827296
-3.127689
1.579180
-0.575426
3.054445
2.048555
0.341350
2.571337
3.576922
-0.198523
-2.274392
-4.176916
-2.188635
3.594623
-3.583636
2.693411
4.387494
3.980682
-2.214881
3.226569
4.410382
-1.074709
-4.824213
2.205420
-2.434919
4.925230
3.037965
-1.925871
-2.329020
0.421308
1.781518
3.166448
-4.362774
-4.966124
-0.326701
-4.007843
2.642140
-3.009278
4.545885
-2.167577
4.190649
-1.258126
-4.090854
-4.513840
-4.541612
-4.914853
-1.729331
-2.256996
4.150365
0.162206
-1.057009
-0.326395
4.678335
4.101230
0.535447
-2.752312
-0.945921
-2.939390
1.049379
4.541917
2.788934
-0.200354
-1.101260
-4.055452
3.030641
-3.620563
-1.651509
-3.448439
-2.294229
-4.338969
4.436934
4.693594
-0.988952
-0.348979
-2.563097
-1.591693
-4.898679
0.248878
-4.385052
-4.063387
3.144169
-1.911527
-3.424329
-1.422010
-2.017426
-1.675008
-3.035524
1.540422
-3.615986
-0.153050
-2.090365
2.542650
-0.894040
1.209601
4.936827
-0.959349
-0.829340
-2.909787
-3.737449
0.525681
0.058138
-4.902646
0.872066
2.628407
-2.410199
-1.298715
1.321604
3.384350
2.638783
-2.594226
2.991577
-1.315500
-2.124851
0.691702
2.416303
4.482711
-3.312326
-0.499435
-2.385479
4.927366
-2.381512
2.756279
-1.456801
-0.594043
-0.546434
0.815302
-4.304483
0.759453
2.149876
3.997162
2.539293
-0.391095
-2.494736
-1.027406
-4.830927
1.381115
1.523026
-1.554460
4.353923
-3.471633
2.984863
3.910184
4.356365
4.964293
-4.754021
2.686697
-1.257515
-4.630421
-4.367046
2.577746
-1.787317
0.483261
-2.096469
-1.709799
0.196387
-4.381085
0.124363
-4.437239
1.173894
-4.001129
3.415174
-3.348338
2.721793
4.641408
4.846492
4.061251
-2.698904
4.896542
4.802850
2.736137
-2.123936
-2.331462
-4.102145
-4.932859
-2.034211
4.480575
-3.672750
1.292306
2.317728
-2.232582
-3.140812
-4.605701
0.525681
4.329508
-3.784753
-4.079562
3.157903
-3.186895
-2.989441
-2.264626
-4.913938
4.705802
-4.550462
-4.521775
3.230537
-4.321268
1.638081
0.884579
-2.654347
3.837245
-1.816309
1.861171
-4.509873
-0.567186
-3.403272
-1.292611
-0.270241
-1.697592
3.820765
-0.525681
0.204321
-1.516617
-4.013031
1.696066
-0.655995
-0.421308
-3.411206
3.386181
-3.769494
1.377453
4.943541
-4.160741
0.496078
2.525254
-1.990570
-1.782739
1.177252
3.233283
3.407544
4.862362
-4.524827
-3.528397
-4.153417
-0.108188
-1.008789
3.833888
-4.898373
0.868709
-1.046022
-3.112735
3.923307
-4.500107
-3.199713
0.630055
-4.533067
-1.451613
-3.099918
4.705191
-1.006348
-1.177557
-4.311197
3.791772
2.371441
-3.359325
4.413739
-4.857173
3.653218
-2.988525
-4.715262
-1.530351
2.468490
-3.201239
-1.771447
0.210120
-3.416395
-0.770745
4.897763
-0.285806
0.395367
-3.138981
1.452528
-2.423627
1.054262
-1.710715
4.800409
-1.167486
-4.793390
-2.697378
2.379681
-1.411328
-1.773888
3.736229
4.900815
3.030641
4.750359
0.736564
-4.421064
2.122715
-0.900449
-1.379284
0.460372
3.663289
-3.883633
1.734214
0.753349
3.718528
-0.443281
-0.211951
-1.239814
1.945402
1.687216
4.948424
1.832789
3.387402
2.053743
4.133885
-3.830531
0.670034
-4.227577
-0.455184
2.574999
0.439924
-0.123142
-1.466262
-2.890255
-3.839381
1.052126
2.643361
-3.220466
-3.834803
-0.120090
0.311441
-0.387127
0.772271
-0.355083
-0.315104
-3.077944
-0.488144
-0.279397
-0.981933
0.756706
-3.590960
-2.628407
-0.567797
3.046205
-1.369518
0.375530
-2.655263
2.819147
0.843989
4.525132
-1.166265
3.421278
-3.337046
-2.202368
0.715812
-4.902036
-0.686819
-2.531663
2.772149
0.166478
-3.038881
4.887082
-3.927274
-3.196966
3.659017
-4.381695
-4.439680
3.669088
-2.836848
-0.464339
1.932279
1.837977
-4.977111
-3.205817
0.468307
-1.678365
-4.204077
1.168401
-4.018525
-4.979553
3.137150
-3.095340
-1.158940
4.309671
4.100620
4.871517
1.349681
-4.098788
3.700522
2.240211
-1.910306
0.995361
3.991363
-2.142552
0.798212
4.974670
2.514878
-1.513260
3.552507
-2.883541
-0.193030
-4.366436
-3.634907
-2.605518
1.021912
0.975829
1.353038
-4.727775
0.653859
2.275307
-4.941710
-4.555651
2.733390
3.331248
-0.526902
-1.001465
4.890439
1.859951
1.541643
3.018738
-4.665212
3.184759
3.115177
-1.232490
-3.116703
4.637440
-1.300546
1.368908
3.345286
-2.291787
4.619434
4.878842
1.070437
-1.107974
-0.110935
-4.607532
-1.660970
-2.290262
4.195837
1.091494
-1.038697
-1.785485
4.598987
-3.846400
4.350871
-1.775109
-1.235847
0.791192
-3.824427
1.615497
2.047334
-2.177038
-0.007782
-2.310404
0.005036
1.484573
1.414380
-4.295938
-2.028108
-4.949339
-2.876522
2.556078
-3.473769
1.877346
0.091403
-3.558306
-2.006439
0.474410
-3.051698
-0.419477
4.167455
2.523423
-4.283731
4.453413
-4.826960
-2.624744
-2.333598
-4.605090
-4.468978
-0.267495
-2.420576
3.110294
2.933287
-3.876614
-1.658223
-2.916501
2.478866
1.169317
2.531358
2.127293
-0.135655
0.283670
0.137791
-0.110324
2.242958
2.331462
3.889126
-2.136753
3.973052
-2.817927
0.284280
-3.290963
-3.159734
-2.555773
-0.695364
0.109104
4.913022
-2.218238
-1.421094
-0.372478
2.454146
-1.955168
-4.954833
4.885861
2.377850
-1.257210
-3.880276
0.200049
-3.259529
3.689840
-3.698996
3.274789
2.757195
-3.878750
-0.939207
-0.265664
-1.416517
3.375500
-4.129307
-3.091678
3.725547
1.682943
-2.630238
-2.340312
2.334513
0.417035
-0.252541
2.202368
-3.455763
4.374981
-2.573473
-3.619953
-2.652516
1.967986
-2.538072
2.047029
-3.739280
1.472060
1.624042
-0.857723
3.961150
1.213569
3.822596
-0.629749
0.518357
4.924924
1.567278
4.617603
-4.412824
0.353862
-0.598010
0.005036
-1.239204
-2.579577
-3.425245
2.142857
4.113742
-2.523728
-1.030763
-3.139897
0.164953
-0.898923
4.111606
-2.066561
1.533097
2.652821
1.371349
-0.562609
1.719565
1.993927
-3.938871
-2.928404
-3.436537
0.729545
2.514267
3.715781
1.358531
3.756981
-1.558428
-4.529710
2.536241
0.651112
4.216285
-1.820276
4.073153
-3.751183
3.781701
0.805841
-1.624042
-3.254036
0.417646
4.258400
-3.411817
-0.641957
2.900021
2.611011
3.018128
3.698080
2.547533
-4.564806
0.015412
-1.548357
3.180486
-1.295053
2.627186
3.521378
1.197699
2.109592
-1.445509
-3.277535
-3.028199
-3.297372
-4.181494
-2.785882
0.738701
1.577349
4.801019
-4.096042
3.406629
-2.095553
3.341319
0.909299
-1.263314
3.390759
3.182928
-1.329844
-0.983154
3.164617
3.162786
-3.998993
2.093417
-3.717002
4.956664
2.939085
-1.353038
3.008057
-4.786676
3.553117
4.855342
-3.268685
-4.239174
-0.423750
4.731132
1.373486
-1.665853
4.356059
4.389325
-3.372753
-4.830622
-1.968291
-4.319132
-1.537980
-4.127781
-2.571947
-3.084964
-0.554369
-4.537034
4.608753
4.224219
4.511704
-0.884579
3.947417
-0.884884
3.517106
3.413953
-3.619037
4.210486
-2.403485
-0.369427
3.680380
-3.813440
3.072451
-3.501236
3.183844
-0.146947
0.532090
2.543260
2.014069
2.813959
1.251411
-2.706839
1.470534
4.903867
3.403882
4.554430
-4.519333
1.564531
4.986267
1.192206
2.896359
0.994446
2.177953
3.725852
1.988433
-4.460433
0.845210
1.472365
-0.189062
3.805506
-0.503403
-1.259957
0.831782
-4.202551
3.550066
-2.055879
2.990661
1.778771
-4.154942
-2.347636
-2.828913
1.219367
-2.114780
2.215186
-4.267556
0.663625
-4.920347
-2.333293
-0.341350
4.054537
4.886166
-4.796442
1.105838
-3.851894
3.602557
-1.847743
-0.990478
2.608875
-1.410413
1.307871
3.799097
-1.047548
-0.926695
3.766442
-0.620594
4.816889
0.859554
1.913358
0.533006
2.878658
-0.974914
-4.270913
2.406842
0.439619
-0.980102
3.486282
4.844356
2.318033
3.984039
-2.597583
1.509598
-1.133305
-4.864803
-1.587725
-1.414075
-1.707968
-1.254158
3.428907
0.944395
2.361675
1.459853
1.068300
0.681021
0.248573
2.462996
4.177831
-2.935118
1.916410
-4.695730
1.103702
0.627003
-2.625965
-3.191778
-3.719443
4.187597
-0.048067
-0.911740
-3.762474
-4.769280
-0.587024
1.714377
2.415387
0.858333
-3.322398
-1.853542
-1.242256
2.755058
0.353252
2.741020
-2.114780
-3.162481
2.170324
-4.206214
4.777215
-1.854457
1.948454
-4.404584
-1.436659
1.802576
2.271035
-4.338969
-2.481307
3.612629
-0.145726
-3.505814
-3.904691
-0.489975
4.967956
-1.255074
3.144169
-1.047243
0.597400
4.497665
3.392285
4.827570
-2.275002
-4.480575
1.624042
2.313456
1.612751
4.236427
-0.392926
-3.308664
-3.783837
-3.995331
-4.778436
0.905942
4.452803
3.052309
4.085055
-4.698782
-4.640492
4.602649
1.032899
2.231971
0.557726
3.346202
-3.088931
-1.912442
3.861660
-3.886380
4.854427
1.191290
3.926664
2.302469
-1.227912
-1.993622
-0.600757
3.216193
-1.629231
4.240699
1.732078
3.953825
-2.977233
3.215888
-4.655751
-2.476730
-2.285073
-3.944670
-2.569811
-2.353435
1.638386
4.239479
-3.941313
-2.817621
0.151219
-4.261147
4.352092
3.567766
4.349651
-0.865047
-2.263710
-1.784265
-2.724540
4.529405
-2.170324
-0.273904
0.721915
2.405927
-3.484146
-1.198920
-2.740104
-3.209479
3.764000
-1.913663
3.743248
3.125858
-0.214393
-0.480514
2.294229
1.817835
0.138096
2.195044
2.598193
-0.186926
-0.764641
1.963408
3.148747
1.935942
-0.560472
3.436537
4.971923
3.568072
3.135624
0.363323
1.451003
0.982849
-1.245918
-0.496078
-3.453627
0.359661
-3.131046
-4.212622
3.558306
2.963805
1.698202
-1.422315
-1.204108
2.973876
0.563219
-2.537156
-4.500107
4.542833
0.964537
0.158238
-3.437757
-3.188726
-2.978149
0.608692
-4.199805
0.897397
-2.844478
3.387707
-0.287637
0.009003
-1.446120
-4.061251
1.120487
-2.733695
-4.509568
1.153752
-0.458235
4.082308
1.950591
0.913572
4.565416
4.272744
-4.219642
-4.353008
4.270608
-2.973266
1.029847
-1.049684
-4.824213
4.383526
0.395672
-1.015809
-0.482955
-0.884274
2.876217
0.660268
2.767571
1.807764
3.307138
4.501022
2.455977
4.176305
-0.152745
-0.268715
-2.581103
0.613880
3.711509
-3.682211
4.989929
0.485397
4.227271
3.232368
2.249672
0.833308
1.205023
-0.383465
-1.322520
-4.451582
0.582446
2.044588
4.914853
-0.752739
-1.486404
-4.471114
-0.685904
4.413739
-2.697073
3.035829
1.038392
0.776849
-1.928922
4.507126
-0.689566
3.782922
4.068270
3.927885
3.854335
1.547746
2.661672
4.397870
3.888211
4.318522
3.482620
-4.667959
-2.027802
1.153142
4.080782
0.969726
0.021210
2.219764
0.065462
1.908475
-4.754021
-3.457900
0.080416
-4.089328
-2.500534
-3.976714
4.029206
-4.556261
-0.833918
-3.757897
-0.590991
-4.104282
-1.072878
-0.638600
3.056581
-3.677938
-3.829615
3.327891
4.485153
4.052400
-4.444563
0.763421
3.519547
0.329447
1.266366
3.698386
-2.769402
1.810816
-2.846614
3.131352
-1.584674
2.928098
4.939268
4.171422
-1.407971
0.315714
-0.265053
-4.622181
-3.991058
-2.074801
-2.299722
0.293435
4.133885
2.919553
-4.326456
0.240333
2.631458
-3.170721
2.457808
-4.765007
2.186804
-1.680502
-2.378460
-3.853420
-1.528214
3.949858
2.151708
-3.503067
-4.721671
0.355083
-4.413739
-1.120487
-2.521287
-0.309610
4.992065
3.212226
-2.097690
-1.405225
1.344493
4.006012
3.077944
1.400952
-2.356792
-0.319071
4.483322
0.448164
-2.364116
-3.771630
-3.496353
-3.964507
-3.515580
-1.129948
-3.157598
-1.278268
-1.073183
0.454878
-2.731864
0.472274
1.600543
-1.108585
0.504929
0.304422
0.855281
3.454848
-0.941649
-2.574999
-4.862972
-1.379894
0.417646
1.110111
-0.268105
-3.961760
-3.890042
-0.593738
-3.717307
1.097903
3.648946
1.967071
-0.005036
-3.763085
-3.204291
4.899594
-2.672658
-1.530961
-0.315409
1.003296
2.977233
-4.776299
-2.157811
-4.465926
4.060030
3.305612
0.628529
-1.244087
-3.820154
-2.238685
4.742424
-1.398816
-4.081393
-2.505417
3.109073
-2.365337
1.059145
-0.309915
-0.770440
3.163091
-0.446944
4.185156
3.269601
-4.337138
-4.255654
-2.962889
1.497696
0.583056
1.015503
-4.968871
0.245827
3.926359
-4.880978
2.008881
-4.566027
-0.960570
2.388836
2.083651
-3.622089
4.147008
3.467055
-1.336558
3.429212
2.043062
4.230628
-3.124943
4.323099
-3.411206
-1.706748
-0.081942
-3.376110
-0.035859
2.341533
-3.705405
-0.544908
3.077944
-0.818049
2.846919
0.945311
2.656178
3.684042
-4.366436
2.162389
-2.947630
3.932463
4.859004
-2.248451
3.409680
-1.450697
-0.082858
-1.925565
1.955168
2.275918
4.666433
1.489761
-2.403485
0.338603
-1.640217
-0.522629
4.226356
3.605914
3.826258
0.534532
2.130345
3.172552
1.278573
-4.389325
0.848262
4.525132
-1.383251
2.494125
3.384350
-4.651173
-0.810724
-0.669118
3.645894
1.512650
-2.078768
-1.919156
-3.940397
0.504013
-1.199225
3.577532
-4.551988
1.189459
-4.548326
2.502365
-1.101260
0.675527
-4.257179
-1.009095
-4.470504
-1.403699
-0.125278
1.784265
-2.614673
0.752739
3.346202
3.125248
3.596149
-2.110813
-2.481613
-1.042055
4.892270
-4.788507
2.398602
-2.178869
-3.427992
-1.667684
-4.311502
-1.960051
-2.558824
3.319651
-0.728629
-3.106632
0.477462
0.612049
-2.933287
-3.333995
-4.653920
1.747948
-2.506333
-0.273904
4.973754
3.774071
-4.807733
-2.484054
-1.222114
1.074404
-3.224128
3.842128
3.211310
-2.615894
0.182043
-3.116398
0.265664
3.352000
-4.481491
-4.066744
2.172155
4.704886
1.894742
4.287088
3.662374
-1.392712
0.397504
-1.156499
-0.503403
-3.496963
-2.691275
-0.170751
2.545091
0.520188
-4.804071
4.440901
4.337748
-0.264138
-3.630634
-2.932676
3.619648
3.766137
-0.441755
1.300546
0.465255
-3.644673
-0.704215
-4.420759
3.063906
1.657613
-1.662191
4.660634
-3.755455
-0.529344
-2.450484
1.129643
1.418348
0.718253
-3.466750
3.573870
-2.337870
4.931028
4.864803
3.807031
-3.090457
3.863186
3.685568
-2.272561
-4.847713
-3.138981
1.057619
-2.636036
-0.456099
-4.515061
-0.149083
-4.508347
-3.698691
-1.800439
-0.305338
2.233497
4.996033
4.886471
4.147923
-3.919340
-4.290139
1.208991
-0.166478
-2.969298
4.786676
1.315806
-4.112217
4.216590
2.683035
-4.009064
-1.436354
4.308145
3.253731
1.629536
-1.988433
-3.098392
-4.418928
2.248756
-2.038179
-2.594226
3.471633
2.116306
3.047731
4.391156
4.781793
-0.671560
3.344981
3.359935
-4.978637
2.060762
-1.625568
-1.626179
4.829707
-4.691763
-4.469893
-0.619984
-2.960448
-2.439497
-2.959838
1.658528
-3.756371
2.173070
4.652699
1.580401
4.141209
-2.635731
4.212928
-3.209784
3.344981
3.768273
1.918546
1.380810
1.335337
-2.871639
3.151189
4.837947
-2.303385
3.709067
-4.023103
2.256386
2.996765
1.019166
0.756401
-3.825953
2.116001
0.998718
3.592486
0.027924
-1.129643
-2.975097
3.901639
-4.652089
1.747642
2.365947
2.727287
4.681082
4.026154
2.448653
2.821589
-0.989257
-3.223212
-1.241340
0.510727
3.311716
-3.547624
1.591082
-2.831965
1.255684
-3.647420
4.091464
-3.724326
0.303812
-2.545396
2.673879
0.293435
1.433302
-1.206244
1.739402
2.967467
2.192297
-4.799799
-2.858516
-2.739494
1.459853
-0.824763
-4.563585
-0.507065
-2.586596
-0.034028
2.976318
-2.404096
4.948119
-0.404218
-0.505844
4.113742
4.873043
1.635029
0.547655
2.833186
-4.799799
-0.536363
-3.265023
0.380718
-4.099704
4.327372
-0.020295
1.554460
-1.487320
-0.177465
3.218024
-4.801019
-4.032563
-4.609058
0.652944
0.634938
3.080081
-1.837062
2.547838
3.470412
2.401349
2.022614
1.843165
-0.546739
4.120762
1.286203
4.385357
0.756706
-2.245094
2.459639
1.816614
4.595935
3.471938
0.342265
4.157689
3.789636
1.268197
-1.223640
-1.803797
-2.019257
-1.747032
-1.500443
1.666768
1.024659
-0.652638
-1.283456
4.387494
3.789331
-0.694754
-3.746300
4.033784
1.523637
4.001740
-4.660634
-3.559832
-2.509079
-4.332560
3.179571
0.792718
1.895657
-1.471145
2.744377
1.592303
2.325663
-0.516526
-0.166784
2.155370
1.956389
1.771447
-0.167394
-0.994751
0.285195
-2.360759
1.432691
-3.373363
1.545610
-1.610920
0.153966
-0.863521
2.205115
2.059542
-3.671834
-4.825739
-2.760552
-4.501633
-4.267251
4.584643
3.202155
-2.824030
-4.067354
0.667898
4.770501
-2.903378
3.567461
-2.979980
0.397198
3.827479
1.887112
-0.766472
-4.610279
0.741142
-3.164922
-0.377972
2.791070
4.857173
2.251808
4.352397
-0.613880
0.919675
2.244789
-2.218543
0.972472
-0.931272
4.672842
-0.128330
-2.587207
0.080111
-0.548875
2.379376
-2.015595
-2.779778
0.784783
2.407453
-1.538896
4.665212
-3.582110
-1.901761
-0.799127
-1.495254
-1.728721
-3.518021
-3.361766
-1.111332
-4.820856
-2.867977
1.877346
0.209204
2.403790
4.924009
2.125767
2.933592
2.674490
1.853236
1.437880
2.432478
3.698691
-0.725578
4.431135
3.512833
1.144902
-1.061281
4.797662
2.857601
-3.070315
-1.275826
1.120182
1.017945
-4.222999
-0.507065
3.959014
-4.902951
-1.235847
0.493027
2.457808
4.740898
-1.502884
-0.590075
-1.825159
-1.466262
3.867458
2.634205
-2.864925
1.622211
3.776818
-3.889737
-2.547838
4.198889
0.191198
0.357219
-4.260842
3.003174
3.165532
-0.150304
-0.635548
0.548570
3.568987
3.187201
-4.127781
-4.184545
4.544664
-0.075533
4.348735
2.478561
4.754326
-2.530442
0.600757
1.494034
-1.093326
4.245277
-3.261971
0.143590
-0.996887
-0.034028
-3.751488
-4.137852
0.886715
-1.857509
-4.374981
3.622394
3.923002
-0.297403
0.801569
3.600116
-2.673879
4.433882
-2.923215
1.078677
-4.671621
3.075808
-2.504196
-4.905393
-1.717734
-3.759423
1.218451
3.377941
-4.926450
-2.666555
0.775018
4.583117
-2.469100
-4.149754
-1.781823
-2.219764
0.858638
4.751274
-2.785882
0.532701
-0.231788
-1.319773
-2.433393
0.948973
-4.506516
2.160253
1.952422
-3.930937
2.698599
-3.876919
-3.910794
4.867550
0.130772
4.088412
-4.624622
1.013672
1.147649
-0.065767
3.818323
-0.784783
-2.233497
-0.149083
2.573778
-4.879452
0.569018
-3.992889
-4.056063
0.590075
-0.010224
-4.131443
1.257210
1.794641
-4.024628
2.001251
-2.784356
4.294412
-4.150060
4.463790
-2.039399
3.889737
0.161901
3.779260
-1.271249
1.928312
4.567553
-2.193213
-4.796747
4.368877
-2.284768
4.223914
-2.648854
-0.002594
-1.909391
2.664724
-0.702994
-4.586169
-3.677023
1.655171
4.080477
0.368511
1.560564
-4.943541
2.318033
2.873470
1.412549
1.300851
-4.978332
-1.476333
-4.376507
2.506943
-0.703909
-2.724235
2.156285
0.909909
-2.018647
0.607166
4.351482
3.809778
-4.513535
-0.867489
2.131565
2.070528
0.613880
-2.263405
1.373486
-3.958098
2.903073
0.399945
3.605609
1.010620
0.708182
-2.335734
3.424024
-3.919034
0.849483
4.278542
-2.938780
-1.153447
-2.939695
-3.059328
4.109165
-3.894314
3.874172
-3.355968
3.779565
4.823603
-0.725272
-3.600421
-0.847041
-4.908139
-1.945097
3.537248
-0.178076
-3.424329
-4.215674
-0.635243
-3.762780
-2.780389
-3.177740
-0.409711
-0.448164
-2.743767
0.159764
0.699332
1.251717
-0.416120
1.609699
-0.946532
-1.091494
-2.130650
-2.950987
1.786096
2.651906
-3.118839
-4.457686
-1.304209
-0.270852
-3.045900
0.927000
-0.057222
3.270211
-4.139378
3.540910
4.948424
4.326456
2.581713
-3.736839
2.923521
4.665517
3.049867
-2.820673
3.183844
-4.493088
1.543779
-2.398907
3.026063
0.147557
-4.165929
-4.108860
3.194220
-4.436323
4.772332
-2.951292
-0.320597
2.222205
3.960234
4.014557
1.766259
3.543352
-1.923429
-2.932371
3.192389
-1.071352
3.281503
-4.739067
-0.483261
-1.408887
-3.605304
3.165838
1.248054
4.851375
-2.932676
1.693014
-4.033174
-1.961882
1.352733
3.673971
-3.851894
-0.780511
-2.241737
-2.612842
-4.220862
1.983551
1.765648
-1.859340
3.542131
-0.927305
-1.035951
3.604694
0.203101
2.276223
-1.596881
-4.283731
-0.475631
0.013581
1.399731
-4.880673
0.193030
2.529527
-3.950774
-0.097812
-3.402051
-4.792169
3.309580
-0.163732
-2.781304
-0.627308
3.940092
1.574908
3.305918
2.995544
-3.266854
-0.800958
3.456679
-1.934416
2.989441
4.507126
-2.246925
1.883145
4.658498
2.245705
-0.844905
-3.334605
-0.197302
-4.556871
2.031770
3.080996
2.900937
2.380902
2.619861
-3.421583
-4.363384
4.024628
1.795251
4.270913
1.460768
-2.236854
-1.564837
0.363628
0.157323
3.038270
4.124424
1.352123
1.692099
-1.002991
4.028291
4.425642
-0.284890
-3.307749
-0.465255
-0.061800
-1.477859
3.484756
-1.231269
4.107944
-2.593310
4.067354
0.408490
3.901944
-0.662709
-4.873043
1.028932
4.557176
-3.946196
1.847743
-3.511917
-4.711600
2.321085
-4.751579
-4.816889
-4.403668
2.956481
0.318155
-1.234016
-2.049165
0.770440
-2.494736
-1.098514
-4.772942
2.684256
1.544084
-0.074923
-0.233619
1.122013
-1.439711
-3.894314
0.971557
0.328227
-0.395672
0.019074
4.418012
1.203803
-1.861476
-3.825648
-0.313272
0.557115
1.613971
4.881893
-0.814081
1.963103
1.789758
0.091403
2.209387
-4.331645
0.815607
-3.488418
0.521104
-2.982727
-0.808893
-2.535936
-0.933409
-2.230750
0.386212
2.545396
-2.392499
-2.091891
-4.509873
-0.340129
-2.736442
-3.097171
-2.771538
-0.101169
2.666860
-2.285379
1.870327
0.733512
2.486496
0.836665
0.702689
3.889126
-3.217719
2.801752
2.938475
-0.110324
-0.626698
-4.449446
-0.661489
-3.591876
3.131046
1.456191
-4.250160
-4.384136
-2.782220
-4.752800
3.445082
-2.444685
-2.222510
3.633686
4.869381
3.171941
4.737846
2.744682
0.764336
0.149693
2.732475
3.309885
3.328501
-4.061556
0.265969
1.769616
-3.392895
-0.236976
-0.404828
1.404004
-2.687307
2.020478
2.889340
1.910611
2.873470
0.871151
-0.891598
2.518540
0.128330
2.064425
-1.198614
-3.854030
-4.013337
-1.844996
-4.143651
-2.849361
-0.821406
-4.515976
-3.097476
-0.080721
1.540727
-3.196356
3.370006
-4.944151
2.677236
-0.169836
-3.136235
4.736930
-1.970733
0.362712
4.428388
0.602588
4.793085
2.557299
1.538285
-0.136570
2.124241
-4.711600
-1.394848
-0.901975
2.865230
-3.416395
2.063204
-2.133091
-0.377361
-4.452803
4.932554
2.307962
4.991760
4.933164
1.561480
2.663198
0.118564
3.513749
2.848140
3.194830
4.686575
-0.046846
-4.103061
-3.758507
2.798090
4.258095
3.998383
4.773858
3.405713
0.337077
-4.390851
-1.288339
-3.016907
-0.977050
1.934416
-1.854762
-3.615680
1.138188
1.737877
-0.920286
-4.849544
-1.902066
-1.707663
2.083956
2.474288
4.402142
3.730125
-3.318125
4.304178
3.410596
-3.753929
4.323405
-1.299936
4.174169
4.680776
-1.363109
0.396588
1.185186
3.308054
2.419050
4.147008
4.950560
-2.236854
2.298502
2.485885
2.525254
2.720267
-1.173894
3.067568
-1.259651
-2.003388
-3.621784
1.461684
-1.786401
-0.500046
2.337870
3.821375
4.803156
4.619739
-4.249245
-2.735527
-2.886593
1.984466
2.965331
4.351482
2.654042
-1.895657
2.309793
-0.440229
4.593799
3.711509
0.620899
1.943571
-4.102145
1.253548
-2.354656
-2.654042
0.276650
1.682943
1.295663
-0.749992
4.307535
-1.425977
1.877041
0.103916
-1.803186
3.307138
-4.468368
2.146825
1.567888
-4.809870
0.849178
3.329417
-2.783746
1.456191
4.980468
-0.237281
0.488144
-2.323527
-4.192480
-0.752129
-2.965026
0.785699
4.931028
-0.710318
2.833491
-2.256386
-0.312052
2.611011
3.745384
-0.550707
-4.109470
4.221778
-4.654836
-4.991455
-0.869930
0.191504
-2.506943
4.739067
-4.534898
0.742058
-3.523820
-2.839595
4.094821
1.947233
-2.256691
-0.418867
-1.301462
-0.389264
-3.337352
-3.218329
1.425367
1.287729
-1.032289
-1.721702
-0.646535
0.645009
1.260872
0.134129
0.656606
0.663015
-3.047426
-0.072787
0.341350
0.734733
4.326762
0.589160
0.664541
-2.254860
-2.681509
2.085177
-1.330149
-3.659017
3.393811
-3.247017
0.228431
-1.232490
3.512528
4.650563
4.454634
-2.805414
-3.664205
-0.066073
2.375103
-3.792077
-1.649983
-2.792596
2.197485
3.025758
1.682333
1.135136
3.998993
2.092807
-1.202887
-2.207251
3.256478
0.052644
-0.133213
0.258950
-1.055177
-0.319376
-4.254738
0.778985
4.832453
1.115604
4.302652
0.348979
2.694632
-4.573962
2.763909
3.955962
1.023743
2.757195
-2.918027
4.301431
-4.694815
1.736961
-1.708579
4.316691
4.616077
-2.902158
-0.736259
4.245888
-4.550768
-1.694845
0.299539
4.275796
3.570208
1.642964
3.641621
-2.069613
-4.645985
4.385968
0.771050
3.528703
4.746086
2.599109
2.846004
-0.748466
4.146397
-3.799402
2.270730
-2.434919
-1.577654
-3.337657
-2.673269
0.808588
3.670614
-0.387127
4.793085
-1.819361
-2.556993
-4.494919
4.128391
-3.225959
-4.913327
-4.950865
0.080416
-2.961058
-0.149693
3.960234
0.399945
3.227790
0.068209
3.632160
4.645680
-1.847438
3.460341
0.780816
-0.305948
3.310190
2.877132
-2.253029
-0.263833
0.856502
1.088748
-1.709189
-1.276742
-3.759117
-2.926878
-4.064608
-0.159459
-2.495346
-2.674184
-4.847102
0.025178
1.470229
-0.632801
-3.352916
-1.925565
1.912442
3.749657
1.304209
2.777032
-2.805109
4.652699
-1.165654
1.442152
2.789850
-3.576617
2.158422
3.114261
2.245094
1.790063
2.372051
2.144993
2.785272
3.617206
0.673391
3.568377
1.911527
2.935423
-3.706931
-2.712638
-0.402387
-0.607776
-1.572466
-0.655690
4.027985
-1.002380
4.569079
4.670095
4.392071
-4.425336
-0.942564
1.851405
0.943175
2.930845
3.253121
3.121586
-3.017212
-0.332194
0.047456
0.525987
2.809076
-0.812860
4.084445
4.688101
0.695975
0.662404
3.616291
0.360576
3.089541
3.165227
4.845271
1.175726
-3.226264
-3.638874
-2.370525
1.261788
-0.541856
3.878750
0.228431
4.159825
-1.317331
-4.654225
0.776543
-1.871242
1.539811
-2.299722
0.068209
4.959105
1.391186
-1.517838
0.867794
-3.153935
-1.076235
2.269509
0.339518
-2.388226
-2.218543
2.133702
-3.482009
2.022309
-2.211829
-4.130528
3.231147
4.302347
3.126469
0.838496
-4.730216
-1.177252
2.506638
-4.137242
3.594928
-0.659352
-2.567370
-1.707358
-0.081637
-2.914365
-2.534104
2.745293
-0.051424
4.157994
1.720176
2.777642
-4.181188
-3.488113
4.724723
3.710593
-0.624256
2.777337
1.251411
-4.820856
-0.753044
-3.255867
1.528825
-4.250465
-3.597369
1.204718
-3.073672
-2.321085
-4.921262
2.225257
-3.633381
2.983032
-2.363201
2.120579
0.911435
3.587909
-0.166784
-3.229926
0.349284
4.532456
-2.945494
-4.853206
0.822626
0.598315
2.167577
3.659932
-0.546739
-0.525987
-1.168706
2.354045
-2.170019
-2.868892
0.079501
1.418958
-4.692373
-2.935118
-3.479568
2.505722
-0.087741
3.137455
-1.410413
-0.384381
0.399640
3.496048
-2.307047
-1.563311
3.538774
4.033174
-2.754143
-3.868984
2.230445
3.606220
1.856594
-3.127689
3.696554
0.799738
1.750389
-4.701529
2.905820
0.859859
0.780206
-3.862575
1.311838
-1.667379
1.685690
0.123142
-2.899716
-1.112857
3.147221
4.049959
1.033204
-4.983215
-0.082247
-2.842952
3.725242
0.505234
3.628498
-1.160772
1.321909
-2.765130
4.612720
-4.477523
0.340434
-4.094516
-2.808466
-3.133183
-1.041749
-3.108463
3.972747
0.326701
1.070132
-3.948027
0.941038
4.710990
2.484359
-3.586993
-0.282449
4.476302
2.158422
0.912046
-0.701468
-3.895535
4.912717
3.263192
1.280404
0.289468
2.121189
-4.313334
4.569384
2.799615
4.630726
0.688650
4.570910
3.621174
-1.652730
-0.223853
-2.290872
-4.634999
0.110324
4.805597
3.192083
-4.009369
0.083468
1.098209
4.500412
3.062380
1.268197
4.952696
4.816279
0.729850
-2.618030
3.588824
-4.317606
-1.532182
-0.496689
-4.425031
3.995636
4.559923
-4.039583
4.652089
-3.512528
-2.642140
4.498581
1.112552
0.097507
-1.266671
-1.941740
2.031770
-4.703360
1.458937
3.904080
-1.686300
-2.256386
0.986511
-4.227577
3.236641
-1.975616
2.759026
-4.826960
-2.615894
-3.182623
4.381390
-1.182745
4.516892
1.271249
2.048555
4.367962
2.321696
0.160680
1.719565
1.333201
2.856685
4.533677
3.179876
0.245521
1.411023
-0.240028
-2.228004
-4.357891
-3.456984
-0.357219
-4.089633
-0.027924
2.753533
-3.702658
-2.713248
3.015992
3.080996
-1.120182
-3.895230
-2.451094
-3.660237
-0.612049
4.877316
0.799432
2.636647
-2.683645
-4.243141
-2.774285
1.214484
4.345988
-1.016114
3.792688
3.897366
-1.651509
4.608448
0.823237
3.982818
1.432691
-1.079287
-2.242958
-4.699087
4.634083
-1.573687
1.921293
2.963805
-1.350597
1.516617
1.498001
2.923826
-3.037965
-3.869594
3.675497
-3.457595
3.481399
-4.053621
3.177740
4.739067
-2.169103
1.993011
3.978240
-2.867672
1.591388
-4.782403
4.145787
-2.275918
-4.929197
3.565630
1.979583
2.023225
0.041963
1.688437
-2.096774
-4.792779
-4.564501
1.744896
-0.860164
3.819849
-0.942869
0.188452
-3.426160
-1.721091
0.159459
-0.473189
-1.576434
-1.621906
-1.591998
-1.269112
-1.949370
1.362804
4.929197
3.191473
-2.441633
4.453719
-0.198218
-3.588824
1.660970
-2.052217
-4.610279
-3.873867
-2.064425
-0.766778
1.915189
0.255287
1.975616
0.262001
1.586810
-2.896359
1.763512
4.623402
-3.873257
2.162694
3.196661
-2.668081
-3.146611
-1.725059
-1.346324
-2.112949
1.032594
-4.558397
-4.776605
2.628407
-2.233497
3.415784
-3.459731
-4.671010
0.378582
2.575610
2.115696
-3.402356
-2.328715
-1.802271
-2.975402
4.750053
-3.106632
1.282235
-1.268197
-3.368786
-2.842036
1.830042
4.158910
-3.011719
0.835139
3.406934
-2.363201
3.115787
-3.012635
3.899503
-1.650594
-4.208045
4.211707
-3.348949
-3.542741
-2.135228
-1.835536
1.233406
-3.290353
0.316324
-2.041841
1.121708
2.779168
-0.419172
3.310801
0.941038
-0.372173
0.131382
0.133518
-3.553728
0.109714
2.308878
-1.351817
1.860561
3.587909
-1.798303
-3.256783
-4.572741
-4.234901
1.819056
-0.877255
1.170232
-4.154637
-0.837580
-3.091067
4.852901
3.967864
-1.759545
4.283731
0.409101
1.206244
-3.418836
2.462996
-2.979064
-3.009583
-1.615802
4.960326
4.803766
-1.406446
-3.415174
-1.774804
-3.420362
1.562395
-3.744774
4.236427
-1.757103
-3.065432
-1.823634
-0.575426
-1.206244
3.444472
1.852931
2.974487
1.841639
3.032167
-3.839991
-2.928404
-2.442854
4.906003
-2.617725
3.672140
4.953612
-3.806421
3.787500
3.411206
-3.325144
-1.573077
-4.242836
1.266366
-4.564806
-3.152409
1.361888
-4.362774
-4.530015
1.680502
-0.142369
4.665212
1.852016
4.972533
-4.494003
-0.789972
-2.188635
-3.598895
-2.470626
-0.151219
4.603870
-2.806024
-3.180181
-1.748863
-0.124363
1.654866
1.626484
-4.556871
-3.822596
-4.027375
-0.567797
4.197668
-1.981414
-0.049287
0.092929
1.784570
-4.920957
0.303812
-0.558031
-4.825739
3.659932
0.814081
0.648061
0.235450
-1.184271
-1.491897
3.041932
2.499924
1.814783
-4.345073
-3.810389
-3.024537
-3.882107
3.582110
-2.661367
4.541307
-4.098483
0.809198
-3.901334
1.777245
-3.846706
-4.158605
-4.110691
1.591388
-3.052004
3.146001
-4.855953
-3.663900
-3.646504
3.810389
-0.640736
-0.315104
3.369396
-3.519852
-1.276742
0.406354
2.575610
-3.375195
3.220771
3.370617
2.051912
3.292795
-0.479904
3.940397
1.336863
-0.164037
-1.443373
0.904416
1.245918
-1.393017
-1.043886
-0.558641
4.027375
-3.351390
-0.055086
-0.308390
1.671957
-1.395154
1.295969
-1.292001
-0.196387
4.267556
1.372875
0.890988
4.027070
2.238380
2.353740
-4.479354
3.981903
0.903500
1.120487
-2.791375
1.145512
0.959349
-4.761650
0.696890
-0.561693
-2.693106
-3.767663
0.426801
-4.672231
2.379376
4.815668
4.384747
3.180486
3.841212
-1.742454
3.231147
2.711112
4.837947
2.111118
-1.445814
0.222327
-3.936735
3.125858
-0.309610
3.252815
3.983428
-4.255043
-0.556810
4.309061
-0.244301
3.431349
-1.326182
4.624317
-0.272988
3.783532
0.046236
2.043977
3.644368
-3.206732
3.724326
-4.918210
-0.028840
-2.065950
3.293100
4.844356
4.604175
-0.259255
2.600940
-0.836360
-4.462874
-2.511216
1.892300
4.943236
3.532365
-0.440840
-4.204382
-1.026490
-4.189734
-1.524247
2.073275
4.130222
3.957183
0.437788
-3.217109
-4.952696
3.580279
4.722587
-4.558397
-1.472365
0.581225
0.576647
2.555162
0.312357
1.589862
4.314859
4.953001
3.829310
-0.283364
2.189245
4.959105
2.494736
3.871731
-0.339518
-4.909665
3.058718
2.806635
1.156194
1.459243
3.863796
0.081332
-2.239906
-4.830012
2.363506
4.378948
-3.015687
-4.064302
-3.096561
3.587298
3.905606
-3.908353
-0.669118
4.228797
1.200140
0.378887
4.618519
3.094119
-1.419874
-1.700949
0.044710
2.631153
-1.048463
-2.108982
-3.900113
4.090854
4.203467
-2.196265
2.828303
-2.659230
4.063997
1.318247
2.001556
-2.891171
3.738975
-3.847316
4.208655
3.685873
-4.228797
-2.443464
-3.167974
1.625568
3.632771
2.235328
3.754234
-2.958617
-3.366955
-2.119663
-1.821192
-1.051515
-1.836756
3.239387
-0.885800
2.784661
-3.970000
3.721580
-3.754234
-1.502579
1.306040
-2.932371
-2.729728
1.566057
-3.647725
-1.226081
4.922788
2.420576
-0.173193
1.023743
1.527299
-3.127689
-1.380505
-1.879177
-1.909085
1.011536
4.290139
-2.754753
1.709799
-2.391888
2.763909
-2.433393
0.022431
2.948241
-2.306131
-0.785394
-4.580676
0.583666
3.729820
2.719047
3.384655
-1.121708
2.469100
3.475295
0.607776
1.193426
-0.556505
-4.080477
-2.534715
-1.655171
2.102268
1.127506
4.502853
-4.052705
1.622822
1.547746
0.456099
0.224464
-1.841334
0.620289
-0.827815
3.307138
-3.670614
1.839503
-1.398511
-2.371136
-3.454237
-3.970611
-0.625172
-0.309000
-2.433699
0.342265
-4.615467
2.318339
-0.086825
-2.172460
-0.578173
-0.009308
-0.839717
-4.202551
-3.411512
-0.600452
-0.930052
-2.153233
-2.926572
-4.376507
3.033082
-4.786981
-1.405225
1.375622
2.729728
-4.408246
4.855342
-3.813135
-2.490768
0.191504
-2.790155
1.228828
3.692892
3.894620
2.964110
-2.027192
-0.005341
-0.549791
2.213050
-0.805231
-1.952422
-3.446303
3.868679
-4.608753
-0.421308
-2.552416
2.611316
-3.106021
3.495132
-3.711203
-1.499832
-3.377331
2.164220
-3.029420
-1.492203
-3.561663
-0.106967
4.152806
0.406049
-3.532670
2.731864
2.750175
-3.846706
-4.256569
4.149144
-3.128300
-0.014496
-0.051424
-3.523209
-1.597797
2.457808
2.762993
-2.247536
-2.752312
2.733085
-0.518662
4.360332
2.727897
1.570330
0.545213
2.061068
4.301126
3.991974
0.630665
-4.635304
-4.327372
1.213263
2.573778
-3.245491
3.034913
4.018525
2.020478
0.262307
-0.407880
-1.062197
4.820246
2.762688
4.335307
0.688345
4.680471
-1.957305
-2.184973
0.079501
1.746117
-1.217536
2.869198
3.514054
-2.572253
2.303690
-2.052522
0.148778
2.622913
3.012024
2.823725
-2.079989
-0.339213
3.062990
3.393506
-2.258522
3.912626
-4.595019
-4.878231
3.382824
-3.132878
4.664296
4.619739
-2.647023
-0.582751
-1.108890
4.216285
2.588427
-2.555162
-3.111820
0.818964
2.818537
-1.454360
-2.671438
3.713645
1.013672
1.894131
-0.338908
-2.144383
-2.978454
-1.103397
-2.573473
-2.736442
3.162786
-4.594714
3.420972
2.459639
0.240944
3.227790
2.034822
4.059114
4.820856
3.592486
2.013764
-2.695547
1.628315
2.303995
1.570940
2.969298
-1.493728
3.845180
-0.374920
-1.321299
3.299509
-3.147526
-1.220893
0.908994
-3.325449
3.447829
-0.137181
3.737754
1.086612
0.350200
3.735008
0.189367
1.165654
-1.933500
-3.046815
0.955077
4.701834
2.441328
-1.951811
1.208075
0.313578
-1.521500
-3.305612
-4.512619
-2.151708
0.539720
0.799738
0.555284
3.612934
-4.383526
1.819361
4.228187
-0.624561
-2.269814
4.484237
-1.943571
-0.475326
-1.927396
-0.459761
0.368206
3.278146
-2.694327
3.612629
3.473769
2.297891
2.019562
2.470931
4.013947
-1.350902
1.832179
0.159459
0.289773
4.275491
0.847346
4.067660
2.799615
1.386914
-4.488205
4.195532
1.753441
-0.950499
4.335917
4.544053
2.584460
-3.737754
-0.525071
0.623646
4.801325
4.640797
1.602069
-4.376507
2.101352
-3.204901
0.139927
-0.661184
0.410627
1.749474
-0.584582
0.262001
-3.393811
-2.536851
-4.092990
-4.651784
4.582507
-1.261483
-2.224952
-1.454054
-3.597674
-4.154027
1.843471
0.805231
3.208563
0.524461
0.498825
-3.633076
-2.734611
3.914762
3.866848
1.873379
1.235237
-1.191290
-4.760735
1.209906
3.864406
2.560656
4.510483
3.333995
1.042055
-3.316904
-4.360942
-4.991150
3.232368
0.880001
3.767663
4.707633
3.020264
3.983428
4.644154
4.985351
-2.795953
0.805536
3.231147
3.039186
2.808771
0.244606
3.951994
-3.454848
-4.815363
0.132908
2.813044
0.534227
0.812555
4.260842
1.904508
3.956267
0.319681
-4.743645
-3.233589
2.144993
1.700949
3.790857
-0.101779
-2.935118
-3.088931
4.103366
4.614551
0.606555
2.944884
-1.932585
-1.852016
3.134098
-4.909970
-2.871029
-1.826075
-1.609699
2.071444
4.743034
-2.720267
3.546098
-3.618732
4.197974
2.986389
-1.169927
0.525376
-4.647206
1.660970
3.305002
2.220374
3.173772
0.036775
2.996460
-0.957823
-2.259438
2.941527
4.834590
-1.685690
-1.233406
-0.529344
0.919065
4.598682
2.372967
4.325846
-1.682333
2.981201
-0.306558
3.460036
-2.015595
-4.295938
-0.869320
-4.476302
-1.623127
-4.317911
4.208350
4.510788
1.305124
-2.231666
-3.534501
-2.233802
-3.120365
3.183538
-2.132786
1.744591
-0.744499
1.849269
0.158849
4.766839
0.321818
-1.937162
4.008148
-1.841945
-0.852535
1.162908
-1.035035
-0.683767
-0.209510
-4.152501
4.084750
-4.442122
1.334422
-2.946104
-2.867672
-1.495865
-3.685568
-2.744682
-3.805200
3.850978
2.358318
-1.625568
1.626789
2.248146
-3.464003
-4.873348
2.911924
-2.532884
-2.683950
2.859127
0.444197
2.452620
0.874813
1.319163
4.909665
-0.862300
-3.759423
4.283120
-3.486892
-2.359233
0.835749
1.846522
3.670309
-4.227577
1.368297
-0.651723
1.728416
-1.907559
-1.594134
4.320048
-1.496780
1.778771
0.301370
-2.008576
-3.046510
1.711936
-4.592578
-0.773797
-3.567156
-4.253822
3.136540
3.385571
-4.508957
4.725944
-4.233680
0.722831
2.518540
1.436964
1.753746
2.912534
-0.521409
-4.669179
1.487014
3.803980
2.114780
0.908078
3.373363
-0.294351
1.684164
-1.078372
-1.704001
3.959929
1.989349
2.504196
1.826075
-1.804712
-4.166845
-3.742943
3.389233
-3.504288
-2.993408
-0.372173
-3.240303
-1.984466
-1.447645
2.744987
3.870510
-0.681631
2.875301
-2.596362
4.714042
-1.604816
3.811304
-0.956297
1.107059
-2.759636
0.520188
2.933897
-1.021607
4.737541
-0.136570
4.098178
3.488418
-1.537065
3.079775
0.715506
2.849361
0.635548
3.611103
-2.783746
0.906552
2.245094
3.117008
-1.917325
3.552507
-4.509568
-4.897153
2.214576
1.778466
0.861690
-3.896146
-1.732688
-2.185888
3.134098
-3.225654
-4.550462
2.838679
3.071841
4.320048
0.509507
-2.396771
3.283944
2.838984
-2.578051
-3.357189
-3.167364
-1.891079
-2.726676
-1.191595
0.652333
0.415815
-0.219275
-1.114994
-4.605701
4.632862
-1.679891
-3.561663
4.064913
-4.699698
-0.503403
-4.046907
-4.947203
3.681295
0.415510
4.002350
3.963897
3.265938
-3.114566
-3.119755
-2.303995
4.033479
0.735038
1.045717
-4.703360
-2.900021
-0.375530
4.447005
-3.889126
0.167089
4.884335
-2.187414
3.025452
-0.511032
-3.023927
-3.966033
4.151585
-2.539903
3.660543
-1.924650
-4.122288
-4.267251
4.778130
1.483657
-2.695547
2.716910
3.843043
-2.509079
-3.492996
-0.004730
-4.038972
2.969909
-0.258950
3.035218
-1.486099
-4.268471
-1.976226
-3.386792
-4.912717
4.066744
-0.793634
-1.859035
-3.788110
4.235511
-1.463210
-3.842738
-0.286721
2.651906
-4.831843
4.443037
0.262307
-4.936522
4.641102
2.874081
-1.684469
1.596271
-3.892178
-0.864742
-0.915708
0.839717
3.394116
4.048128
-3.670614
4.431135
0.393231
1.110416
2.511826
2.632984
-4.397565
4.673757
-0.178381
1.789758
3.666646
1.207465
-0.985900
-1.291086
3.251900
4.443648
3.047121
2.406842
-0.488449
3.892178
0.273904
1.755577
-0.479293
-3.086489
-0.097201
2.779473
1.298410
-1.112857
2.258217
0.392010
-0.690176
-1.729026
3.140202
3.811914
-1.116520
4.378643
-0.310221
-2.414777
-1.395154
-1.990265
0.061800
3.853420
-2.620777
1.767785
4.788507
1.808679
1.320078
-0.466170
4.721671
-3.291269
-4.592273
-3.800623
2.090976
0.927000
-2.990661
4.800409
0.902280
4.600208
2.123325
4.970092
-1.964019
-3.031861
4.100009
3.232368
3.694418
-3.317820
1.196173
-0.522629
0.937376
-2.229225
-0.638295
-2.631458
4.389630
1.643269
3.448439
-3.161565
4.895932
-2.332072
-4.145482
-4.821162
-0.274514
-0.997803
-4.619129
-1.110721
4.747307
2.907956
2.405927
-3.186285
0.077364
4.001740
4.357891
4.674062
-0.852535
1.184881
-4.262062
-4.564806
-0.971557
1.225776
3.747826
2.057100
3.988311
4.222999
-2.719962
-2.156285
-2.108676
-3.157292
4.486068
-2.909482
2.549669
-4.569994
2.081515
-1.532487
-0.202795
4.294107
-1.258126
1.704306
-2.931150
1.505936
-2.661061
-0.296793
1.395764
3.761559
-2.426069
2.195959
-4.604480
-1.840724
2.673269
4.495224
2.987915
2.817316
-1.557207
-2.780389
3.633992
1.282540
4.302347
1.383557
1.150700
3.071230
-0.547349
-0.436872
4.428999
3.558306
0.593738
4.455550
-1.294137
2.025361
-4.854732
-2.065340
0.121616
1.907254
-1.796777
-1.570330
0.849178
0.989563
2.434919
-2.897885
-0.141148
-4.139378
2.932676
-1.936247
-0.986511
-2.448042
-1.033204
0.012970
-3.073977
1.112247
2.185583
-3.672140
4.113437
-3.479568
3.702963
-1.069521
-0.632191
1.320078
-1.028321
3.360546
3.633992
-0.617237
-1.151311
-3.409070
0.317240
-4.051485
2.101352
-1.250191
0.011444
3.943754
2.523423
-3.474685
2.006745
-1.363109
-0.178686
3.255867
2.687002
-4.868770
-4.285257
3.537248
-3.897671
4.679861
-0.560167
-4.336833
1.787317
-3.108158
4.040193
0.139012
0.356609
-0.171667
4.431135
-2.619556
-4.700308
-2.274697
4.433271
-3.344981
-3.301035
-0.311136
4.854122
-2.354656
-0.037385
0.562304
-2.388836
2.107150
2.126377
-0.192114
1.796472
-0.021821
2.757805
-4.245277
-4.823603
0.961486
-4.005707
-4.710074
-1.877041
-3.404187
2.534410
-3.040407
-2.561571
4.327677
1.399731
-3.070315
1.232185
-2.496261
-1.551408
-3.530839
-2.568285
-0.106662
3.876614
-3.532670
-2.584765
-4.404584
-3.887295
-1.416211
-0.253456
-4.034700
-2.027497
-3.889737
-1.429945
-1.272469
-1.044496
1.104312
3.375195
-3.742332
1.428724
-4.041719
-0.478683
3.120670
-3.507950
2.512131
0.645924
2.209082
2.711112
-0.626698
-4.332255
-0.167699
-4.695120
0.799432
-0.652028
2.772149
2.566759
-1.549272
-4.364910
-1.971343
-1.006958
-0.434736
-4.987793
-0.983459
1.566362
2.029633
-2.348247
3.378552
-0.087130
1.827296
4.007538
0.479904
4.039888
-2.801447
4.090243
-1.795251
-4.674062
4.618519
-0.905942
2.351299
3.265023
3.210700
-1.663106
3.515580
2.365947
-1.747948
-2.492599
-3.102969
-2.278359
-4.078951
-0.708487
0.419782
0.070956
-2.163610
4.820246
-4.126865
-4.081698
2.825861
-4.062166
-1.294137
-2.449568
4.508652
-0.424360
-4.314249
3.407544
-1.811731
-2.690970
-4.255959
2.622608
3.368786
-4.406720
-1.600238
-0.722831
-2.796258
-0.005951
1.378674
4.361248
-4.206519
4.840999
-3.524735
3.991058
1.430555
-3.684347
-0.405744
3.078860
-0.814997
-0.611744
-1.318247
-2.211829
-1.038697
4.436323
-3.177435
1.978362
-4.840693
0.874203
-0.507370
-0.155492
-3.537553
4.569689
1.029847
-2.242347
1.679891
2.822199
0.514084
0.263527
-4.677114
4.954833
-4.258400
-3.058107
4.342326
0.180822
0.335246
3.930937
-2.600635
0.231483
1.377758
-2.838679
1.715293
-0.664541
-2.491073
0.110935
2.858821
-2.197180
0.212561
-0.610828
-1.433912
-3.704184
2.333903
4.363079
1.051515
3.571123
-1.678365
-1.523026
-4.982299
-4.300821
3.737754
3.635212
-2.587817
1.235542
4.241920
-2.173681
-0.594043
2.668386
-4.934996
1.830348
-2.931150
1.673788
-0.421003
3.920866
2.321390
1.032289
-3.200629
0.830866
-0.382244
1.178777
-2.778253
1.097293
-3.834498
2.828913
-1.413465
-2.191687
3.459120
-4.595325
4.178137
-0.258339
3.630329
-1.799829
1.463820
4.909055
3.040407
3.545793
-4.461959
1.067690
2.007965
-0.617847
0.555589
3.148137
-3.448744
-2.522202
1.566057
3.569292
-0.760369
-2.437361
4.454024
-3.991668
-2.288430
0.898618
4.783929
1.577960
-4.088107
4.606616
-4.103671
-0.194555
-3.824732
-4.778741
1.649678
3.826563
4.856258
0.776238
1.295358
3.270516
4.683828
-4.871517
3.154241
1.807459
4.240089
0.310526
1.245613
1.174810
-1.458022
2.184668
-1.515397
2.376934
2.640309
-4.502853
-4.557176
0.918149
4.056063
1.189154
1.891385
0.864132
4.642628
-4.051790
-3.916593
0.820185
-1.120487
-1.040223
4.543748
0.918760
-2.259133
2.818842
-0.886105
-0.495468
0.646535
4.681997
-3.962371
-4.230323
2.223426
3.505203
0.038911
2.696768
-2.780999
-1.411328
4.616688
-0.431990
0.135960
3.001953
4.287393
-1.217841
-3.868068
-4.688711
4.225440
0.077059
-3.810694
-0.887326
3.030030
-4.340800
4.442122
-1.930754
-1.033815
-2.261879
-4.030122
-2.360454
4.548021
4.841609
0.004425
-0.470443
1.848964
0.137181
-1.153142
1.542863
-3.631245
3.278146
2.670827
2.685476
-4.080477
-2.685476
-4.179357
-1.115604
0.009308
2.045198
-3.118229
-3.112125
2.826167
2.589648
-3.890652
-3.629109
4.256874
3.861965
2.354656
-3.042543
-2.478561
4.803156
3.283029
-3.068484
3.462172
0.927610
-3.812830
-3.068484
3.685568
2.289346
2.611927
-3.799097
2.032380
-2.979675
3.954436
1.238899
-1.732994
-3.524125
-4.237037
0.986816
-2.679373
-3.238777
-0.226600
-1.573687
-1.300546
4.596545
0.418867
-4.792169
3.821375
1.603595
3.825648
-4.172948
2.955565
1.391797
3.669088
2.323527
-1.075930
-3.305002
0.338298
-2.679067
-1.529435
-3.557085
0.237281
-1.699118
-1.210517
3.818934
3.081606
-0.544908
0.803705
0.513779
-3.134098
1.443373
3.479263
2.693411
3.421888
-0.941038
2.366253
0.056307
-1.032289
-1.030457
3.547929
-3.399304
-2.387310
1.167486
3.262581
-3.267464
-0.661794
-3.272652
0.329752
3.807642
2.655568
3.137455
-3.416089
-4.517197
-2.468184
-0.870540
-1.427808
1.788232
-4.142125
-2.173376
3.379162
1.073183
-1.302683
4.174169
4.348125
-4.251991
-1.153447
-3.338267
3.536637
-1.394848
4.680776
-1.356700
-0.811029
3.424024
2.112644
0.959349
-4.187597
4.166234
-0.748466
-4.663381
-4.681997
-4.699698
-2.264321
-2.001251
2.963500
2.992492
0.998413
-3.155461
2.123325
-4.711905
0.010224
-4.947203
-3.087405
-4.267251
1.532182
-4.304178
1.046937
4.533982
-4.064913
-3.241829
0.051424
0.337687
-3.346812
0.840632
2.688223
-4.164403
4.541612
-3.108463
-1.614887
2.760857
1.318552
-2.921384
-2.925352
2.185278
-4.978942
3.871731
-4.967956
-1.906339
-4.300516
-1.923124
-2.918943
0.551317
-4.590442
-2.470931
-3.031861
-1.201056
1.797388
-1.113163
2.812128
-1.234626
-3.865932
4.325236
0.675832
-4.542528
1.323740
2.362896
-0.709403
2.239601
3.219550
1.071963
-1.962798
2.995849
2.016511
1.605731
-0.883358
0.011750
3.239998
-4.468368
-1.203192
2.820673
-4.338359
1.194342
-3.092898
2.071749
-0.483261
-2.663503
0.728019
0.805231
-2.588122
-2.426374
-2.248451
-2.471236
-0.556505
-2.369915
-0.128330
4.284646
2.768792
-0.799738
1.407971
-4.157384
-0.522629
-3.299203
2.054353
-3.218635
2.661672
-4.964599
1.786401
3.416700
0.810419
-1.760460
-0.073092
-2.745903
-3.176519
-1.772668
0.375225
1.315806
0.345622
-0.484787
-0.252541
2.063814
2.125767
-1.212653
-3.997467
3.731346
-0.441145
-3.145695
-4.877010
-2.484970
1.371349
-1.813868
-4.182714
-1.968596
0.296182
-1.794946
-0.649281
1.992401
-2.042756
-2.066561
-0.137181
-1.094852
3.052004
-4.294107
-3.653523
3.971526
3.686483
-1.126896
-2.641224
2.938169
3.364513
2.396466
-2.902768
0.023957
-4.338054
2.466659
2.739799
-1.141240
0.308390
-3.700827
0.963012
3.990448
-2.736137
2.831050
4.261757
4.882504
3.955351
-3.325144
3.961150
2.826472
1.107059
-3.949248
0.730766
4.214454
-2.230445
2.404096
-2.302469
3.367260
2.441328
0.228126
-3.364818
-3.727989
1.483963
-3.283029
2.869503
-0.011444
-0.897397
2.174291
-0.843684
-4.632557
-0.468917
-2.001862
3.174078
-3.383740
-4.061861
-3.075503
1.794946
2.028718
1.830042
-0.478988
-3.965117
1.357311
2.101047
-2.082125
-1.205329
1.049989
0.038606
-4.359416
4.421369
1.779992
-0.034944
-1.354564
-4.442732
-1.581622
1.971038
4.866939
-0.708182
-4.687490
-0.253456
-0.514084
2.025971
-3.695029
-4.639882
-2.277749
-0.206458
-0.212561
-1.960051
1.118961
-1.838282
-1.244087
1.213569
4.864193
4.834895
-1.288949
1.322214
-3.699911
3.303476
-3.127384
-2.620777
-1.465041
1.898404
1.610004
-2.842952
-1.821192
-2.047945
-2.089755
2.054964
1.984771
3.995941
-4.135105
-4.795221
-1.659139
0.519883
2.440718
-3.388928
-1.002991
-2.802057
1.488235
2.636036
-4.922483
4.909360
-0.564440
-1.656087
-0.436262
-1.661580
2.915281
-2.280801
1.219977
4.816889
-3.373669
3.697775
-2.209998
-2.230445
-0.834529
1.727195
-2.282632
-1.030457
2.988830
4.317301
1.563005
2.542344
0.170751
3.483840
2.954344
-3.294015
2.183142
4.395428
-1.669515
-4.246193
-4.539476
-0.752739
-4.384747
-2.047945
4.718619
-2.316202
2.441328
0.558336
3.387707
-3.973052
-0.116428
0.375835
2.627796
-0.622120
-0.413373
-1.421705
3.925138
0.077364
4.654225
3.735008
4.994201
-2.470016
-1.126591
0.860164
-2.764214
0.623951
1.268502
1.142460
-3.415174
3.612323
2.002167
-4.507736
0.832698
4.811090
4.706107
4.053926
-3.515885
-1.952116
-1.628620
0.997803
-2.577746
0.000458
2.683035
3.145085
1.341441
-2.448653
-1.602374
0.974303
-4.139988
-3.806726
1.094546
3.862575
-0.856197
3.039186
1.357921
-1.749168
0.003204
-0.417646
0.028535
3.751183
3.027589
-0.404828
3.276315
-3.006531
-0.206153
1.400952
-4.074679
2.879879
0.181127
-4.780267
2.918027
0.541856
-4.123203
-4.165319
2.225562
-1.984771
0.197913
2.875912
1.140934
-0.258339
-2.749260
-1.904508
4.595935
2.980895
-3.310190
-3.683432
2.524339
2.238380
1.894742
-0.765862
1.929228
-1.056398
4.306314
-4.972228
-1.226997
-0.273293
3.509781
-3.711203
1.179083
-0.939817
-4.881588
4.132969
0.426801
3.660848
-4.465011
1.065859
3.375805
-2.610706
-0.303812
1.448256
-0.360881
2.273476
-3.823817
0.605640
-3.430128
-2.935728
2.833186
1.139409
-4.783624
-4.333781
-3.661153
0.908994
0.478072
2.817927
4.002045
-1.805933
0.015107
4.892270
-3.864406
0.252846
0.340129
-2.775201
-1.177862
-1.412854
3.062075
-1.060976
-1.428419
-4.718009
-2.863399
4.632557
0.982849
-3.895840
1.116825
2.382122
0.052950
-2.923521
-2.120579
4.044465
-1.958220
3.655965
-1.742149
-0.221412
1.381420
2.199927
-1.990875
3.349864
-4.625538
-1.401868
2.141942
-2.073885
-1.991180
-1.908170
2.565538
2.970519
0.284280
-3.650166
-4.341716
-2.255470
-1.283456
3.191168
-0.722221
-0.314798
-0.511338
0.807672
2.323527
-3.250679
-1.097598
-2.472762
-3.061769
1.364940
-1.037477
1.007569
3.973968
-3.782311
-3.753014
0.676443
-0.639210
-2.927183
-1.479080
2.591479
3.554643
1.949370
-0.410932
1.674398
-3.876919
1.511429
-3.485366
-3.498489
1.834315
4.839167
3.932463
3.052614
1.385388
-0.311441
-1.375622
-1.827601
1.298715
3.354747
-2.866146
0.016633
0.834223
0.528123
4.773553
2.166967
4.128086
2.663503
2.896054
3.150578
-3.292489
-3.731346
2.419355
2.424543
2.647328
2.599719
-4.632252
-4.801935
-3.781091
-0.487838
1.591693
3.686789
-4.831233
1.919767
2.140416
4.815973
0.842769
3.933683
-3.958708
0.116428
0.168615
1.787317
4.715873
2.777337
-3.452406
-1.544084
-2.584460
1.833094
-2.638478
-4.166845
3.023011
-4.246193
3.626362
-0.931578
4.423200
-1.271554
0.597400
4.488510
0.717643
-1.407666
3.259529
1.941130
-2.145604
0.816523
-0.655080
2.856990
3.284860
-1.707358
2.245399
-1.645100
-2.643056
-1.994842
0.058748
1.716208
-2.278970
1.612140
-3.861965
-2.704703
-1.454665
-0.931578
1.245613
2.206946
-3.832667
4.374981
0.240333
-3.817103
-3.233589
-4.733879
-0.734733
-1.303903
-0.659658
-3.474075
4.021577
4.807428
-3.362072
2.179174
1.161382
2.651601
0.984069
1.668600
-3.331553
-1.638081
-2.619251
-4.873959
4.462874
-4.620350
-3.641621
-2.079073
-2.919858
-3.439894
2.542955
4.604480
4.625843
1.428114
3.432264
0.035859
-3.598895
-3.403577
-0.245216
2.723014
2.499924
2.247230
-1.566057
0.831172
4.662160
-2.903989
-3.802454
1.895962
-2.832270
2.451704
-3.915983
-1.751305
0.348369
-1.767174
3.339793
-0.368511
0.196081
4.609363
-2.058016
-0.063021
-1.247444
4.728385
0.429243
-1.577044
-3.855556
0.575426
-1.284982
-3.707541
-4.807123
0.144505
2.818537
-2.154454
-1.723838
2.053743
0.058138
-1.745201
-3.742943
2.653737
-2.694327
0.464339
-0.586413
1.273080
3.265938
2.585376
-3.380688
3.193304
2.418744
2.168188
4.331034
3.316904
0.531480
-1.918546
-0.335246
0.861690
-3.442335
4.832759
1.751915
0.891293
1.981719
3.081606
4.705191
-3.968474
-2.924436
2.219153
2.340312
-0.130772
-3.038270
-3.682821
-2.969604
0.536363
4.204077
4.123203
-2.850887
-2.313761
-0.389874
1.309702
-2.726981
1.786401
4.508957
0.311441
-1.429029
0.457930
2.741325
-4.395734
-2.986999
1.657002
4.664602
-1.133610
-0.152135
2.578051
-4.601123
-2.957701
-2.542344
-0.538804
-3.932768
-1.010315
2.671438
-0.510117
0.044710
-2.517624
-4.878231
3.034608
-4.834590
0.612964
0.832087
3.429823
2.881405
-1.895047
-3.102359
0.118259
3.969695
-2.986694
3.936125
-3.404492
2.323222
-3.435011
-4.080782
-1.339915
2.607044
-0.454268
0.073702
-0.353862
2.788018
-0.329752
-0.706351
-0.888852
-0.952330
1.494034
2.643056
-3.479263
-1.727195
-2.832575
-2.462386
1.659139
3.962065
2.178564
-4.427778
-4.324015
0.390179
4.279153
-1.518143
-2.726066
4.205298
2.521897
1.503189
4.397259
-2.316507
-0.917844
4.286782
-1.652120
0.888852
2.428816
-2.107150
-1.696677
-1.876125
2.058321
0.342875
2.362590
-2.296365
-4.732353
-3.576006
-4.080477
3.010193
2.528611
1.045717
-1.464431
-4.475692
2.014985
-1.230354
4.596545
-2.968383
-0.743583
3.899197
1.122318
3.064211
4.911191
0.790582
-4.641713
2.755058
-2.151708
2.998901
4.242836
-0.568102
3.197577
-2.416913
0.302896
0.893735
-3.661458
-3.749351
-0.829340
-1.743980
0.272378
2.104709
-4.212928
-2.319864
-2.069308
-1.360057
-2.061678
1.173589
1.947233
3.343150
1.539506
-4.606006
-0.280618
-3.440809
0.920286
-0.455489
-1.660665
-2.741630
-3.545183
-0.179601
-3.471328
4.629200
2.912229
0.782952
-1.138188
0.731376
-2.043977
-1.950591
2.913450
-1.061586
3.691061
4.121677
-3.304697
1.148259
-4.653005
-4.461043
0.124668
2.461776
4.405805
1.408277
-1.940825
3.102359
-4.037751
-0.901364
-4.926145
-1.223640
0.197302
1.946623
3.407239
2.201147
4.446699
-2.356792
3.047731
1.740318
-0.171667
2.108982
-1.980499
-1.728721
1.710715
4.447005
-3.478042
0.597095
3.494827
-0.588855
1.610614
0.864132
-2.962279
0.779901
-0.399945
-1.413465
-1.100345
-0.142369
-3.936735
-2.184973
-2.237159
0.660573
-4.458602
4.916074
-4.724418
0.816523
0.203406
2.391888
-4.281899
3.141728
-2.367168
-3.849147
-0.318461
-0.328532
3.780786
-1.059450
-1.717124
-2.183142
4.272744
-4.404889
3.316599
4.925230
1.558123
3.816187
-0.708487
2.979980
0.957213
-4.555956
2.114780
-0.910215
-4.215369
-0.417951
-2.479476
-3.850673
1.193731
4.022187
0.878475
-2.672048
4.859004
-4.644459
2.693411
-2.395245
0.352031
1.081423
-1.568804
-1.818751
2.401044
-2.044282
1.168096
4.096347
-1.598102
-0.710318
3.334300
-3.130131
4.609363
1.039003
-2.134617
-0.261086
-4.367046
-4.511704
4.552293
1.721702
-2.020173
-2.159032
0.877255
-4.303873
2.868587
1.913053
2.849361
1.446730
-0.516526
0.997803
3.802759
-0.453047
2.643666
-3.970916
4.613941
1.401257
-2.448958
3.607135
-3.842738
-2.110508
-0.686819
0.327311
-2.024140
1.674398
-2.289041
0.497299
-2.347331
3.735313
2.915586
3.324229
-1.414686
-4.339579
-3.238166
4.871517
-0.142064
0.417646
-0.551012
0.764031
2.055574
4.985656
-1.362804
4.140294
1.544389
4.411908
0.899533
-3.413648
-3.146001
-2.374798
-4.501938
-2.986999
-4.310587
-4.397259
0.630970
3.867153
1.819056
-0.038301
2.189856
-3.854030
2.314676
-1.078982
2.125767
4.237342
3.074282
4.577624
0.001679
3.420362
3.062075
2.958922
3.456069
-4.471114
0.064547
3.075808
4.514451
0.426191
-1.576128
0.996887
4.692679
-3.874783
-3.919645
-1.349071
-1.894436
-3.335215
-0.380413
-4.357280
-3.159124
4.259926
-4.844050
-4.824519
0.345012
3.361156
2.518540
0.135044
-1.268502
3.375195
2.089755
0.218665
-4.280679
-4.334086
4.980773
-0.578173
-4.314249
4.474776
0.772881
4.577013
-2.548448
-4.957274
2.421796
1.310312
4.797967
0.075533
4.360637
-0.567186
-2.817011
2.271950
1.748863
0.479904
0.106662
0.538194
1.590472
-3.156987
-0.126499
-4.260842
-3.483840
-3.800623
2.887204
-1.486404
-4.559313
0.044710
4.180578
-2.345500
-2.803888
-3.728294
1.408277
1.407056
3.080691
0.774712
1.519364
2.337260
-3.108768
-4.769585
0.146336
-0.049593
4.599902
-2.825861
-4.592273
-1.098209
-4.636219
1.829127
-1.483657
0.695364
-0.734428
2.778863
1.037172
-1.911222
0.506149
0.007782
2.362590
-3.445692
-3.761559
2.991272
4.308756
-3.633686
-4.252907
1.103702
-0.774712
-3.462172
0.438704
-0.957518
-3.826258
-1.476333
2.143773
-4.669179
4.424116
-2.021088
-3.641316
-3.405103
2.417524
-0.385907
3.250984
-2.256691
-2.636647
-0.743278
-1.902676
-1.923124
-2.692190
-2.306742
4.377728
1.224860
4.212012
-0.943175
1.459548
-1.013977
2.705313
4.626453
-1.965545
1.048158
0.992309
3.413953
2.896359
-4.610279
2.842647
1.644795
1.591388
3.850063
4.936522
2.711417
-2.452620
-4.572130
-4.475692
1.023438
-0.981323
-4.025239
1.626789
-1.547746
4.926145
3.604694
2.991272
-1.916105
2.854854
-1.691183
0.124058
3.422193
4.515366
-2.488327
-2.136753
-3.194220
-1.772057
-4.130222
0.162206
-3.767968
3.322703
4.724113
-0.773492
0.214698
1.338694
1.087527
-3.655660
-1.824549
4.019745
-2.044282
1.389050
1.193426
-2.137059
1.731468
-4.230628
4.511704
2.192907
2.019868
2.524033
2.504196
-0.368816
0.647450
-1.231269
0.626392
-2.357402
-3.692892
-0.589770
-1.528825
-4.971313
1.128422
-4.589221
-1.469008
4.866024
-0.990783
2.206336
-4.468673
4.333476
-2.798090
4.716483
4.971007
4.075900
-0.389264
-3.719138
-4.845576
3.163701
2.775506
-4.352397
-1.089358
-3.273568
-4.404584
-2.489547
-0.529038
3.154241
0.582141
1.272469
-0.058748
0.284890
3.273568
-0.029450
1.088137
-2.967772
-2.584155
-1.643880
0.859859
3.809778
0.178381
-4.946287
3.339488
-1.745201
-1.753136
3.106632
-2.282327
-0.739006
4.891659
4.620045
-4.776605
2.433393
-1.312754
3.384655
-0.724967
-1.521805
-0.263222
1.234321
4.758904
-4.740898
3.034303
4.713126
-2.020783
-2.458419
0.122837
-0.477157
-1.099734
-3.143864
4.078341
4.897153
-1.161382
2.580798
-4.654836
-0.984069
-3.429518
-0.876339
-2.704093
-2.550584
-4.114658
4.828486
2.078463
-3.247322
-2.607349
4.107639
-3.673360
4.985656
2.442244
-0.969115
3.802454
-1.975311
1.667074
-4.311197
-3.133183
2.140721
4.480270
-4.719230
-3.271737
-0.795465
3.646199
-3.476821
-1.603290
2.508774
0.203406
1.512650
-0.628834
0.994751
1.476333
4.549852
-4.907224
-1.286203
3.865017
0.345317
-3.998993
-1.283456
-0.170446
-4.240394
2.944273
3.482009
1.913968
-3.860134
-2.785272
-0.916929
0.810419
-4.889218
-2.688528
-1.119877
4.504990
1.125370
-4.002960
4.376812
-3.313547
4.406720
2.775201
-3.799097
-4.644154
2.243873
3.602252
-2.292398
3.429823
-1.001465
-2.656789
-3.969390
-0.924253
0.463424
1.873379
-1.340220
-3.308969
-1.706442
-1.246834
1.705832
-0.953856
0.276345
3.357494
-0.881832
-0.670644
-4.355754
3.480483
-4.014252
0.221412
-4.556261
4.223304
-4.126560
1.452834
2.052217
-2.924436
4.650868
-2.744682
-0.651112
-3.265633
-0.568712
0.124973
-2.918332
-4.293802
3.847316
-0.634022
-3.435011
4.221778
-3.351695
-1.933805
-0.833613
4.047823
-3.292184
4.250160
-4.966430
-3.549455
2.872555
3.549150
-1.861171
0.008087
-0.284280
-1.568804
1.405835
-2.498093
0.352336
-4.851070
-1.553545
-1.628010
1.053957
1.660360
1.595355
-4.730216
-3.463698
-4.850154
-4.932859
2.059236
2.935728
-3.984344
2.704398
1.757408
3.049257
0.216834
4.919431
4.477523
4.948424
0.191504
1.746727
0.679495
4.846187
0.314493
2.207862
3.308054
-0.733512
1.881924
2.781610
1.932890
3.106326
4.158300
-1.410718
-4.092990
2.886288
-4.881588
-3.847621
-3.379467
-1.450697
-4.979858
-0.950499
-4.174169
4.916379
-0.468612
1.758629
-4.804682
-1.705222
0.140538
-0.592517
-2.799005
4.623707
0.283059
4.721671
0.135655
4.918516
-1.568194
-2.728507
-2.112033
-4.810175
1.364025
1.356090
4.346599
-1.918241
-2.448042
-3.813746
3.619648
4.640187
-2.370525
-2.548448
-1.028321
0.214087
3.025758
1.635640
2.975707
-0.706961
0.021516
0.804315
1.049379
4.642018
-2.158116
2.493515
-1.006348
1.686300
2.621082
2.006134
-0.624561
-4.135411
-0.688955
-3.998077
1.891385
4.894406
0.748772
2.731254
4.271218
-1.099429
-3.743858
-3.906827
-4.194311
-2.488327
4.558397
-2.714774
-2.813654
4.667043
-3.812525
4.428694
-0.214393
0.060579
-1.903287
-1.036561
0.803400
2.150182
0.931578
-0.377972
-4.939879
3.409680
0.702994
1.657002
1.933500
3.988617
-3.136845
4.929197
4.238563
3.553117
2.978149
4.791864
-0.395978
-0.056612
3.580584
2.910703
1.769921
0.949889
-2.173070
-4.852901
-4.930418
-2.217017
-0.744194
-0.416425
3.192999
2.830134
3.477126
1.520890
1.183660
-3.992889
3.993194
-4.095431
-1.820276
-1.231880
0.929441
1.972564
1.624958
3.107242
-2.167577
0.016327
-1.213569
2.528306
0.413984
-2.058321
-0.370952
1.416517
-2.016205
-4.747917
0.854060
4.303568
-0.395672
1.679586
3.585467
0.119480
4.605701
-4.058199
4.302652
1.211432
-0.722221
3.496048
4.659108
-3.170721
4.624012
3.646809
-4.658193
-3.167058
0.378277
-3.318125
3.003174
4.786370
-3.925748
-2.043367
-1.302683
-0.628834
-0.213172
0.693533
4.789422
-3.387707
3.563494
-4.858699
4.094821
4.127476
-1.789453
1.496170
1.099734
-1.723533
1.121708
4.577319
-0.281533
4.766228
3.352611
-0.491806
4.804682
1.654866
1.092410
1.743675
0.151524
1.278268
-3.198187
-3.705405
3.239998
-4.717399
-1.026490
0.019074
2.674795
3.722800
-4.587695
-3.992584
-3.641011
4.487289
-3.223823
-3.365734
0.433210
2.308878
-0.325785
-3.135014
3.970305
-3.829615
-1.872768
-3.150578
4.609668
0.459761
-0.770440
-0.148473
-2.842341
-2.626270
2.422102
-3.731651
-2.044893
0.316324
0.539109
3.926054
4.259926
0.355693
-2.345195
-0.727103
4.436323
-3.077334
-3.337657
-4.016999
-3.752403
-0.566881
0.777764
4.778741
-3.425855
0.343181
-2.293008
-0.968505
2.207862
0.872372
-0.752129
-2.822810
2.879574
0.204016
3.825648
1.362194
-3.760949
1.836451
-0.195471
-3.986175
-1.498306
-4.225440
0.973388
-3.239998
4.681387
-2.386700
0.743278
3.197577
-2.403180
2.953429
3.258614
-0.000763
-3.570208
4.112217
0.642262
-0.388653
-4.784234
-3.040712
4.337138
-3.561968
-3.370922
-3.688009
-4.190954
4.124119
-4.898679
-0.662709
-4.003571
-3.405713
4.490646
4.497055
1.276437
3.391675
-1.858730
-3.801233
3.924833
3.140202
-0.982849
-1.745506
3.925138
-0.287942
0.867794
-0.019684
-2.084567
4.500412
3.926664
1.743065
3.451491
2.039094
-1.430555
1.929228
2.187109
-1.678060
-1.807764
-3.079775
-1.192816
-0.504929
-2.355266
1.971038
0.832698
-0.850398
2.196265
1.092410
-2.096164
-0.204627
-2.539903
-4.401227
-3.938261
2.266152
2.189550
-3.946501
-3.426771
0.813471
2.409589
-2.315897
3.402966
1.559648
1.483047
-1.551714
-1.040529
-4.368267
-3.957488
-2.149266
4.437544
-0.343791
0.090487
-0.912656
-4.190344
4.763176
-0.801569
0.882748
-2.415693
-4.221168
-3.635823
-1.101566
1.957305
2.747734
-2.603076
-1.673482
2.997681
3.171331
2.784051
1.309091
0.484787
4.250771
-0.585803
4.304788
2.607654
-1.823328
-1.977142
-4.152806
-4.858394
1.632282
-2.372662
-1.333506
-3.057497
-4.126865
1.662801
2.381207
0.164647
3.858913
1.021912
-4.033174
1.401868
2.791681
4.683828
-0.571764
-4.885861
-1.931364
-2.918638
-1.651509
-3.301950
-1.025269
4.126560
3.126469
-2.815485
2.547533
-0.931883
-3.700827
0.084689
-3.269906
3.945280
1.016419
2.792901
0.717338
-1.091494
-4.458602
-2.759636
1.079592
0.710013
1.727195
1.601459
-2.077548
4.436934
-1.002380
3.924528
-2.539903
-3.491775
-1.311228
-4.410993
-3.230537
2.803583
2.087924
-1.803491
-4.517808
1.032594
0.730766
0.141148
-4.369488
2.023225
2.399213
1.994842
2.020173
-0.713981
4.885250
2.423017
-3.218940
-1.256294
2.817011
-4.753410
-2.778863
3.383740
2.666555
3.402356
-3.576312
0.837886
2.939085
3.002258
4.593188
-2.739494
4.699087
-0.401166
-1.764428
1.966460
-3.106326
2.043977
-3.106326
4.225745
0.817133
4.788202
4.338969
-0.292520
0.012360
3.411512
-3.822291
-4.378643
4.447615
2.685476
-0.111545
-0.082858
-2.219153
-4.542528
-1.449171
-1.169012
-4.892270
-3.693197
-2.018342
-2.448042
3.300119
-2.030244
0.547349
0.516831
3.192083
-3.623920
2.124546
1.908780
2.083956
0.363323
-1.335948
1.636860
-4.311502
2.184362
-3.632466
-0.898312
0.467696
1.716819
-1.493118
-0.820490
1.262093
4.926756
-2.281411
-1.190680
-0.605640
-0.853450
-1.658834
0.427412
2.631764
-2.183447
2.845393
-2.320780
-1.144597
-1.933195
-0.533311
-1.613971
-2.099216
3.892178
-2.799310
4.297159
2.345500
4.415571
-4.725944
-3.802759
0.786615
-3.745384
0.175634
-4.913633
2.671743
-4.400006
1.547136
-3.856471
-0.832698
1.886196
1.810205
0.034944
-4.115268
1.565752
-0.821100
-0.116428
-1.899625
-2.750786
-3.937956
3.836329
4.360332
4.065523
-2.911618
-2.055574
-2.758721
3.228706
3.029725
0.445418
-3.429823
-4.790948
3.823817
-4.757683
-2.061068
3.866237
-3.307443
-3.058107
4.107028
-4.627979
-2.979369
1.588031
0.276040
4.222083
-1.954253
-1.830348
0.857723
-1.191900
-3.315378
-3.184149
1.002075
4.993591
-1.205939
0.847652
-2.684561
-1.075014
-4.976806
-0.707266
2.427900
-1.279794
-2.725455
1.603595
1.100040
2.025056
-3.846400
-2.223121
0.107883
-4.083529
-4.236122
2.654042
-1.862087
-1.237983
-4.260231
-0.238807
2.678457
-0.309000
-4.104282
3.608051
-1.496475
4.097568
3.629414
-2.700430
4.630421
-1.514481
-0.118564
4.702750
0.341044
1.493423
0.213782
-2.635121
-3.741722
-2.179174
2.162694
4.841304
1.631672
1.190069
3.954131
4.240394
-4.189734
-4.499496
-4.434187
-0.098422
3.869900
-4.997559
4.977721
0.721000
4.102145
1.917325
-4.624317
0.424055
-1.700644
4.832148
0.966063
2.850276
1.346934
3.754234
4.284036
-1.358531
2.777337
-0.720389
-0.209815
-0.942869
-2.968078
0.513474
1.191595
-2.097995
0.269326
-2.785882
-0.573595
-0.643788
-4.335002
2.946104
4.215979
-1.791589
-4.986267
3.439283
-4.936827
0.433210
3.976409
4.917295
-2.426984
-0.400861
-4.976501
0.297098
1.293832
-3.714255
-3.455763
3.436537
-1.036256
2.805109
-1.819361
1.650288
4.604175
-3.131352
-2.216407
-1.486709
4.804376
-2.647328
4.430525
-1.154668
-1.357921
-1.227607
2.072665
-3.738975
4.078951
-2.860652
-0.119785
3.964202
-4.454024
-3.325144
-1.283761
-0.903195
-4.591968
-4.390545
1.085696
3.189032
3.362377
-2.493820
-1.617939
-1.674703
4.230323
-1.546220
-3.480483
-2.833796
2.228004
4.983825
-4.235206
-1.405835
3.202460
-1.477554
-2.582324
-4.385968
0.329447
3.924528
2.498703
-1.962798
-2.883847
-2.931455
-2.054964
4.958190
0.266274
-0.247047
-4.497665
3.738975
2.699210
-1.895047
0.315409
-4.846187
-0.761589
-2.167882
2.556688
0.573290
4.822382
4.123508
2.157201
3.411206
0.412763
3.462477
-2.917722
3.975799
-4.386273
-2.174596
-0.683767
1.924955
-3.973663
2.454451
0.576952
4.906308
-1.884671
3.097171
2.912534
3.686483
-4.336528
-3.605914
-3.910794
0.416120
-2.334513
1.864528
-0.425581
-1.063723
3.392285
4.924314
0.917539
-3.443251
-2.183447
-1.208075
-4.276711
-3.794824
3.909574
3.102054
0.155797
-4.960631
-4.122593
-3.360240
2.449263
2.578967
-3.470107
-2.955870
1.895657
0.237281
-3.950163
-4.929807
-1.166875
-0.097507
-0.955992
-3.244270
2.389752
3.834498
-0.124973
-2.916196
-2.048555
-2.920774
2.262795
-2.336344
-2.823420
-2.640919
0.464339
4.748527
2.844172
3.292184
1.787317
-1.451003
3.237861
4.189428
1.967681
0.270547
2.547227
-4.681997
0.574511
2.287210
-1.339610
-3.818628
-0.260781
1.650288
1.758629
1.728416
-4.423200
-1.007874
-2.306436
-1.498306
-3.817713
0.741447
3.223823
3.088321
-1.908475
-0.682852
1.393933
-4.868770
-2.601856
-2.149876
-1.563921
4.357585
2.582629
3.190558
0.648061
2.433088
-0.999329
1.653951
-2.293313
1.982635
0.103916
4.363079
-4.072542
3.319346
-0.650807
-0.886410
3.504898
-2.950987
2.292093
4.391156
-4.996948
-2.206641
-0.320902
4.546495
-0.316630
4.311502
-1.116520
-2.788324
1.685080
0.852840
-3.564714
-3.136235
-2.939085
3.651387
1.882839
0.892514
-3.371532
4.138462
-3.200018
-0.813776
-4.109775
4.937742
-1.659139
0.324564
-0.188757
-1.877956
2.787713
-3.157598
1.978362
0.559557
-3.263497
-4.338969
-2.294839
-4.559923
0.533921
-2.522202
3.747215
-3.214057
4.535508
3.255562
1.586200
1.042665
1.925871
-0.068819
0.866573
-0.940123
2.312845
4.595325
1.292917
4.244972
-4.170202
-1.924039
3.514664
3.905301
2.605213
0.088351
1.177862
1.114078
1.087832
0.836360
-2.150487
0.230567
0.659352
-1.077151
0.136876
1.308786
-4.654836
-4.233375
-1.047548
-2.916807
-4.612110
-1.086917
1.272469
1.815394
-1.052431
-3.951689
-1.574908
2.350688
-1.458022
0.992920
-3.156072
1.409497
0.146641
3.483535
-0.856197
2.750786
3.592486
-3.837855
0.098117
-2.846614
4.172643
-4.868465
-1.399426
2.167577
1.021912
-0.901975
0.756401
-3.948332
2.484054
-4.512925
3.777123
2.558824
4.657582
3.853725
-3.344676
1.912748
1.851100
0.656606
-2.723624
-2.824335
-0.506149
4.123508
4.248939
0.644704
3.430738
3.552202
0.938902
3.864101
-1.477859
3.492996
-0.950499
3.980682
4.714652
-0.076754
-3.564714
-3.307443
2.365337
-4.929807
1.364940
2.326884
1.517533
3.520463
-1.198004
4.572741
-1.645711
3.001953
2.056185
4.679861
-3.349864
-4.038057
2.521592
-0.680715
4.976501
-3.170110
4.219947
-2.806635
4.108249
-2.439802
4.414960
-1.739097
2.757500
4.006012
-0.419477
-4.490951
3.693808
0.601978
-1.498001
-4.445173
4.919736
3.709983
3.955962
-2.673574
3.588214
-4.367962
3.436842
2.460555
0.426191
1.732688
-0.855892
2.338786
1.429945
2.607349
-2.224036
-2.438581
-4.253212
3.467360
0.827204
-1.829432
0.613575
-4.102756
-0.414289
-4.025544
3.728294
3.381298
-4.788507
0.368816
2.651296
-3.799097
3.568987
-1.640217
0.299844
4.947203
-4.094821
-3.291879
4.997559
-3.724326
-0.251930
3.777123
-3.367870
-4.289224
-3.892788
-0.268410
0.704215
3.761559
-2.443464
3.020264
-4.573656
-1.388134
3.202155
-2.030549
3.313242
2.695547
0.135960
0.285806
4.802545
-3.107242
2.461165
-4.746391
-3.348033
-0.809198
3.090762
3.397473
0.128330
-0.798822
1.872158
3.513443
4.718925
-0.374004
-0.595264
0.438704
-1.070437
-3.881802
-0.463729
-3.838771
1.643574
2.675100
1.107974
-0.170446
-1.824854
-2.797479
2.643361
2.103183
-3.520768
-1.650899
0.228736
1.644795
0.080721
-1.093936
-0.841853
-3.521378
-0.466781
3.713340
-0.628224
-4.909970
-3.497269
2.311930
0.206153
4.308756
2.080599
0.919370
-4.472945
-2.710501
4.343242
2.888119
1.379284
1.389355
-0.391400
-1.141545
2.502060
-1.783654
-4.555040
-4.301126
-1.348155
0.986816
-2.164525
4.149754
0.034639
1.463515
-1.869411
1.738487
3.993500
3.014771
-1.245003
4.065218
-2.524949
-2.243873
3.238472
1.476333
2.141942
0.225379
2.794733
-0.731376
1.746422
-3.226569
-0.729240
-0.331584
-3.110904
-2.247230
0.203406
-4.765313
-2.298502
-4.386273
4.818110
1.378063
-2.925657
-3.771020
-0.987732
2.208777
-4.457686
-0.622425
-2.888424
3.239998
2.080599
-1.754357
3.450270
3.787194
3.813135
-0.984985
-4.416486
4.171728
4.947203
2.033906
-4.952391
-3.171636
-1.374401
-2.491073
0.475936
-3.269601
-1.910001
-4.900815
0.065462
4.910886
3.032777
-1.231880
-0.151524
4.035615
-3.848537
-4.149449
1.195868
-0.839717
-1.754967
-0.422529
3.003479
-0.237587
1.995453
1.361888
-0.366680
-3.986480
-0.155797
4.211097
2.147435
2.896359
-4.406110
-3.918119
-1.498306
-3.139286
-4.408551
3.993805
0.415815
-3.008667
2.332377
4.927061
-1.747337
4.254128
-0.496078
-2.184973
3.882717
3.346812
1.516312
4.302347
-3.188726
-3.322703
-2.748039
3.641926
0.119785
0.439314
-1.503189
3.176519
1.301767
1.146123
1.281320
1.414686
1.131169
-3.110294
-1.555986
1.769311
0.485397
0.124973
-3.154546
1.642659
4.378948
-3.901944
-4.366741
1.295053
-4.530320
0.789361
4.368572
-0.085910
0.408795
3.872951
-4.374981
3.337046
-1.336863
-4.367656
4.355449
3.671529
0.967284
-2.265542
-0.788751
3.297678
2.392804
2.808771
-0.186621
-2.343974
-4.139683
-2.005219
-1.883755
-4.202857
0.045320
1.827601
4.955138
4.191870
4.778436
-4.556871
4.033784
3.790857
-0.621815
-3.221686
1.346629
4.450362
-2.301553
4.244667
-2.508469
-0.931883
-3.805506
2.652516
-3.014771
-3.046510
-4.727165
4.033784
4.455245
1.683248
-3.089236
-4.970702
4.263283
1.844081
1.834010
-4.459517
0.713370
-3.004089
4.466231
-3.102664
-3.220161
3.255562
3.752403
2.189550
-4.699087
-4.407331
1.227912
4.386273
-0.941954
-1.800439
-2.425764
-1.488845
3.749046
3.591266
1.978973
-2.269814
3.218940
3.036439
4.322489
-1.964934
3.607135
-4.798273
-3.964507
-0.498520
-2.598498
2.651601
-4.551683
-1.976836
0.392315
-2.936644
0.220496
2.933592
3.823206
-4.606006
-2.869503
-1.704611
2.177038
4.956359
-3.590960
-0.577563
-4.551073
-2.529832
3.191168
4.439375
-1.505631
-2.181921
2.241127
3.023011
2.508164
2.760552
-0.222633
3.607440
-0.630970
-4.517502
-2.701041
-1.623127
3.208258
-1.245003
2.256386
1.038697
2.725761
3.915067
-0.935545
-3.421278
4.357280
0.578173
3.231758
-2.573168
